<?xml version="1.0"?>
<opencv_storage>
<opencv_ml_ann_mlp>
  <format>3</format>
  <layer_sizes>
    108 54 2</layer_sizes>
  <activation_function>SIGMOID_SYM</activation_function>
  <f_param1>1.</f_param1>
  <f_param2>1.</f_param2>
  <min_val>-9.4999999999999996e-01</min_val>
  <max_val>9.4999999999999996e-01</max_val>
  <min_val1>-9.7999999999999998e-01</min_val1>
  <max_val1>9.7999999999999998e-01</max_val1>
  <training_params>
    <train_method>BACKPROP</train_method>
    <dw_scale>1.0000000000000000e-03</dw_scale>
    <moment_scale>0.</moment_scale>
    <term_criteria>
      <epsilon>1.1920928955078125e-07</epsilon>
      <iterations>1000</iterations></term_criteria></training_params>
  <input_scale>
    1.0631644569401129e+01 -2.9894581402063660e+00
    9.2351924195665003e+00 -2.4157187941859957e+00
    8.7173534655147122e+00 -1.8128538120734563e+00
    1.1026706294981667e+01 -3.2849567384108296e+00
    9.5820406808682463e+00 -2.5669498111744060e+00
    9.0550908515878898e+00 -2.2061071808302395e+00
    1.1225751396295513e+01 -3.3008760241822994e+00
    1.0065490369908614e+01 -2.9159796731551388e+00
    8.8085700132615639e+00 -1.9930697430807993e+00
    1.2034834327304504e+01 -3.6730457925813025e+00
    1.0703619001367169e+01 -3.1357250888741768e+00
    9.0740361190599099e+00 -2.2559768642447602e+00
    1.0094858956027723e+01 -2.8234817076263981e+00
    8.8224747043733540e+00 -2.0395552517817839e+00
    9.2113689766154163e+00 -2.4201123947061154e+00
    9.5614773216294306e+00 -2.6134518941852583e+00
    8.9873204930801887e+00 -2.1996849124380109e+00
    1.0513795225228881e+01 -3.0292007501882439e+00
    1.0946858662888882e+01 -3.1612766489720396e+00
    9.0680447097189454e+00 -2.2579553018221845e+00
    9.6207395910880766e+00 -2.5745959084413101e+00
    9.9853613596358191e+00 -2.7807069678400995e+00
    9.3269437764157495e+00 -2.4400753373559070e+00
    1.1535031591452721e+01 -3.4220609551768213e+00
    8.8846637554291235e+00 -2.0636821072480429e+00
    9.2609233339384485e+00 -2.3656638965570798e+00
    1.0425781143203606e+01 -2.9893073181310230e+00
    8.7565398392618174e+00 -1.9797952358479169e+00
    9.3491195611908626e+00 -2.5354292390936046e+00
    1.1208182204877099e+01 -3.2594852931622378e+00
    8.8928374652940292e+00 -2.1282058424736841e+00
    1.0139161990397902e+01 -2.8696710189245387e+00
    1.1110970701304744e+01 -3.2620308249788752e+00
    9.1813661853215365e+00 -2.2498162349154147e+00
    1.0184844425255241e+01 -2.9955657071940034e+00
    1.2111435835254809e+01 -3.6525701637392514e+00
    9.5722606403190316e+00 -2.4207404257375318e+00
    9.7778612791205415e+00 -2.8673439185401461e+00
    8.7493853157772765e+00 -1.9561966987952335e+00
    9.9099225407232545e+00 -2.6422504521839074e+00
    1.0768275475534583e+01 -3.2324702116103143e+00
    8.8313005441733363e+00 -2.0815750581504515e+00
    8.9500466864783217e+00 -2.1316718531118912e+00
    1.0242167808366748e+01 -3.0821074583330592e+00
    9.8557803108188118e+00 -2.6116558861048378e+00
    9.1030089881707159e+00 -2.2762962687409969e+00
    1.1427887728605583e+01 -3.5250011354832318e+00
    1.0305748912607132e+01 -2.8614888836428056e+00
    1.0360344268661454e+01 -2.7301478164212334e+00
    1.0095277442336194e+01 -2.6722032095469888e+00
    9.7583175940966242e+00 -2.4536840003374438e+00
    1.0086241300881985e+01 -2.6898523363206288e+00
    1.0458568886601048e+01 -2.8992490786064291e+00
    1.0742640873322790e+01 -2.9252776369744495e+00
    1.0198190642136124e+01 -2.7310209247722641e+00
    1.0459231664704070e+01 -2.8839718794534468e+00
    1.0808733466352896e+01 -2.9571699424026705e+00
    1.1650840998291635e+01 -3.3551001618884269e+00
    1.0866535869799643e+01 -3.1053820259399196e+00
    1.0401521005178818e+01 -2.8460860098939564e+00
    8.6971975233075334e+00 -1.9676192411287674e+00
    9.9679665965826025e+00 -2.8723656767286645e+00
    9.3715390614310401e+00 -2.3461745020588118e+00
    9.0297207800133581e+00 -2.2011374276428759e+00
    9.8642801037634626e+00 -2.9380175495194574e+00
    9.8865873786570990e+00 -2.6063362305909030e+00
    9.8867220097156565e+00 -2.6858201324703321e+00
    1.0409378650981976e+01 -3.0950909697153435e+00
    8.7063886750667656e+00 -2.0433778645106830e+00
    1.0499762364068298e+01 -2.9442961769373484e+00
    1.0300426924911575e+01 -3.1326167163365000e+00
    9.2019664521659372e+00 -2.3119340077752937e+00
    8.8228861987187805e+00 -1.8997290232808572e+00
    9.6401952078962179e+00 -2.6961112788532944e+00
    1.0671018271591965e+01 -3.0165381699282978e+00
    9.0739315853401319e+00 -2.1958213396521704e+00
    1.0032093840129535e+01 -2.8144084962306688e+00
    1.1370359213773373e+01 -3.3639505983906743e+00
    8.6825636852144505e+00 -1.9141671310074975e+00
    9.6396743934630464e+00 -2.6507777660209708e+00
    1.1055245359441745e+01 -3.2032517315152575e+00
    9.2662953472798630e+00 -2.3730497261141026e+00
    1.0106446825207733e+01 -2.8323806668151112e+00
    1.1541304048410170e+01 -3.4921415086772432e+00
    9.3913193759403679e+00 -2.4479555125237371e+00
    8.7485025008912132e+00 -2.0277596188559088e+00
    1.0262813831731629e+01 -2.8371468844932313e+00
    1.1133165773981224e+01 -3.2652644514428677e+00
    8.8696087520453375e+00 -2.1827178628370616e+00
    9.5202911764898612e+00 -2.5347089985915439e+00
    9.4829287925300747e+00 -2.6131693533522404e+00
    9.0543883645642786e+00 -2.2288207172263412e+00
    1.0266754250272674e+01 -2.9328217790033992e+00
    1.1084158726733152e+01 -3.3127538277206519e+00
    9.3454445475841705e+00 -2.4226070497836369e+00
    9.6696034221658387e+00 -2.6914386282443301e+00
    1.0849565535366848e+01 -3.1333670740430102e+00
    9.5573216332643725e+00 -2.5567799764641692e+00
    8.8170843759446669e+00 -2.0023530407867827e+00
    1.1519264557855097e+01 -3.3971642058558644e+00
    9.7566551378892292e+00 -2.7756084987702101e+00
    9.0556611998668721e+00 -2.1115620153785462e+00
    1.1093542826635979e+01 -3.2920333373378186e+00
    9.6730869412996583e+00 -2.6018704920007232e+00
    8.9552379481021234e+00 -2.1666809175866537e+00
    1.1802905392803101e+01 -3.5358413100242103e+00
    9.8447881522028116e+00 -2.7703628772342483e+00
    8.9039757546871616e+00 -2.1044179997184065e+00</input_scale>
  <output_scale>
    5.2631578947368418e-01 4.9999999999999994e-01 5.2631578947368418e-01
    4.9999999999999994e-01</output_scale>
  <inv_output_scale>
    1.8999999999999999e+00 -9.4999999999999996e-01
    1.8999999999999999e+00 -9.4999999999999996e-01</inv_output_scale>
  <weights>
    <_>
      3.6002851493989352e-01 2.3118324506952431e-01
      -8.5477474830179978e-02 1.7296024909633128e+00
      -5.6894315507922133e-01 -8.9483834169769805e-01
      6.5813647164206526e-02 2.1489396337448718e-01
      3.8991371844105593e-01 5.4120288821757356e-01
      -4.5511394952766421e-01 -1.6710305066487027e-01
      -2.9453366165699801e-01 -9.6065034255369552e-01
      -8.9033528039739629e-01 -2.2784280587031480e-01
      -3.8762058031646940e-01 -1.6139280393558515e-02
      -6.6789863888958756e-01 -2.6217195764382889e-01
      2.3326971429264007e-01 -4.7196242589962922e-01
      -3.8111613738992250e-01 1.4860302397845224e+00
      -7.0915007704738964e-02 -3.5178449008467269e-02
      -6.4744890083545381e-01 9.3217607200379704e-01
      3.4862531975119321e-01 1.0753461522218720e-01
      -5.2619725421941654e-01 -7.3365199865811734e-02
      4.6339888998695461e-01 1.2757049657984948e-01
      1.5166166493346836e-01 2.9472072688329101e-02
      6.5165560445831744e-02 -5.2259423684115991e-01
      -3.9999624900372716e-01 2.5078249004007841e-01
      4.1939754982301081e-01 1.0623237430371166e+00
      -1.5078425254832639e-02 -1.7414681521605341e-01
      -6.0662716501635856e-02 9.3750876726890392e-02
      -1.2430171736586548e+00 1.4562825039825053e-01
      2.8182105942311447e-01 1.1026380569734641e-01
      -6.6918028595380230e-01 -2.6028851200381075e-02
      -4.6337801812588997e-01 -1.6117381571947373e-01
      -3.0534488299631413e-01 -2.6373701814488215e-01
      8.6430442302618621e-02 8.5752706935545753e-01
      -3.9774319191949337e-01 -3.5631340939622569e-01
      3.6120814098691217e-01 -1.9126953781230444e-01
      -2.6891307704166573e-01 1.2193478693465480e-01
      -3.4262802459480313e-01 -5.6052928451107688e-02
      6.1092518823521041e-02 -6.0326182657808658e-01
      -7.4156067939408010e-01 2.0947478003984327e-01
      7.3206573233805450e-01 1.7662872527173763e-02
      -2.5417089410799948e-01 1.0930444696842734e-01
      1.3611346441867214e-01 2.5861640848898704e-01
      2.1541920311181237e-01 2.7920071402318558e-01
      -7.9129600543087000e-02 2.9957872742528504e-02
      -5.1413112977154019e-01 -5.3657983107532914e-01
      -1.8924583006383547e-01 1.7488381457180912e-02
      1.0026254394694716e+00 -1.4329213756032735e-01
      -2.7545273322852953e-01 -1.0490965391766420e-01
      2.4737143637474204e-01 -5.9749775088869930e-02
      -2.5966020401538209e-01 -2.7955871538718763e-01
      -1.6692844480553404e-01 8.3809620431391563e-02
      4.1812306652603870e-01 3.7945118280025958e-01
      3.6335275730190703e-01 -5.9661574726968009e-02
      2.1902089739833725e-02 -1.9784477926376173e-01
      -7.5488195682228998e-01 -4.5908718211972721e-01
      -3.2743357101308868e-01 4.0393876766727024e-02
      -6.7651831228866754e-01 -7.1057119373246616e-02
      -3.2545591290666737e-01 9.7636910811911046e-02
      -2.9716921300286914e-01 6.4125350439155515e-02
      3.5215381875115925e-01 6.9621995057440822e-01
      1.8882596681589078e-01 -4.7049845987178446e-01
      2.6451221193997110e-01 -7.9938247699446061e-02
      6.5680405002121311e-01 2.4030213352932400e-01
      3.4936023007531197e-01 -1.4016473207623634e-01
      2.6775853572762653e-01 -1.3107073623506333e+00
      1.7064278802309032e-01 -1.1450627758416136e-01
      -1.9097303003295768e-01 -4.0292440471126033e-02
      3.9095133906992913e-01 1.1307465767872750e-01
      4.6791546078811475e-01 -5.1796984470343344e-01
      -4.9157674190758138e-01 -4.1791533223229350e-02
      -4.9738632619853326e-02 -2.3782798463447448e-02
      2.1626710109033151e-01 -2.3791012372153320e-01
      -3.4824185705511096e-01 3.3440586628914115e-03
      1.0340262406902763e+00 -4.3086706680268888e-01
      -1.0982689457890550e-01 4.7717869717754421e-02
      4.5440776689111589e-02 2.1232554743028766e-03
      -3.1971092029126974e-01 -3.9059643795628207e-01
      1.0729821528578176e+00 -1.1006921067599815e-01
      1.8752039875913104e-01 1.1813603397723824e+00
      1.4135230927244585e-01 7.2033562651703589e-02
      -2.9263891582354352e-02 -2.8405970503143089e-02
      4.9777684982925718e-01 -4.4442232136991727e-01
      7.0230182997639679e-01 -9.4963119797091933e-02
      1.1203007597643824e+00 -7.8535366448402988e-01
      2.2466731185002067e-01 3.4726834570017455e-02
      7.5065256080398365e-02 3.6696600535967495e-02
      3.7703750201347697e-01 6.2595895491470688e-01
      5.8144832163626914e-01 6.1511946359779845e-01
      1.9766441873622063e-02 7.0479257421811450e-02
      7.7525867168304630e-01 9.9122974983250967e-01
      4.8318112750924364e-01 1.9420462719884835e-02
      -1.0181433599677339e-01 -3.7142072368109152e-01
      -1.0502398295937140e-01 1.2890715471869912e-01
      -1.5807492824360816e-01 -3.1985568529926449e-02
      7.5802858975609821e-01 -6.3623938496990455e-03
      3.5827651558597351e-01 -8.8636522802035045e-01
      2.5546568521992741e-01 -7.5446445888135572e-01
      -4.6244240941746673e-02 -3.8073699389093642e-02
      -1.0489283878669489e+00 -4.7665218324001396e-01
      9.0933034296145698e-01 5.4491001797768147e-02
      -8.6639040133062260e-03 -9.7517708616635307e-02
      4.3532892710950644e-01 -1.2529499088792803e-01
      -1.7861400070594177e-01 3.2985163563199166e-02
      2.8567281352346457e-01 -3.4058435715294690e-02
      -1.4571040503117383e+00 -3.1727169846783093e-01
      -4.6356330838547366e-01 -5.5785512200582921e-01
      1.0751618186805580e-01 -1.3051650082074212e-01
      -3.2868339155276850e-02 3.8126427132206342e-01
      -1.0766438462562131e+00 -6.4684788759768086e-01
      -6.5180928910943070e-01 3.4000594591499683e-01
      -8.4701120039495925e-01 -2.1833110478527795e-01
      -3.0757668714379793e-01 -1.8497476073737636e-02
      -8.8172320615360622e-02 3.0927461659232686e-02
      5.0665662276332868e-01 1.4317506446688119e-01
      -2.0114787835137501e-01 -5.9676533413914612e-01
      -1.4182323405050229e-01 8.1156386954804469e-02
      -2.1822710172823861e-01 -2.0354096638739705e-01
      -6.7626067943024920e-02 -1.1394507996081275e-01
      -7.1783677461839765e-02 -8.0161434660053021e-01
      -4.6999616869535704e-01 2.3017058772635607e-01
      3.7431655384964929e-01 3.4076064533208252e-02
      2.1970518767489119e-02 -5.4763721205421967e-01
      -1.4728449280221059e-01 -4.5367910779210535e-01
      5.6217653741574385e-02 -3.2597082069464656e-01
      1.2625526528927938e-01 -1.5927968184649099e-01
      3.5544862659230464e-01 -8.7180837745085304e-01
      3.3411397448935301e-02 -4.1909721285748963e-02
      -5.8381908105414648e-01 -2.8684308318033869e-01
      -2.7994007364763124e-01 3.2710694482369152e-03
      8.9638527955517036e-02 -3.6443765645100559e-02
      -1.5911245759870195e-02 -7.5609949982694824e-01
      2.2595158412957164e-01 -7.6149084217810270e-01
      8.1316036905930367e-01 2.3216944775352824e-01
      1.5564157250760077e-01 1.2885751975403528e-01
      1.0150154755863545e-02 -2.5944255614990364e-02
      -6.9523825528241689e-01 -5.7065325424115021e-01
      6.3222074625897351e-01 -1.2509912211155771e+00
      8.1869289402889256e-01 2.4334135851320707e-01
      -3.6251067114640606e-01 1.7936333287687586e-01
      -9.2394246235760480e-01 -4.5400830344338797e-02
      6.9986723598421474e-01 -1.2528934548133364e-01
      -2.4291967845862139e-01 7.1436032714133083e-02
      -5.2152890018115983e-01 -1.9827824111324677e-01
      5.9247967218197828e-01 1.1698834155056479e+00
      1.6047655561005633e-01 -4.0605164344069203e-02
      2.9506129835322908e-01 -1.1416112756469317e+00
      1.4653724914435601e-01 7.4041171909032611e-03
      -4.2149125641514289e-02 1.2694953360843559e-03
      4.3040739028814623e-01 5.7787624296952544e-01
      -5.1483767581577100e-01 -3.6253821365829608e-01
      -2.0869041383034490e-01 1.0315484979374958e+00
      -1.5798045289552574e-03 -2.8471932773723577e-02
      3.5741627418854754e-01 -1.6327380426484753e-01
      3.2763771440172146e-02 -7.6780313955336467e-03
      6.9072980727376121e-01 5.6411023885664735e-01
      -3.9133987786837754e-01 -2.3106718346676183e-03
      3.8258992162773654e-02 -1.7077897114862524e-02
      -1.3813977114884285e-01 -3.3557818487189955e-01
      -3.8604308526047415e-01 1.0394508614208531e-01
      6.6798925944421106e-01 -7.9163942906043405e-01
      -2.3897284553634832e-01 -5.8131971012772080e-04
      7.4096849679654245e-03 -3.7363622544763375e-01
      -8.4271271256384461e-01 -1.6661880092151080e-01
      1.3600418530696872e+00 -4.4732101718184267e-03
      -7.6418280425814467e-01 -1.8061094703525696e-01
      -3.6376473344048227e-01 7.9702133289609581e-02
      -2.2122204830701686e-01 3.3261166218465775e-02
      8.6239420151380186e-01 -9.2084125870822475e-01
      -1.0817519100340389e-01 1.7748651415802510e-01
      -2.4827455500265741e-01 1.6657142759883206e-01
      4.3275752294443826e-01 1.0637934503539390e-01
      -2.0275485644816503e-03 -1.2843761883984997e-01
      -3.0106034482851277e-02 1.0099853838896050e-01
      -2.3778159585023076e-01 1.0094555258648576e-01
      -7.5360568490420621e-01 -3.5952884804327838e-02
      -3.4032949779024757e-01 1.6629159143194536e-01
      -8.8298100145452985e-01 4.4095821980013400e-01
      -4.1500662736740168e-01 -1.0173286097527814e-01
      -5.4578811281205612e-02 2.6582308951523723e-02
      -2.6916516252703027e-01 -1.1206884659127623e+00
      -2.2044445308982830e-01 7.3109945518689157e-02
      3.0270530504438303e-01 -5.2529417721096527e-01
      1.2326895707606007e+00 6.1375120932440422e-03
      -3.8154209996864269e-01 3.6574620442172828e-02
      5.1816632170199488e-02 2.4492846326975366e-03
      -7.5044013086074141e-02 1.9272411083016461e-01
      -7.0677073383103517e-01 -4.4110127428772278e-01
      -3.3680648180752076e-01 -9.0755700960779853e-02
      -5.0615976087245967e-02 -5.4180786708542750e-01
      -9.0945508843452894e-01 3.9849195862259235e-01
      5.5927380673381244e-01 -1.2792380924757812e-01
      -1.5565202997756214e-01 1.1873470956114338e-01
      -1.0234123374555433e-01 1.5406197760062837e-01
      5.0985119760220265e-01 -3.2454854006007713e-02
      -6.5079299101772647e-01 3.9698134855360445e-01
      3.0964207515571867e-02 1.2625474251335828e-01
      1.6773431185747642e-01 4.3792996901000678e-02
      -3.2599147494261682e-01 3.7808424423571724e-01
      2.0530289553656939e-01 3.3401577014963102e-02
      -5.6518575045795334e-02 -5.2141611495313289e-01
      7.4157040813050201e-01 -8.2691361603416724e-02
      -2.2268105957228765e-01 6.5668797961700026e-03
      1.3913163053004737e-01 3.5308427354357530e-01
      -5.4255720515743733e-01 -1.7491516114360928e-01
      -1.4905952703766523e-01 -1.1568159411181665e-01
      -1.1315778164097051e-01 3.8031828597645612e-03
      -2.7118432852037427e-01 9.1813692978163927e-02
      -1.9526824295092032e-01 9.2985791341328131e-02
      1.5265490783281619e+00 9.4886198592481263e-01
      -2.6975590610073347e-01 8.1693946100774018e-02
      1.4052214734357293e-01 -3.7160700002079793e-02
      6.5515310022722748e-02 3.4239954969523062e-01
      -8.6435293222106890e-01 -4.3012762036764761e-02
      -1.7256344303388118e+00 3.4363433808929150e-01
      -2.0920323724655995e-01 -8.0819377720651356e-02
      -8.2893084622017010e-03 5.3448077777432146e-01
      -6.0565335929439545e-01 6.6866490941596213e-01
      9.0752140989340568e-01 7.9624342931874192e-01
      1.5304820285462606e-01 -2.0144963477234026e-01
      1.1319013918849903e-01 1.0502152346669584e-01
      -3.6733734590978873e-01 4.9150481243733923e-01
      2.6470957636489029e-01 6.6350382553970466e-01
      -8.6059666031415549e-01 -6.3777496702500669e-01
      3.5327845390617607e-01 5.9922822059403802e-01
      2.7601571444257134e-01 -9.0774349340404359e-01
      -2.5023524584329693e-01 2.1365745380098372e-01
      -5.1694693348719623e-01 -7.5191857900624037e-01
      5.6835863492889072e-01 -1.8338142230022933e-02
      4.1411790215603331e-02 -1.9569533986763595e-02
      3.8084859508970870e-01 3.4424256517343522e-02
      5.2564461143734742e-01 -6.7605566363159921e-03
      -3.4056042566011080e-02 1.2019520016871570e+00
      1.1326927781842175e-01 -1.3676148415111827e-01
      -5.6365726634902924e-01 1.4733678958290732e+00
      2.0048289215574094e-01 -6.3980770675262033e-02
      1.1419638182221691e-01 -4.0290976438119308e-01
      -2.3447326018183282e-01 -1.6813842809695917e-02
      4.4566110214001758e-01 -3.5339928271805349e-02
      1.3691762900849180e-01 4.2403893107443344e-02
      8.0445817062658054e-01 3.5495341068229380e-02
      -9.5970651955923691e-02 -1.6090879689585905e-01
      2.0896850616527990e-01 1.6343161494996883e-01
      4.0178327964418455e-02 5.7046717355881116e-01
      -1.1943520126027394e+00 1.0269494267090365e-01
      4.6686252646538168e-01 1.2536161505833314e+00
      -8.5022469715080551e-01 3.6826699406287433e-01
      4.6468401700355361e-01 -4.9019685095704113e-01
      5.5196132008017396e-01 -1.3542412633681963e-01
      -9.5789435970036596e-01 -3.0850032120429660e-01
      -4.2602713075191229e-01 1.7727967087013470e-02
      -1.2089163071606117e-01 -4.4517300588496275e-02
      -4.9101887566578384e-01 -5.3659306523102990e-01
      5.4267874765288104e-01 4.5248301841255403e-02
      -9.6244482116638174e-03 -8.0793123156274363e-02
      6.6714974814378172e-02 -1.7266682553138412e-02
      2.4913059522498332e-01 -2.6075806911150773e-02
      8.9391334530406241e-01 -4.1038019974788592e-02
      5.4735655686490259e-01 8.7019099031656522e-01
      -3.3970300187920716e-01 -9.9271623814321128e-02
      -1.2257477311547241e-01 1.2702343671750238e-01
      -4.1290097087484795e-01 -5.2815673131187202e-01
      2.9643665281143816e-01 6.9601130852280271e-02
      2.1515002416015876e+00 -2.4163430351430260e-01
      -5.0234445127956806e-01 -4.1196124701078599e-02
      -9.4434856598272165e-02 4.0258363623111096e-02
      2.2460517825139067e-01 -1.2421648710870761e-01
      1.5942160385421933e-01 9.5790998523527182e-02
      -2.8952004166806389e-01 -6.6141346774372123e-01
      4.1616473236444496e-01 -1.2432728129735211e-01
      -5.3349582314051791e-02 5.7738438677985504e-01
      1.9730824109209016e-01 -7.0535192088548826e-01
      -4.3130485946588998e-01 -4.4887055170036327e-01
      -4.9398098191405559e-01 -1.1583061414396825e-01
      2.1586223459848344e-01 -1.5219038171424834e-01
      8.6375114659497199e-01 1.3882831284624766e-01
      5.8764586003081831e-01 -3.5687017365020079e-01
      -4.8711388672333433e-02 -5.2910338405670332e-01
      -2.6510290602180875e-01 2.7171127868544243e-01
      -6.9011936951761998e-01 1.9676416727348742e-01
      4.7567551600425512e-01 2.6964504089232205e-01
      -2.0801548072823800e-01 -8.8654625031705692e-01
      1.6680130918812941e-01 2.3388485050359412e-01
      -3.8790828502419911e-01 2.0724144225997033e-02
      -2.0417892252067371e-01 1.1885175990740221e-01
      -7.9437917083064902e-01 -1.1680832916916881e-01
      -4.4926520466051378e-01 1.0517895052209829e+00
      1.1108286650277840e-01 -1.0483575012543996e-01
      9.3781980256988295e-01 -1.8492573771378482e-01
      3.3724205968908322e-01 -1.8452626204664015e-02
      1.5365736964355357e+00 -7.9572988426389568e-01
      1.7084196111044647e-01 9.6705411450417906e-03
      1.0226418797221838e-01 -4.2842700237683606e-02
      2.8630961569817553e-01 -7.7910398778972278e-01
      -2.1953773794947662e-01 -1.5568881781805538e-01
      6.0650823275628629e-01 2.8845109142535286e-01
      -2.1401317698593258e-01 8.6432265591227131e-02
      5.7231239149043635e-02 -2.1300425734039338e-01
      -8.2419136366407109e-01 -3.1306405445248403e-01
      -4.8353851677247028e-01 -2.6989103444665996e-01
      1.3895971446075264e+00 -7.4264896203013553e-01
      8.4957767071951007e-01 4.5031365113906006e-02
      -1.4953284650236010e-02 -9.5023550668544884e-02
      1.9172583023923023e-01 -7.5352388658766334e-01
      -4.5389926173598695e-02 -5.4124887836491897e-01
      -1.3014520466892840e-01 -1.8890038518733318e-01
      -5.1235617062740935e-01 4.2496165707869360e-01
      1.0422118315496032e-01 3.9500470740335031e-01
      2.9356731919758122e-01 -6.4803004285385202e-01
      6.7071410514113125e-02 1.3671019702587295e-01
      -3.8010352613945869e-01 -1.2394591424611287e-02
      4.9993525122563837e-01 2.5168214238600761e-01
      5.7739010999283982e-02 -5.1439121043896585e-01
      -3.2360987634869093e-01 -1.0374919130387696e+00
      8.7704959644625460e-03 5.0423601875898991e-02
      -3.4765450363774830e-01 4.1202602682117689e-01
      -4.6303452732750788e-01 1.9551615243501089e-02
      9.3022584598544331e-02 -9.9987895596120695e-03
      -4.0044866546806654e-02 -8.2867756701537093e-02
      -3.1973325293476057e-01 -6.4214767286874253e-02
      -1.7396392020226778e-01 -1.0403695881565317e-01
      -7.2472078387999705e-01 1.4759643871036451e-01
      -8.5446245135303267e-01 -2.6340573551313679e-01
      -1.8761839114595139e-01 2.2401272528558822e-02
      -1.8651327348795956e-03 3.7084467822593070e-01
      -5.2742727926802380e-01 1.0130895642798780e-02
      3.7029628265384884e-01 -5.1694109784705433e-01
      1.9867748126235912e-02 -6.5168625359044774e-02
      2.9921115869585063e-01 -2.6575889319210122e-01
      1.6458473101645743e-01 9.7707175991541079e-02
      -6.3599603367182150e-02 -1.3019880058931192e+00
      -9.2254117867578034e-01 1.4142505748900142e-01
      -1.3281806274137806e-01 7.6678553541702194e-02
      -2.2975797931120850e-01 7.1264337708775582e-01
      -2.6664797580976701e-01 2.1692894421413952e-01
      -1.7411349388030353e-01 -9.5978156925068414e-01
      -2.1795575247083965e-01 4.4535619162543300e-01
      1.4956021570705690e-03 -1.2580256102486443e-02
      3.6917605779484836e-01 1.1386946105926377e-01
      -2.9438078568677493e-02 -3.4176747357137871e-01
      1.8481236214042485e-01 -6.2930703599607440e-01
      -9.4585709395912362e-02 2.5617094365174196e-03
      -6.4323213717965178e-02 6.0314893296090233e-01
      -4.8356118929700664e-01 6.1815674801551188e-02
      1.2372701059692243e-01 3.5769709568163693e-02
      -2.7761645022251469e-01 -7.7839923506527783e-02
      3.7275248388653814e-01 1.3732769252108257e-02
      9.0710585806168337e-02 -8.1667102877229525e-01
      -3.7000750139365329e-01 1.3091204085979655e-01
      5.3837260480727518e-02 9.5629381406569280e-01
      -1.8905062951080107e-01 -1.2759074982904617e-01
      9.0350554763651923e-03 5.4982514766810897e-01
      -3.5091855919864307e-01 1.2424470357057499e-01
      -8.4266279555597701e-01 -3.8185766650548886e-01
      -1.3929701364460459e-01 6.7076562768043557e-01
      3.3554528981435355e-01 1.1656757728078170e-01
      -1.0196846056434782e-01 2.1692615838362100e-01
      -8.6428337866074234e-01 3.2111786981724566e-01
      1.4727941505547786e+00 -1.0809131351703845e+00
      -4.8989169564457613e-01 3.4127028576665636e-01
      5.2028048379950487e-01 -7.6061629074093374e-03
      -7.8995785227804527e-01 -9.2713973729407692e-03
      -4.4059418849486426e-01 -1.1578509828829924e+00
      2.1923728540994197e-01 -3.3901255506559330e-01
      -8.2308776432578390e-01 2.8664349085626866e-03
      8.9938359880335850e-01 7.6000338520252908e-01
      -3.9430339385371556e-02 5.4334417017776478e-02
      -1.2584791556221600e+00 -2.4021414051960654e-01
      1.2703719674874439e-01 -3.0095411879290882e-02
      1.5322797310066413e-01 -5.5487682305211095e-01
      -2.4009049872218832e-01 1.9161374431874167e-02
      -6.5409813428509489e-01 -4.0349764838628882e-01
      5.4181770749484970e-01 1.4828932714200654e-01
      -3.2091228012382067e-01 -2.2268196132934539e-02
      4.1575015826369544e-01 -4.6570684622948938e-01
      -2.4611398306089047e-01 -7.5933923166432449e-01
      3.5304263655803136e-02 -1.5880488683545271e-01
      -3.1877819850731776e-01 9.4750970740442336e-02
      -3.3849612640403067e-03 -1.5628147956340184e+00
      4.1341237055560304e-01 -4.2031063956774500e-01
      2.8589005288847841e-01 2.4982187680988877e-01
      -4.4352806021554170e-01 4.0109845690274060e-01
      5.7744813294363551e-01 1.1458526759664382e-01
      -4.1396086066306520e-01 1.6904911529495064e-02
      1.4271547029106753e+00 7.5186378548146493e-01
      -9.2231862066596759e-01 5.6035307483462293e-01
      1.9171113537332526e-02 -5.2054942385762595e-02
      1.2455385249695622e-01 1.5285988732910284e-03
      5.0999145808335578e-01 -8.2955277785381948e-02
      -4.3750152849003604e-02 7.2349117422118736e-01
      -2.6281374609401875e-01 3.1693921920503340e-02
      2.8399115614254411e-01 -8.6097135046170944e-03
      3.8402038194440202e-01 1.6864199129549751e-01
      2.1959940872277220e-01 9.6444702585631870e-02
      -1.0201635280445327e+00 -2.5122850571703170e-01
      8.4233302921026418e-02 -3.4591460339352967e-02
      -5.4509773857660981e-01 5.8059133884033198e-01
      5.4700312844047146e-02 -6.5571986394444656e-02
      -4.9982216933562323e-01 -1.0764705278008924e-01
      -6.1802738571145752e-02 -3.8286467491957382e-02
      -3.9666953457927270e-02 -3.6598863778717648e-02
      -9.1789161510638807e-03 7.8317868536593740e-02
      4.8996855989262988e-01 -3.4298518668888034e-01
      -7.2114146061282514e-01 3.6797464711261316e-02
      3.7364460485047324e-01 1.0341663589135253e-01
      2.8916579565421421e-03 1.2818567516751309e+00
      -8.4421272706897177e-01 3.3788976594742570e-01
      6.4693188365367338e-01 9.5715237543632453e-02
      2.6285244830709420e-01 -2.1227743177663741e-01
      4.8626945793611355e-02 -1.8084068526082631e-01
      -4.1974145285110798e-01 3.6452946519184980e-02
      -7.5384802797561962e-02 -9.3715277382775775e-01
      1.7733071450325852e-01 -1.8928867721416945e-01
      1.6597608728528818e-01 6.7128079110777505e-02
      -1.3324947223792677e-01 5.6565638346810609e-01
      -1.1184025830544264e+00 -2.0848476779165562e-01
      -4.2215151242244323e-03 3.8446544300015650e-01
      -5.7405096666077848e-01 2.0080076675350794e-01
      -1.0568631845813546e-01 1.1273318143132953e-02
      3.1356561201749572e-01 -5.9329210164323139e-02
      3.6595525789130939e-01 2.2291503280760386e-01
      -3.0147959430676974e-01 -3.7319147730634682e-02
      -6.0284942004010869e-02 3.1180099392955404e-02
      -3.1446807630984713e-01 6.6498877815688373e-01
      5.0275866917656092e-02 1.4608101305714044e-02
      6.9599404487578942e-01 -1.5158574405971595e-01
      4.4775709552035414e-01 -8.0624397433497683e-02
      3.2162706001965416e-03 3.6252072030865189e-02
      -1.9781344846493359e-01 -1.9834618674786855e-01
      -6.4904008988840123e-01 2.2428048516766078e-01
      -7.8153880832031952e-01 -6.6658924194214375e-01
      -2.1627872991713687e-01 -9.1442980116406974e-02
      2.3266232238299447e-02 6.6700615019798404e-01
      7.9487675182250328e-01 -8.3329076530757065e-02
      -5.3493122933784165e-01 -2.4573398686811085e-01
      5.4490190309231035e-01 1.2612969031598764e-01
      -4.3802511334504896e-01 1.3212533227600662e-01
      -7.3303863659144194e-02 1.4655322208731187e-02
      1.4680228238752180e-01 -7.6867718223316939e-01
      -2.4604493898455332e-01 2.4061229307684956e-01
      9.1845191529326242e-02 1.3686507334416956e-01
      3.5852312952190857e-01 7.0943679749036104e-01
      -5.9119084831784541e-01 -7.3541628153900904e-02
      -2.1386603870808440e-01 9.0312487559808774e-01
      -2.7191575784562977e-01 1.2705121602274233e-01
      1.8738807181260206e-01 -8.4524706900792040e-03
      1.1478192034782819e-01 5.7815564274950904e-01
      1.7498151668556244e-01 2.8142795821243471e-01
      -4.0954717272438168e-01 -7.9019509522600478e-02
      4.1095206065171697e-02 -7.4846902747535457e-02
      -7.5699310416255949e-01 9.2738136096335666e-01
      -1.1860353668875463e+00 1.7555098927041025e-02
      -1.8744513048128544e-01 6.0882213536274321e-02
      1.0832952699494693e-01 5.3195794439189585e-02
      3.5613958850268851e-01 6.6013967568228568e-03
      2.9409597064097620e-01 -2.6801905429841277e-01
      -1.5632348035939594e-01 -1.2274578674148238e-01
      -8.6211900517353157e-01 2.8804246312059523e-02
      3.0684401259350125e-01 3.1955538390033414e-02
      -2.3138727147055844e-02 4.0256492561238411e-01
      1.7077444617442805e-01 -5.8253119580133694e-01
      -5.0774518608172270e-01 1.0245038827328428e+00
      5.9428893524457503e-03 8.2585456598031448e-01
      -2.4811109203247284e-01 2.0054963388367544e-01
      8.8713964389504615e-02 8.5317094572433749e-02
      6.6078335373794517e-01 -8.8699630167380517e-01
      1.1751466568079943e-02 -4.5329371961932730e-01
      -5.0951240835964140e-02 1.1079703571170900e-01
      -5.0290564456851827e-01 -2.5942933227018966e-01
      2.8988180320434342e-01 2.0873439900958965e-03
      2.3837003958089662e-02 -6.3069425663342527e-01
      9.7642248179419730e-02 -8.8206060283828977e-02
      -1.7677844636862558e-01 3.2294410157493604e-02
      -9.5828465190931647e-02 2.8003877561942125e-01
      1.0974656259018580e+00 -5.8031995657571289e-01
      -3.1445279665482308e-02 -8.1194373548160848e-01
      -2.1748745756648502e-03 -2.5429963329035930e-02
      -1.1545416602378837e-01 5.4987417701330499e-01
      -1.9715619298432081e-02 -3.5555053995277808e-02
      6.1212588319814576e-01 -1.9273674906420735e-01
      -1.2809370725677116e-01 6.1913284238473984e-03
      -3.0683726822199789e-02 3.4446533899372536e-02
      -3.2088581863659010e-02 -6.2970716130355309e-01
      3.6762767603598967e-01 3.5309425784800202e-01
      -9.2424631434955351e-01 4.0616801159359250e-01
      7.4103037203260377e-02 2.8219167665701685e-02
      -2.9792667426073307e-02 3.5569993619955648e-01
      -2.4010509518480533e-01 -9.9855606373839623e-01
      9.8846697372060621e-01 3.1997662457822323e-01
      -4.6777057994305216e-01 -2.2975675503286999e-01
      3.3756944525831650e-01 -3.7582748527597865e-01
      4.6497993872750588e-02 -4.1348174752093951e-02
      -2.0685299078951561e-01 5.6742974295410753e-01
      -8.5487195725001086e-01 -2.3716621748130756e-01
      -5.7948670019902913e-02 -2.4035748412810021e-01
      -4.3704123339558953e-01 -3.0064254680553859e-01
      -6.6780186332995572e-01 5.0164722448230538e-02
      3.7115042152082439e-01 5.1738211256120004e-01
      -2.6600660126386499e-01 -2.2558656422691295e-01
      4.9284646091031592e-01 -4.6619543301945458e-04
      5.4235558140170426e-01 4.5303163378537764e-01
      4.6764059648789791e-01 6.4022959423514780e-01
      1.1464254755777707e-01 2.6002572790538625e-01
      -1.1772764375425397e-01 1.2151581194567075e-01
      4.9688219419557124e-02 -8.9365751518268033e-01
      1.5315065251598164e-01 1.7258338267840619e-02
      1.9991100595611327e-01 -1.0113921620045387e-01
      -7.0650617364583404e-02 2.5750964813907012e-02
      4.2783275235408424e-02 -3.3230712521649962e-02
      -2.4576313008656553e-01 -4.4673561622420643e-01
      -3.2010339344657623e-01 1.0523654451517668e-01
      3.3307795595863365e-01 3.3696987312704996e-01
      3.3527572890034779e-01 -6.1694528905499292e-02
      -2.8566181313879078e-02 -4.8699122146225554e-01
      -9.1271074693280685e-01 -2.3837326292253194e-01
      -1.7545132293942159e-01 -1.4506679148193577e-01
      2.0820679264617289e-01 4.8985302932233127e-01
      2.9516196363464098e-01 -1.5810932668567157e-01
      4.5114861959165398e-01 6.0267168598161773e-02
      6.3262859869258703e-01 -5.0319297506023297e-01
      -5.8618624664214614e-01 7.4658717501091831e-01
      -1.4917136784321661e-01 3.5543814001691348e-02
      -4.0345987639474334e-01 -3.3599954157626971e-01
      -2.8989721117423428e-01 -9.1054092020800614e-02
      -1.3502707427629260e-01 -1.7774744702179146e-01
      2.9433394973299370e-01 -1.5723121619577987e-01
      -1.5774975701674943e-01 1.6914151390848954e-03
      -1.5286741464980597e-01 3.2983877451753213e-01
      -4.0930505584928040e-01 -4.0104791546661334e-01
      9.1152737656362193e-01 8.5444112469710704e-02
      -9.1873328495731803e-03 6.5401543830141934e-02
      1.1911952326601680e-01 -3.4496831610962747e-01
      -4.9053053821666442e-01 7.0006101606505944e-02
      2.5496981690977094e-01 6.0990963230912598e-01
      6.3806655002816787e-03 5.2376083664196847e-02
      -1.9913571364184604e-01 -1.2091028504667296e-02
      2.5094167952998708e-01 -9.4881431746697081e-02
      -4.1556446330802571e-01 -5.2326883405907054e-01
      -2.0579540966641188e-01 -2.3960590211618935e-02
      8.4197538573682715e-02 3.5569900467783834e-02
      -4.3676744408071816e-02 2.9911810037812891e-01
      -4.1323089265527002e-01 2.4003327474444150e-01
      -2.5885747007131924e-02 -1.3489851186313281e-01
      -6.4901393962224252e-01 1.1779245764703035e-01
      9.2991812535227050e-02 5.2699047766144466e-02
      -2.3817719221024852e-01 -1.2614207374857594e-01
      7.2730343295428868e-01 7.6065658943544612e-01
      6.7367457073746706e-01 -5.9870122538443427e-01
      3.1325696860984414e-01 -6.1702262910119821e-02
      3.3121063983314597e-01 -8.9054940152681272e-01
      -6.9858272591106585e-01 3.5008576964380374e-02
      6.9071682801426226e-03 2.2921158248213333e-01
      1.2000202908199747e-01 1.0231464788493064e-01
      -8.3087693171039229e-02 -6.6820415328498707e-03
      4.8819829752981919e-01 -6.2411017989118973e-02
      5.5786018949397342e-01 -2.5222005685363469e-01
      -4.2247245151091650e-01 3.1537941707691919e-01
      -1.5365950537340115e-02 2.0725761450174310e-02
      1.4352748991975064e-01 -1.6733832929417988e-01
      9.8213719576194092e-01 4.0855839638671919e-02
      3.0767065276390365e-01 -1.6351316954156438e+00
      -8.2351546906973744e-02 -4.2030708296245819e-02
      -2.9047830591943502e-01 -4.3646912557936846e-02
      -1.2173904224110406e-01 2.0835771063029265e-01
      -3.5605865919648860e-01 -5.9372094876119594e-02
      -2.1389865397176613e-01 1.3343199402991784e-01
      1.2936284267809647e-01 -2.5285391428164296e-02
      -7.4298785316450427e-02 4.8726636549536306e-01
      -1.3670676962249593e+00 2.1186604121854766e-01
      1.3238146867378869e-01 -3.2271447772893141e-01
      5.5720554384508747e-01 1.8346499769045319e-01
      -5.9982929796433541e-02 -1.0250941507505960e-01
      3.1348036931317819e-01 -1.5347033541683222e-01
      2.2923787406720367e-01 1.9500180483094531e-01
      -6.1653084571421635e-01 -6.2425934888947869e-02
      4.8142369492495014e-02 -2.0650299153203594e-01
      -5.4049504625861569e-02 6.2737828953799979e-02
      5.6364404341773056e-01 -2.8048973142637529e-01
      1.0201018332993686e-01 -7.0193733955823512e-02
      -6.4436827082341452e-01 -2.4165518291565771e-01
      6.4040745956810946e-02 4.9561965558776160e-03
      -3.2693125446396837e-01 4.9176592077337800e-01
      5.0957512972226027e-01 -2.4697331034004258e-01
      3.6239550159259359e-01 2.4204331451629207e-01
      -1.1245568507069502e-01 1.2121971544982885e-01
      3.3960216886913819e-01 6.2369502292712091e-02
      -2.5737538067986931e-01 3.7181154444858040e-02
      6.6790025858138768e-01 -1.2253323726595695e+00
      2.1801017178550236e-01 1.3263674032796371e-01
      2.0856351229185721e-01 3.6810228117663091e-03
      -3.8603882704506320e-01 1.2060716981078934e-01
      -3.7563931114119103e-01 -2.5380683630007850e-01
      4.0943365971040996e-01 1.5799952943091269e-01
      4.9239323926305534e-02 -1.3571402841392818e-01
      -1.1892881533082909e-02 1.8942270723547866e-01
      1.5384080183317952e-01 1.1747111157963914e+00
      2.7264764324848456e-01 -1.8034341794402804e+00
      1.0933065718178556e-01 3.5478340187198004e-01
      -5.6789496837482592e-02 1.5080301637536450e-01
      1.5567223463362767e-01 1.5579206053713757e-02
      6.7239276152130367e-01 2.5341100710403375e-01
      -1.0689418406654971e+00 2.0001594036570799e-01
      6.1350234767345158e-01 1.5150488597419487e-01
      -3.2973822825886839e-01 -4.1016323340705740e-01
      6.4023240645306934e-01 -3.6887555140290501e-01
      -4.1587700262724908e-01 -6.5022915503602097e-01
      -2.6157544498576729e-01 -2.7184618086934570e-01
      1.7267845704907181e-01 -3.1885414617558269e-02
      4.6377826484430074e-01 1.9432663841596379e-01
      -5.2469403321640051e-01 1.0423623069666092e-01
      -6.2692095193221553e-01 -3.3372014618228607e-01
      7.2502215904124409e-02 1.8102349434593656e-02
      -9.4865349523688847e-01 2.4227800433997507e-01
      -6.1691373226410751e-01 1.7857569405642881e-02
      2.3469773756619536e-01 4.8666141513557482e-01
      -3.8547589532575621e-01 9.0541912889944481e-02
      1.8785821346092171e-01 7.1273561053091031e-02
      2.9329098136761295e-01 8.7430398321942493e-01
      3.4881253231151588e-01 -8.9575673342840514e-02
      -3.6858645814798607e-01 4.4856544951480404e-01
      1.8502647993401772e-01 -2.4013898196560635e-02
      1.2746084874814896e-03 -1.2538197134219176e-01
      1.3628849572577695e-01 -6.4459866447009040e-01
      -2.2964189295906504e-01 -2.1107090192944966e-01
      -8.0395215777139994e-01 -4.1409257183159812e-02
      5.4584863653385218e-01 1.5709226989350861e-01
      -5.8477429895984576e-02 1.5820504396118351e-01
      3.4825389954292446e-01 2.2499001954218656e-01
      3.0827842920588239e-01 -1.3573137515779412e+00
      -2.3799721717152000e-01 2.1516011172471031e-01
      -1.9215789905307232e-01 9.2690054020220514e-01
      -2.2578984369761110e-01 5.2444217399472484e-02
      -7.0278689158827845e-02 -1.8092053755413492e-01
      6.4791501841259791e-01 4.0081364185153195e-01
      -6.5496493939966524e-03 2.6969250275747469e-03
      5.0721751351455102e-01 -1.2262083809639211e-01
      2.7786270734421331e-01 8.4116122708593122e-01
      2.1421253084564104e-01 2.6438130590961239e-02
      -4.5980078380985660e-02 4.1411646525333266e-02
      1.1536875307846335e-01 -8.9231848066560707e-03
      -1.1155696703069562e-01 3.9823585778942405e-02
      5.5853869938293310e-01 1.0582737670372154e-01
      7.1946474644654979e-02 -3.2000472340018883e-02
      -1.0757252764864961e-01 -1.0506787525100486e-02
      -2.5716230032327542e-01 -6.1736403507490134e-01
      -2.2739104151887674e-01 -5.3114015934941763e-02
      8.5074412090022045e-01 -3.0734594606746629e-01
      2.0222064346057544e-01 -7.9545102168247103e-02
      -7.7885229044114893e-02 -4.4215326187958331e-01
      -2.2696620997110964e-01 -2.6911879869954458e-01
      3.2175706853791358e-01 9.1125794133730387e-01
      -5.0781089098278476e-01 3.9629711796645123e-01
      -6.3084138548880297e-01 -3.2803469192283852e-01
      -1.3405558269818282e-02 -1.3199490174337483e-02
      -3.5179156804185135e-01 -1.1104725816020952e-02
      2.6348405163281391e-01 -4.4913258663571465e-01
      -1.1218652494565078e+00 3.9049361454277384e-02
      1.7501808717180475e-01 8.6269926926706741e-01
      -6.7343181642663974e-01 2.9947614257875375e-02
      9.1947092980128223e-02 -1.2610427701220744e-01
      -5.4863680420640182e-01 3.5780778899131427e-01
      -2.9571468645695631e-01 5.5782934464043414e-02
      -3.4799841987201829e-01 -9.5116581679393436e-02
      -7.6910759427832390e-02 4.9473214615740435e-01
      -2.5166072810823109e-01 -5.1977196553051275e-01
      3.4775471379783866e-02 4.0764951507517144e-03
      3.6030210901549026e-01 1.1995462205932747e-01
      -9.0981104827910442e-01 -8.8475384247329952e-02
      2.1494838338972208e-01 1.0035650605585784e+00
      -2.4043165778320807e-01 -2.5842228386694338e-01
      -6.5058631474756504e-02 8.9738067323782162e-03
      -3.0101648922183766e-01 -9.9438162052818330e-02
      5.0400152101157358e-01 -3.6390798099236588e-01
      -1.3868138199480723e-01 -2.0065035430283884e-01
      -3.2594670290832656e-01 -1.2969712712792228e-02
      4.8668264166382508e-02 2.5394109139063187e-01
      1.1540985647499573e+00 -4.6590654789339303e-01
      -3.3744621756150250e-01 -7.8687169656013778e-01
      -1.1434078009605626e+00 -4.0038582692974051e-01
      6.5049069398359949e-01 -2.1251610668794108e-01
      -5.8984819687671892e-02 4.3862777644629460e-02
      5.0935010015308724e-01 -4.9058017382835134e-02
      7.9815342476544837e-01 -2.7226948939733353e-01
      -3.4294296855578438e-01 1.2291144145863242e-01
      4.1482987470156094e-02 -7.4701665222246139e-01
      -3.4904821431416094e-01 2.7070550592166553e-01
      -6.8819211572673164e-02 1.5109705760877912e-01
      3.9050799582986034e-01 5.8713206585683186e-01
      3.1549155780313876e-01 4.9057330944499034e-03
      -7.0757390424911568e-02 -2.4015223653498488e-01
      1.7965948495460016e-01 2.3394872935419539e-01
      -1.1224902387397964e-01 1.2476896082770267e-01
      -1.5669132062261584e-02 -2.9949165323671045e-02
      5.6667910802025279e-01 -1.2536206301456541e+00
      -1.3251575622859708e+00 -4.3639640669633122e-03
      4.8905008157333008e-02 5.2044074333808288e-01
      3.5996317423467078e-01 -1.1205122043781209e-01
      2.8632979193582786e-01 -5.4316567529328355e-02
      1.2869438780551551e-01 -3.1512232479220842e-01
      2.1511237276610393e-01 -2.6921766198771896e-01
      6.2878257021893380e-01 1.4163445385538717e-01
      1.9349221218943732e-01 6.2100962790349889e-04
      1.8653868863665941e-02 5.3658913622158652e-03
      1.0025762227457602e+00 -5.9029738369980611e-01
      -1.2359085841427336e-01 -2.5639767769409944e-01
      -9.3801343569574938e-02 1.8743110966290691e-01
      -8.8079484500395933e-01 -9.1412093444966661e-02
      -5.0831229648785359e-01 7.7740102952950349e-02
      6.2614223309374373e-01 -9.8950580271353353e-02
      -1.4381288689454528e+00 8.4607989410589290e-01
      -8.0545264127876173e-02 4.8332080690264234e-02
      7.3615039771656110e-01 -2.6375904382913451e-01
      3.0776643601923882e-02 -1.3527865556798022e-01
      -7.4929185771711107e-02 1.4407296903989175e-01
      4.5271578892541342e-01 1.9543742393260882e-01
      2.9464717634749382e-01 -2.0740321230417767e-02
      -2.0610765162924746e-01 1.1025797088995394e-01
      1.5731086164811250e-01 4.1777864318665187e-01
      4.0132932793446352e-01 -1.1965826008877575e-01
      -6.3260675800480620e-03 -4.3761996889560104e-02
      -5.3896989249908656e-01 7.9422070387306853e-01
      -1.0343601466661383e+00 -1.0831271900530232e-02
      8.5733736839430807e-02 -3.5386108978839281e-01
      5.0707588849238328e-01 -4.3359578054484982e-02
      -7.6975892035893341e-03 8.2086113269253691e-02
      -3.2102313523476478e-02 3.8871981586707161e-01
      -5.8932393493693380e-01 -7.6848847446592469e-02
      2.2324002115012712e-01 -7.0923335846991797e-01
      1.8570778688696468e-01 -1.1163239575605033e-02
      -2.8492176183197462e-02 -5.7938226574421015e-01
      -6.7466268934477014e-01 7.5527340840800494e-01
      3.7492827873299123e-01 -7.4540766546702975e-01
      -2.1705065347552295e-02 5.0480580740953662e-01
      -5.8557495762945755e-01 -2.4228054274625882e-01
      -8.1458477966330725e-02 -2.0250051773278918e-01
      3.9710758742277086e-01 1.8709286815988524e-01
      -3.4922278765108269e-02 -3.7834107952923546e-01
      3.3100007460372938e-01 -1.6911855599171771e-01
      -2.4224439435145009e-01 5.8220316661855974e-02
      -7.8240617782225708e-01 -8.6538230666897240e-02
      -7.4886390458511268e-02 -6.1555885692975865e-01
      1.6023745210296474e-02 5.7361424375996957e-02
      -4.6412854079709593e-03 7.5201432997313536e-02
      7.3972844950712624e-01 -2.4691790697481633e-01
      -6.9013560322955081e-01 -3.8703566077415114e-01
      -1.4950302318461009e-01 -1.2350707783747450e-01
      3.4878651211833062e-02 -1.2302887222876407e-01
      -6.3273520348406123e-02 3.9852485241163993e-01
      -1.0905359818536375e+00 -3.0378517310152647e-02
      -3.2419266501411420e-01 -4.1706298777466505e-01
      -9.5608515834161345e-01 -7.9029086227229872e-02
      4.3745720214509343e-02 4.0390823643241640e-02
      -1.8652474214563661e-01 -7.6041396549119455e-01
      1.7363187413119452e-01 -1.4244373912802563e-01
      5.6757857892861412e-02 -7.1714013344672234e-01
      1.0489413111599638e-01 -7.5735456206565716e-02
      -1.9283278946278869e-02 -5.9187766498322114e-01
      5.7867869088012702e-01 5.3313319712250351e-01
      1.7589139884166480e-01 5.6781192385522028e-01
      5.5095753724615315e-01 -6.1557528846336684e-01
      7.4552647581546294e-01 -1.5034995422600594e-01
      3.4054587947413439e-01 2.8667023753543308e-01
      9.5523863205752912e-01 6.0160173699607444e-01
      5.9612665934153553e-01 6.3987369616033296e-01
      1.6590091933742990e-01 2.5739397344412412e-01
      -1.3927293642721938e-01 -9.6397704070424639e-01
      6.5250831907055573e-01 1.2416364753859854e-01
      -2.7605855056137540e-01 1.2171221261295656e-01
      -3.4129494832479507e-01 3.1531005935070061e-01
      -4.7919431441599974e-01 1.4747454011725307e-02
      -2.3285257567427241e-02 -7.5703346513281233e-01
      6.3569886860698765e-01 2.0000089883469138e-01
      -1.1460425152783625e-01 6.2077707632887592e-02
      8.5217865036488830e-02 -1.2445211515519812e-01
      -4.3811275061105248e-01 6.5255769376175374e-02
      4.3714611763210141e-02 -4.9692851209365646e-02
      -1.3572310529097889e-01 -4.2491329682164347e-01
      -2.5837524493264624e-01 -1.1746567451802217e-01
      -2.5003806791749505e-01 -1.3138162465784343e-02
      4.3324581252596001e-01 -6.7337469336331468e-01
      3.5149736986207292e-01 -1.7357519824594367e-01
      -6.9679666728524958e-01 -1.8285423149537430e-01
      -3.5352203805522464e-01 2.0526192288151203e-02
      5.1947269673572591e-02 -4.9094453992038434e-01
      -8.4881364953480365e-01 -2.5524392407628216e-01
      4.6290933513352051e-01 -1.2406897310095223e-01
      1.4583296259303088e-01 5.3604689349992984e-01
      3.6862512802969649e-01 -1.6921544157825891e-01
      -3.2078583013943457e-01 -6.1790870927644723e-02
      -1.6346331185253860e-01 -7.1482177115905543e-01
      -5.4986202410635943e-01 -5.4652845071698175e-01
      3.1657222893073284e-01 -1.1874852911992385e-01
      8.1554550222080274e-02 -1.1844769561408539e+00
      -5.7323643455504325e-01 -1.0231700271947110e-01
      2.5410165690914643e-01 3.8086984596376766e-01
      9.0331534945056594e-02 2.2020243241244997e-03
      4.9861676038093894e-01 -3.0563703678933622e-02
      -2.8523508163157746e-01 6.9563897888803561e-01
      1.0986490580343117e-01 7.8847489825776285e-01
      3.7554841171307390e-01 1.5326835953212456e-01
      -1.1396488280685446e-01 9.1546774796186184e-02
      -3.5630874206038182e-01 -9.1150761716387974e-02
      -3.3057265587476820e-01 8.0296266436481495e-02
      3.4909863012051301e-01 -2.0207416687041879e-01
      2.0380546166396366e-01 9.4699338352369114e-02
      -3.2742679093654718e-03 5.7691754793250227e-02
      -2.2305200520370677e-01 7.5669558226595746e-01
      -1.0192932116658039e-01 -3.9030614539130881e-01
      -3.5932821994826275e-01 7.0454667760898693e-01
      5.3908092062613944e-01 -7.0307434862152796e-02
      -9.3705097769360993e-02 -8.9158501256002415e-03
      4.5462012075395264e-01 -1.2660929526519948e+00
      -7.6052287753155334e-01 2.6178165755836669e-01
      4.9839757071996221e-01 4.4691775582390303e-01
      4.9791238165263957e-01 9.8861111306891999e-02
      1.7841480489112058e-01 -7.4143765715759341e-02
      3.2938653109139501e-02 -1.0615272462483923e-01
      -1.8671982062914076e+00 1.1354350232089783e+00
      -3.7464535979112995e-01 -8.7050190280846179e-02
      4.7955494019560302e-01 8.6634157102989184e-01
      -8.1976812486662043e-01 -7.9614816517787235e-02
      -1.9316151790045766e-01 -8.0582088840880950e-01
      3.7652038800677573e-01 2.2192646789650973e-02
      1.6720073610995481e-01 5.2873445555859802e-03
      1.0112285375611765e-01 -4.8522203594353736e-01
      8.3900658370496761e-01 5.0200946001464286e-01
      -5.9692086083941065e-01 4.9876831699970964e-01
      -5.5678643041456387e-02 -5.9969650727453035e-02
      -7.8115188789792123e-01 -4.6974583519228515e-02
      1.0398487155734870e+00 5.4048900647186718e-02
      -7.7244115520570450e-02 -6.9381576272108536e-01
      -8.2668924725277551e-02 3.9005798069461917e-02
      2.2289566527601587e-01 5.8129421062472790e-03
      -1.8760181149179031e-02 -6.7719745268771822e-02
      -1.0222592212181887e+00 3.3230904652372129e-01
      -6.4218767676509680e-01 1.2255548609307201e+00
      1.8233485625767337e-01 -5.1685363451652463e-02
      -1.1608971987176584e-02 -7.1334396802020539e-01
      2.9295689281263121e-01 1.2346164713640373e+00
      1.8664170257696022e-01 -2.0291045962672657e-01
      -8.6395151330387596e-02 5.1013015471240652e-01
      -1.1510764886916865e-01 2.1640693624039659e-02
      -5.3614482162490273e-01 2.1278334940375995e-02
      4.0353307640252212e-01 -5.4723383943079462e-01
      -2.8762901012283182e-01 -6.3824362862387241e-02
      7.1817561977806410e-01 4.2600746856510337e-02
      -1.1462177156305088e-01 4.6161378591879321e-01
      4.7719540529026919e-03 -1.6826004563525489e-02
      1.0440121274747290e-01 3.3704192433915969e-01
      -4.7582751761309677e-01 1.4353126811102668e-01
      5.0260784511762299e-03 -5.2300214611456293e-02
      -5.4716437740627888e-01 -5.9002018073948037e-01
      3.0009252318980822e-01 -5.3264533742408993e-01
      5.0791464229642946e-01 1.8507356650114257e-01
      1.3513900568586271e-02 5.6012460442661574e-02
      4.1110837313165099e-01 -1.0480993307711031e+00
      -6.2877459069668074e-02 -9.2039352867912521e-03
      6.8398550943127845e-01 1.3644166958969536e-01
      -2.3803735217677049e-01 -1.1507490510910766e-01
      1.8482155931755276e-01 -1.0999596703611770e-02
      -2.5107526306597971e-01 -4.8994297744028484e-02
      -9.1472724049707119e-02 -6.8440519508472009e-01
      -4.0028888654934314e-01 7.6254164512431433e-01
      -1.9699585217472185e-01 1.6342200334361619e-02
      3.5042094640450813e-02 5.2032264398183969e-01
      -2.5317588879923886e-01 -2.8080793503766138e-01
      -4.2997841509265761e-01 -7.7038205069860322e-01
      -3.2066403412002779e-02 -1.6206540047070359e-01
      1.1282026792509260e-01 4.7115550699971295e-02
      -2.8542801102770510e-01 1.0296518679580084e-01
      1.8800913307587144e-01 -1.1745031670308141e+00
      8.4921638291533246e-03 -2.2306142858556849e-01
      1.1755365836645686e-01 1.2939188500790810e-01
      -4.7646367402522850e-02 -2.6007374536264327e-01
      -6.1549149491666144e-01 5.0277917496832421e-02
      4.6593099228079866e-02 -1.0329452838277442e-01
      -6.2609591874090764e-01 -2.8247475494372853e-01
      -5.2138291388787918e-03 6.9738259379270617e-04
      -7.4843103117792006e-02 6.5862088962403875e-01
      -6.1458622367052052e-01 -9.4855001464138500e-02
      2.4631655477650366e-01 -2.9840598840192112e-01
      3.1427176136359140e-02 6.8860329587599788e-03
      -5.5071448222716690e-01 2.3987776460325647e-01
      -7.5510448731605351e-01 1.9648077721350247e-02
      2.3676543062093108e-01 -5.3906570924990593e-01
      -3.1837045581117593e-02 1.4005110547405641e-01
      2.0406853032982314e-01 1.1204661689874511e-02
      3.6984814915023645e-02 -5.7106858203031508e-01
      8.9243164324090754e-02 -2.6195700842154480e-02
      -4.2865667236317428e-01 5.2256373956827376e-02
      2.3311165846996640e-01 4.8041225563268657e-03
      -4.2619421984538629e-02 -6.8266376511582505e-01
      -2.2170315988244321e-01 1.1885041568795286e-01
      -2.0470374575277839e-02 9.1547195495784417e-01
      -6.9385905053536479e-01 2.8298528427822395e-01
      5.8198476966543300e-01 -1.6874034850545894e-01
      3.5750989622659224e-01 -8.1301858084638995e-02
      -6.8932651491701558e-01 -3.2902602865382569e-01
      -6.3708902082381980e-01 1.1136272811721868e+00
      2.6914378154871343e-01 1.2513230266647460e-02
      1.9012860167121426e-01 5.8115999553410436e-01
      -8.3438378629060739e-01 -1.4401811887449215e-01
      -6.2937741723625451e-01 5.2151300193980821e-01
      -6.0952266033547871e-02 -4.7524694218260527e-02
      3.4052717904858837e-01 6.1970889540037793e-02
      1.3537183618522144e-01 -5.8571430237179078e-01
      1.9209365238187182e-01 -2.9584117817277544e-01
      7.9334319264626507e-01 -1.4771842529830176e-01
      7.6951836058020889e-02 -2.4311135975091236e-01
      5.2377816755572915e-01 -6.2478149107518277e-01
      5.0737918950915950e-01 -3.1851077946047947e-02
      4.2170032493091897e-01 -3.2629881328055649e-01
      -6.7839738603948219e-01 1.0530031997410861e-03
      6.6747086880059958e-01 2.7550306159803049e-02
      1.6704321738552691e-01 4.0423391972029515e-02
      -5.9698806673963545e-02 -4.1012674500376817e-01
      -1.2571572478103679e+00 3.1188551647426693e-01
      1.5636701398497285e-01 -3.9390522448698409e-02
      1.5766857785755945e-02 -1.6789197887583188e-01
      -8.7734251382033013e-01 -7.2828582058408253e-01
      3.3980712133596919e-01 1.3758689195123373e+00
      1.0167723601729095e+00 -5.4324006963194865e-02
      -5.1088940688724571e-01 1.1853735309323947e-01
      1.6033611178103652e-01 2.0807786363467115e-01
      -1.9425698830476767e-01 -3.8473941704026232e-01
      -8.5543515194361719e-01 4.4316533429353336e-02
      4.2855452608498162e-01 2.6762314742736210e-01
      8.7715860296991369e-02 -3.9913292240886139e-01
      -1.7950931630985179e-01 2.3680903372185667e-02
      -1.6655669476998125e-01 7.5893293580682378e-02
      3.2425620656948845e-02 -1.0369608368165970e-01
      -2.0799321214925805e-02 -7.3533679107038929e-03
      -2.3889977207884100e-01 -3.2740107858364664e-01
      3.3428350220993087e-02 -4.5123688647633658e-01
      -7.0280407037254999e-01 -6.4876782810062628e-01
      3.6573187857624201e-02 9.3368119742568895e-02
      4.6676518412713325e-01 8.2939809543973353e-01
      -6.4032630481138120e-01 -4.6971666470787724e-02
      3.9383503711900969e-01 -2.4336353195294844e-01
      4.8507584708615137e-01 -2.9752178501269592e-02
      -2.0390759482823423e-01 -1.2650704618948870e-02
      2.2957150191978656e-01 -1.5002267707514511e-01
      -4.3241087874734113e-01 1.1375261059728618e-01
      -9.1891094399588613e-01 -3.3238292123972762e-01
      -1.6940500713599167e-02 9.8908356516126908e-02
      1.4926351835580026e-02 4.5837617879873130e-02
      -2.9550587122061545e-01 4.2405790507809860e-01
      -3.5163889656451436e-01 3.2691722179032941e-02
      -6.5266964334567035e-01 -3.3405127109735158e-02
      -4.7479181706931606e-01 -1.3643325804136910e-01
      3.1085508026408926e-01 5.2520509242192197e-02
      -4.2969093289404731e-01 -4.4298769890649325e-01
      -2.8903143891489147e-01 2.3783741949538537e-01
      3.6978757779683252e-01 1.9891367135816138e-03
      -5.0073429715983542e-01 -3.6622254993061204e-01
      4.1794966334144590e-01 3.3085309938000357e-01
      -2.1184902130231352e-02 -1.7276578745359664e-01
      -2.0236205730810594e-01 -4.3782545814897234e-01
      -1.4561013366957540e-01 -3.1105653805728429e-02
      5.0514148820314775e-01 6.7913656315391913e-01
      2.4383806853558992e-01 -1.9298513059645520e-01
      1.0816483667920700e-01 -2.3740079939037598e-01
      -3.5825725698954550e-02 -3.0843907973530180e-02
      4.8462634577621727e-01 -4.4277053722884252e-01
      7.4718273483826134e-02 2.1668059920583238e-02
      5.3299166408327814e-01 1.4524006530929723e-01
      -9.1149534502850391e-02 1.7285686266846520e-01
      5.0871623282716305e-01 -5.4882302929997288e-02
      -1.8544439132943447e-01 6.6382303313722113e-01
      -6.0033880957571739e-01 -5.0245873520417894e-01
      -5.7996371792743984e-01 -5.0117174817752475e-01
      1.7436053300397384e-02 1.1883523119667843e-02
      -4.3404544357863055e-02 -1.3317959515730401e-01
      5.0559627136352281e-01 8.6577884702345564e-02
      7.2003443805805190e-01 2.9936176139739290e-01
      -8.4023415677344027e-01 -2.7466018696513567e-01
      5.9915759779216227e-01 1.1309767144947379e-01
      -3.5966147252022401e-01 -1.3818614524394171e-01
      1.3174703783003958e-01 5.9021155412046666e-01
      5.7105920112187758e-01 -5.7299969804659667e-01
      1.8064036442472978e-01 5.4311984668092277e-02
      4.6060567265112612e-01 8.3342331916971146e-01
      -2.5361398690914194e-01 -1.0579464196628167e-01
      -3.0887013703307109e-01 1.5508243685776382e-01
      7.7488381350030592e-03 3.5252099394477224e-02
      1.0138056411264626e-01 -3.1269164009710415e-02
      4.4851242588224144e-01 3.7166819162492773e-02
      9.9953135520050551e-01 -3.3492656259021736e-01
      2.2543506596372054e-01 -6.6561946722187959e-02
      -7.0085396865116251e-02 5.3112264147602263e-02
      -1.5743570005216909e+00 -7.0076147996580973e-01
      -2.2915921088569349e-01 5.7435187036684113e-02
      -1.6382954457349650e+00 -3.5240676736690335e-01
      6.7155870440389365e-01 7.7772809478159774e-02
      -4.2147719322558480e-01 3.9577825152378031e-02
      1.7314358293096896e-01 5.7166501891063903e-01
      -7.8906840614690965e-01 1.6114254820866372e-01
      2.2392852829173557e-01 9.5065881777545569e-01
      1.9520123071431283e-01 -1.6307715983249482e-02
      -8.3160636465151275e-02 9.0391978020015673e-01
      -1.5347176407185026e+00 -3.0214056098746650e-01
      -7.3746445856262743e-01 -1.0036489215857411e+00
      -1.1946902588706956e+00 1.3964167394775776e-01
      -1.0503524183681154e+00 4.4945083415644255e-01
      3.4366527740894487e-01 -2.2066155743000335e-02
      2.1663064153912995e-01 7.4830645632185233e-01
      4.3772323373656097e-01 -3.1179768588376711e-01
      -1.9816324804723062e-01 -1.8562607872692852e-01
      -2.2799287960168174e-01 9.6199818425332739e-01
      6.1314137830756577e-01 1.7052307595811408e-01
      1.5532516800952351e-01 -8.9895221482592758e-01
      1.9761025485248676e-02 -9.5827063430076770e-02
      -2.0729264527578475e-01 1.9478613731991789e-02
      2.9591865202486783e-01 2.4101910211486868e-01
      4.9145980162046365e-01 3.0498558760635812e-03
      -3.3174883931944410e-01 -2.1176490913976137e-01
      5.6363350576500028e-02 -5.6021825192363719e-02
      -4.8993016878181961e-01 4.7729700709333737e-02
      -3.3334787481410505e-01 -5.3281158100588352e-02
      3.5342688371049136e-01 8.8594743625916905e-01
      -8.6492874417788501e-01 -5.3742423165617170e-02
      -2.8927211572721373e-01 -5.4835363514244744e-04
      -1.8329499121731669e-02 -6.1868043167067222e-01
      -5.9854943410515316e-01 -3.8265601152372308e-01
      3.9930659959363091e-01 3.7474690451630416e-01
      -3.4857579746253464e-01 2.2242826831350801e-02
      8.0548916410604562e-02 -6.1323419428856429e-01
      5.5555800971392877e-01 -1.3179226068222236e+00
      6.2642518555048932e-01 -3.2148874418416735e-03
      2.2468327219677217e-01 5.0734505017456322e-01
      8.0119523705215723e-01 -1.1107520714413120e-01
      -1.7885699998576865e-01 4.8540580467121180e-01
      4.2602760769713394e-01 -2.2740454798959042e-01
      4.8844260094030667e-01 2.5982566736487006e-01
      -3.8908013631346168e-02 6.5944866374149935e-01
      -4.6479033431595662e-01 7.3317711205905287e-02
      -5.2922841623764183e-01 3.6288927566917445e-01
      -8.1394606789501023e-01 6.2020017699162977e-01
      3.9775249366373294e-01 1.2790361903114425e-01
      -1.1512141023992958e-01 1.0135471458092586e-02
      -2.8147699515156699e-01 -2.3255701903748957e-01
      4.6637209878747055e-01 -6.9589012584519006e-01
      1.3822744652613106e-01 -8.8552826721009426e-01
      2.3257641869711942e-01 -1.7311350007018286e-01
      -1.2238497253189766e-01 4.0177015784265996e-01
      -6.1306054815187860e-01 -1.1211914407505334e-01
      7.4685702337656568e-01 -1.0901387017856552e-01
      2.4852389192754967e-01 -1.7160025583325114e-01
      5.4236029459593249e-01 -2.5298831148040837e-02
      2.6439523968918444e-01 -1.1731195970883428e-01
      -6.1216296395096270e-01 4.5949380352218633e-01
      2.3949179851547309e-01 3.6563094635407256e-01
      -7.6150511877157767e-02 1.7330627073448768e-01
      3.0382432895006101e-02 1.0254035538721363e-02
      -4.0024459952137292e-01 -6.1175492420061617e-01
      5.8724707962692546e-01 4.7356392431288852e-01
      -6.9482695043469364e-02 1.7332503071691582e-02
      2.4122062907456959e-01 -5.5779658521880893e-01
      -1.2918056685299331e-01 -1.6587425069378103e-01
      -7.0450854761881643e-01 4.0617860704195852e-01
      1.2408603587204172e+00 -6.7086053130091259e-03
      3.9978498687455821e-01 -9.0223433008991653e-03
      5.6247975584870258e-01 -1.5463230069954920e-01
      3.7155152959488158e-01 1.7247910650474382e-01
      9.0896863278383033e-02 -9.2402463675121704e-01
      -1.9308368750566066e-01 -9.0367281958336487e-02
      1.4797574701980135e-01 -4.3222150263841665e-02
      -6.2976017159496112e-01 1.4277458210424612e-01
      -1.4655546039185227e-01 -3.5020120311165454e-01
      -3.0975706549622828e-01 -2.6227314176323430e-01
      -1.4014581991619002e-01 2.4295083261656569e-01
      -7.5686553025151690e-02 -4.2104285043425743e-01
      -6.1298347746222018e-02 1.1750896028105394e-01
      3.3199009671262747e-01 -1.2907032465230198e-01
      4.3364591983645712e-01 2.5845040015858613e-02
      -1.3779207960970249e-01 -6.2532712908797850e-03
      2.2940562170125650e-01 7.1980649007902153e-01
      7.1661592574659594e-01 -3.4063898416783778e-01
      -6.7233470798719275e-01 9.2769963962662871e-01
      1.7626098878063706e-01 -9.3905794510489055e-02
      -9.2630047415305769e-02 1.5460701529972640e-01
      -8.4730264696539959e-01 -1.1983272144103343e+00
      -2.8878530262661706e-01 4.3013254346929469e-01
      2.4989000439800646e-01 -6.7060776076753992e-01
      4.6195724962222029e-01 1.4125850486763572e-01
      -4.5828028974423340e-01 1.0827158930959141e-01
      -9.8269825805793048e-02 -5.7815810113788524e-01
      -6.3380230881223776e-01 -4.6223733920084437e-01
      -1.1045297707571666e-01 -4.9005322084514080e-03
      6.9032175853261468e-01 -8.4406859338688425e-02
      5.2943473477565284e-01 -3.0890034078400689e-03
      -1.2976465123127301e-01 -5.4794345152983526e-01
      2.0718890851521343e-01 -1.5118218262524352e-01
      -4.8057277284165284e-01 2.0387921954821895e-02
      -1.1632022574506686e+00 2.2893616086180932e-01
      7.6561484749231037e-02 4.0852233099095842e-01
      4.2619595020394069e-01 -2.7720159338758482e-01
      7.7261719433686218e-02 -7.4314784274850512e-02
      1.5161580833285102e-01 1.1462261362981034e-01
      -2.0334085829969402e+00 -5.5500886600967664e-02
      1.0174376286825608e-01 3.5661999620583466e-02
      -5.1820884678651191e-01 4.4728203108570570e-02
      -2.5620029991777673e-02 -3.8405958788486662e-02
      8.5836030619012932e-02 -1.3296539796397950e+00
      1.3174198054816966e-01 -3.5627068522140498e-01
      3.2975787631355374e-01 -2.1152731148020562e-01
      -4.1596706597577077e-01 1.2155121197850467e-02
      7.1043871571525002e-02 7.2309644947308038e-01
      -3.3660282539788944e-01 -1.1836218647859291e+00
      -7.2692131720489528e-01 -7.6711036866001936e-01
      -1.2136018781747366e+00 1.2102074693713900e-01
      9.0117610351458710e-01 2.3769207322430406e-02
      1.1581752907259929e-01 -7.0248742051122484e-02
      3.6949161095513372e-01 -1.1469811177101485e+00
      -1.5316323177113181e-01 2.7198193219307110e-01
      -1.1026889957424675e-01 -1.6413376577448510e-01
      1.3120616291664028e-01 1.0410875678718530e+00
      8.8429706872142910e-01 1.3668823813278136e-01
      3.1459667063071411e-01 -5.3500663123182557e-01
      8.2043933418467418e-01 3.4858490502411626e-01
      3.0170540129914347e-01 3.3965806360293949e-02
      2.9764243827618507e-04 2.7504541079825578e-01
      -3.6667847608510667e-01 2.9877312679603296e-01
      -3.2706925946328541e-01 -6.5227396167465956e-01
      1.4593031142215279e-02 5.9146066907483114e-02
      -4.8378803098390294e-01 5.4608194814826649e-01
      -4.4556945067589571e-01 1.7180239895936290e-02
      6.7430740096055664e-01 5.2412730681336350e-01
      1.9056510537262758e-01 -1.3948602060052340e-01
      -1.8169608147459093e-01 -7.7753623240642264e-02
      -9.8201515274724316e-02 -7.5817498848179765e-01
      9.2463751196422250e-01 2.1411250611409852e-01
      9.9094349199157272e-01 1.4972222957925374e+00
      2.5016890304503486e-01 3.2386373837261090e-02
      -3.3739214550475079e-02 -1.5800400595746006e-01
      -1.1193095426958219e+00 -1.1280585215705745e-01
      2.8806456144990122e-01 -3.9275297363137307e-01
      -2.8069135807069778e-01 -7.9002050989957229e-01
      7.8563629666017265e-02 -1.5216351233597103e-01
      -1.3277333429720004e-01 -8.7423743770429468e-02
      -1.2489452916497574e+00 -5.9116126607144472e-02
      -1.1792491567953807e+00 8.1191660613879924e-01
      -6.0223124731089289e-02 -1.2151772904748079e-01
      5.4622857147435888e-01 5.1252598691473317e-01
      2.0485204560596254e-01 -2.8340920616255022e-01
      5.5407629382826585e-03 -2.8391414928699110e-01
      -1.1285969965502041e+00 1.4941753055639054e-01
      1.7799020076771069e-01 3.5769488304115307e-03
      4.7658365123629687e-01 -8.8077861249928679e-01
      3.2046441894900468e-01 -1.1486800863766293e+00
      -9.4103335786451325e-01 -3.3341557003403466e-01
      -1.6961020495571903e-02 1.7255163527928264e-02
      6.2685673750012127e-01 -6.7016626024793113e-01
      -7.2381291954774107e-01 6.1942583974693079e-02
      7.0928618956897582e-01 -5.8313033502677047e-01
      -3.3686147846636127e-01 7.5388396270228877e-02
      1.0324444420769562e-01 9.5599808814016099e-02
      -1.7238581558505184e-01 5.4055150740503943e-01
      -1.2658574298386227e+00 -1.1725032837867785e-01
      1.0049062108097724e+00 1.2207901978933491e-01
      -6.3133691005704427e-03 -6.7694275941790311e-02
      -1.0449083765923474e-01 2.7843326525287887e-01
      -8.5959824098505430e-02 8.0548794596569828e-01
      -1.6488621828339053e-01 -5.3104580298356252e-01
      -6.9587098893862653e-01 4.0857789791890248e-01
      -6.5210186505180501e-01 -3.2165541914348332e-02
      3.8823665971065885e-01 -2.8241319263747438e-02
      2.2401140902795197e-01 8.4981640786272439e-01
      -8.7257920098670771e-01 7.6006336495365900e-01
      9.3055209385188922e-02 -5.0032298955377821e-02
      -4.0293615082375162e-01 4.1555315690347350e-01
      2.2123339261863800e-01 2.6777333083771299e-01
      1.2904066658843238e-01 -2.6584738142049553e-02
      5.1115304697050545e-01 9.0544928869463942e-02
      4.8809746120895697e-03 3.4885931067321262e-02
      -1.7351651343059191e-01 2.5386568001457122e-01
      3.0969069029644125e-01 1.2097958738506991e+00
      -2.9274706229575337e-01 -1.8081594492877868e+00
      6.3451856892335215e-03 -2.1543251071117295e-03
      -9.0139789654067604e-02 7.8712522642584037e-01
      -9.5984379006103113e-02 -5.9359774039403845e-02
      4.5131926133616868e-01 -5.7219086219052517e-01
      -1.4061918550086755e-01 -5.2112654943313436e-02
      8.0113468449809877e-02 -5.4730799614732028e-03
      -1.6269496427881625e-01 3.2594519368373881e-01
      -1.7539006387038736e-01 -1.1960536754921226e-01
      3.3660741965338675e-01 -5.5146086199084077e-01
      -2.9153686209903401e-01 -3.6524639621528736e-02
      9.2308089053962719e-02 -6.3877025185079872e-01
      1.3619144183318435e-01 -6.3846273692469291e-01
      5.0043688213786941e-01 -2.5415588964917113e-01
      -1.3080952743297818e+00 4.4988685987337440e-01
      3.2263846313792713e-02 -1.3060742891431745e-01
      4.5615779032862908e-01 2.2191536831163361e-01
      6.8486685718912754e-01 -4.8324762194684223e-01
      -1.0226107504794225e-02 -9.5847805528723251e-01
      5.5876404935464463e-01 2.0989452757864158e-01
      1.3858498916335604e-01 -3.5114744944937687e-01
      9.3925614856697454e-02 -7.2640846807686746e-02
      -3.3611335471123582e-01 -7.9758402866094580e-01
      3.3236402082134258e-03 -1.5125192669976276e-01
      -2.8657030981450671e-01 -1.6036322485155092e-02
      -3.5101317449868608e-01 -2.9112411057198256e-01
      -7.7752495497473384e-01 -1.2543963761076013e-01
      -5.4081715244614015e-01 -1.4507691291752665e+00
      -7.2905329411378589e-02 5.9788713808837421e-02
      6.8003138696355631e-02 -9.9301159679660234e-01
      1.1706218946466702e-01 1.1261406294300730e-01
      1.7620305886820251e-01 4.6863898707394464e-01
      7.3844049798831535e-01 1.0113712846293646e-01
      4.6500962158927954e-02 -6.2485079111280969e-03
      1.9150133034464199e-02 -7.7072130964676111e-01
      4.6460691962181477e-01 -4.7326732372012320e-02
      -1.2701641691119365e+00 8.5034385087461084e-01
      -7.8565098318529855e-02 -7.5792729978328838e-02
      -4.6007003357239992e-02 -3.4325003487015576e-01
      -7.7666442519675638e-02 -2.1763969683858048e-01
      9.0754517969305293e-01 -1.2569334116279857e-02
      1.0003182220691725e-01 -8.3733141010815838e-03
      3.3626000235563713e-01 -2.7135155366102726e-02
      2.7282426885735570e-02 1.0645385415410252e-01
      -4.9495332957483200e-02 -6.1962281258298624e-01
      -8.0485852083509324e-01 -1.1563130693679266e-01
      6.1494242657351685e-02 1.3975501811910926e-01
      2.9972985805609853e-01 -3.1485792305742183e-01
      -3.3426967363274723e-01 8.0266712563364540e-02
      -1.9709046482408082e-01 -4.3793184475165087e-01
      1.0332476772609451e+00 1.4064181017661628e-01
      5.4573259379693047e-02 -4.2654786086044984e-02
      1.3682080349118561e-01 -4.7072846916233180e-01
      7.3543412893677140e-01 6.0991504018875009e-01
      -7.5115576887785995e-01 5.0970320060125773e-01
      -1.5788963578396273e-01 2.6749494348821637e-02
      -2.4318450028110397e-01 -3.7319487588876343e-01
      -8.2373390344395647e-01 9.9887993011888457e-02
      9.0784958268225191e-01 1.1230610795791394e+00
      -1.7123184837807223e-01 6.2956131048898981e-02
      3.8661145094371874e-01 -7.6293343873860891e-03
      1.9349597324287762e-01 -1.1633308179506298e-01
      -2.6419699631408206e-01 4.9946833849874722e-02
      -7.9163071905872018e-01 3.2593734784669454e-01
      3.9219303313336479e-01 -5.5749518586320802e-02
      -7.9129511739832264e-02 -9.1035898725588782e-01
      -8.9320159712941360e-01 -4.8507604611828714e-01
      1.6322429309692621e-01 -1.2365217371039566e-01
      3.0266433470582027e-01 -8.3821185451833335e-01
      5.5816844664900900e-01 4.8175947270979645e-02
      3.4509926517052392e-01 1.3022316621025254e-01
      -2.6275619945387474e-01 3.9340862442447694e-01
      5.5194167870713828e-01 -3.1624466437164894e-01
      9.3825947805450255e-02 1.9527511630742853e-01
      8.4104930957517449e-02 -2.3878771955055858e-01
      -3.7350009317104577e-01 -1.4185864887699132e-01
      -1.7348469764569238e-01 3.9363831098330254e-01
      5.6835024914413967e-01 4.6028873511515002e-02
      9.0724210411843781e-02 -1.5259582679350672e-02
      2.8090730726060709e-01 -8.9141517890310717e-03
      3.2350310960037715e-01 2.0887475659773589e-02
      5.0278958425642439e-01 -6.8735037678431990e-02
      -4.1278560081580713e-02 -9.2751152357928468e-02
      -2.0634760689561235e-01 -6.0210816922194976e-01
      4.1886916005507241e-01 -3.1085548357642184e-02
      -3.0042982529542345e-01 -4.7900421212894712e-01
      -8.6901700915950324e-03 -3.8830882356826538e-02
      3.2193532427051341e-01 -7.1761107179428201e-03
      8.1609126113020319e-02 8.7185626407731032e-02
      1.1267070744992880e-01 -1.8398480443072682e-01
      -3.8538450719340989e-01 3.2878068864634757e-01
      2.7617452110012136e-01 1.8651258449943219e-02
      8.8963030586381914e-02 -3.6030838436589169e-01
      -4.3399123320081423e-01 -1.4359423592201781e-01
      -1.5409283546840763e-01 2.0204204559417244e-01
      -2.9531846828008992e-02 1.6311157530294002e-01
      3.1966561160681062e-01 -7.7899934934049647e-03
      -1.9619882273831185e-01 -1.3714839177234514e-01
      -1.4464849583400485e-01 3.7432900332875146e-01
      2.0779229179630521e-01 6.3659636049000889e-01
      7.0769932947240599e-02 -1.9036261953854036e-01
      1.6412371896628619e-01 -4.5829411782261614e-01
      -9.2324617589385427e-01 9.0835401263557880e-03
      3.1747532921982136e-01 -3.6110186009975065e-01
      -1.0376111415015673e-02 -1.3633859309520829e-01
      -1.8035236173658424e-02 -9.0677748655349014e-03
      -2.8047633114114301e-01 -7.2480419058189061e-01
      5.6553606264125711e-01 -3.3339007042889235e-01
      -1.9618905722083907e-01 8.9609815964901141e-01
      -9.7603903458199609e-02 2.1090534979317724e-01
      3.3268204053602986e-02 -3.3022133208755716e-01
      1.9437292905288392e-01 8.9043057220195648e-02
      -2.7341019506043041e-01 -2.4559963040959196e-01
      1.8681875739494735e-01 1.1595891128937760e-01
      -1.6744946727751386e-01 -1.5241449678347219e-02
      -1.0431295758853808e-01 -2.9004435524422184e-01
      1.0964676946409890e-01 7.3979139534900717e-01
      3.8015914718838162e-01 1.7758461530766672e+00
      -2.6084974828420426e-01 -9.5339142213325873e-02
      -6.9933661518014126e-02 4.9354220670294585e-01
      2.0756913707118918e-01 8.0014367930582786e-01
      -3.8473747193707852e-01 2.4191733856294340e-01
      3.7443109386413814e-01 5.0228221100102033e-01
      -1.7284096707510638e-01 3.1832387929246936e-01
      -4.5967818052160003e-01 -1.2400854894411943e-01
      -1.1524410776797811e+00 -3.6403932725592725e-01
      2.0157860853421444e-01 -1.1842941079805307e-01
      2.4269984524614061e-01 -2.7484373585797051e-01
      -2.3857108806331301e-01 -4.9008415561310220e-01
      -6.2941341813875218e-01 2.1340549989827845e-01
      3.7466351869671805e-01 -1.8793698424880265e-01
      -1.6389378082973208e-01 -1.5255978855778179e-01
      3.1575317620491844e-01 -4.1234980531731399e-02
      8.1474001977610055e-01 2.0385866324491841e-01
      1.4530878656218339e-02 -5.6117566487160497e-01
      7.5167893906998406e-02 -1.5383122425475970e-01
      -1.8424892785119829e-01 9.4836828129606893e-02
      -6.0479784645630830e-01 -2.0191729331228408e-02
      3.5228634546460935e-01 1.6362702802101900e-01
      -1.6924875153871666e-01 -7.0163993389334733e-01
      1.7708144562637812e-01 4.8078050179075807e-02
      -5.7134201078317892e-01 -9.6242902760786564e-02
      -1.7058390838964629e-01 -7.4284034127987852e-01
      -3.7594779014420171e-01 -3.3062519268916996e-01
      -1.7116382831455237e-01 -6.8581956422017909e-01
      2.3542386129996326e-01 -1.0732853822734707e-01
      -8.8359590033970689e-02 1.3124339859293266e-01
      6.7008336531196666e-01 1.1958015132739698e-01
      -2.0523866449870931e-01 -4.9526797386557908e-01
      8.7005931064914041e-02 4.0998753680474442e-01
      -3.4875863676049462e-01 1.7054473344960568e-02
      -3.1705395558672050e-01 1.0739172262052270e-01
      3.0160078613371522e-01 2.8769377534078661e-01
      -1.2353592910491726e+00 7.6531059685962344e-01
      2.8045185742058198e-01 -6.6895996804441679e-02
      1.1178932820808343e-01 -1.3781221867301377e-01
      1.7184922221698037e-01 -2.3781743021205798e-01
      2.2914163090431863e-01 -2.6465098912632234e-01
      3.0331062983211288e-01 8.8963203857297793e-02
      -4.2899364826342412e-01 -1.2144486449832617e-02
      3.0302620294845561e-01 5.3215166507393899e-02
      7.6165065693484080e-01 -3.8007877846444971e-01
      6.0323522135041407e-01 2.5795548362434667e-01
      -2.2788309716450635e-02 1.6705378468770533e-02
      8.2518984636304404e-01 -1.5739541271823995e-01
      -5.8709065064588173e-01 -1.1759708865312073e-02
      2.7729528239409097e-02 1.5906163726373029e-01
      -9.7638883636841034e-02 -9.5786894740262293e-02
      -3.0469383385612198e-01 1.7009042207090909e-02
      -1.1875681704996392e-01 -1.0572088696357021e-01
      5.0454888590305369e-01 -2.1163042482977229e-01
      -1.7114425762598620e-01 -8.4293383300326832e-02
      -1.8142817065573741e-01 8.2846284949176327e-02
      2.3497903563917424e-02 -5.8028369386007382e-02
      2.3170784032796838e-02 2.9296292366623367e-01
      -5.8383215853834303e-01 3.6516712698148768e-01
      -1.0198006091918459e+00 9.4776929227257403e-02
      7.6146001028727939e-01 -4.5613298085943521e-01
      -2.1922747353650887e-01 -1.7905898325379863e-01
      3.7479710433645959e-02 4.0174044032312184e-01
      -3.3516655273808690e-02 -6.8245441064254098e-01
      -6.2953815758465992e-01 -2.0407977784218292e-01
      5.0787173563320387e-01 3.6066863410709948e-01
      3.5736869465567717e-01 8.5542345177646986e-02
      2.6262468416393386e-01 -5.7942309963697425e-01
      -4.0019999521369981e-01 -4.1068152260288855e-03
      5.2795182998926893e-01 -6.7589167511921950e-04
      1.8440205202110285e-01 1.4833356171833401e-01
      2.2568837188507715e-01 -5.8260155529089219e-01
      -5.7436220634293378e-01 1.7035673370697463e-01
      3.3628661781153014e-02 -1.1554888609990906e-02
      3.7007232381345911e-01 9.3299199550258047e-02
      -4.8052903050313034e-01 3.7249501486336795e-02
      5.7057676931711043e-01 1.0760635459614418e+00
      6.7359528664246171e-01 -1.1373569246221424e-01
      -2.2102800703925618e-01 -1.0785980680695662e-01
      -2.2556098248434928e-01 -2.3373004353411680e-01
      8.1096670481902078e-01 1.2270188528651699e-01
      4.3823567605450381e-01 8.0305970357269096e-01
      3.7296769188485657e-01 7.1153338572934016e-02
      -7.9317172862655924e-02 -7.5699514279718783e-01
      -4.6432412838228454e-01 9.2900951157193101e-01
      -5.5138398135584255e-01 1.5720953195961221e-01
      -6.4290897604173031e-02 4.3852884199612768e-01
      -7.6735263176282889e-02 8.3248676859062884e-02
      2.2076608133049815e-02 -8.4784381713072565e-02
      2.4549244297330605e-01 -4.5880059038965282e-01
      7.8160426496326962e-01 6.4222614596069161e-01
      -9.1318943863418892e-02 -3.0054964042415158e-02
      3.0575933913891790e-01 1.0839554053459555e+00
      6.2708939005368658e-01 -7.4300080243128730e-03
      7.5218418684434324e-02 3.0057503075291053e-01
      9.6689621419486241e-02 -6.9717489561359119e-02
      -2.2184794033551192e-01 -3.8403085976242660e-02
      -2.9385384085186367e-01 -5.6577128432717373e-02
      2.6152837913971094e-01 -9.2705860614570745e-01
      -1.8910902898579185e-01 5.4978932383104828e-01
      -5.3767304254745928e-02 -4.5272825071262845e-02
      -2.3331063171726277e-01 -5.8097978474906220e-01
      -6.3822296227482089e-01 5.3367208276899447e-02
      -5.0916622019455915e-01 -6.6203135357446230e-01
      -6.4360328482685369e-01 7.9007212595849502e-02
      -1.2568418523654859e-01 -4.8239663483649123e-02
      -9.2915611550352092e-02 -3.3188274402855922e-01
      -5.7470294025184065e-01 2.7709842302140505e-02
      3.0272636223293109e-01 5.9373193324591200e-01
      -3.6037285245795769e-01 -6.9213389619010343e-02
      -2.2346241736631578e-02 5.7719627090969261e-01
      1.3314471303638480e+00 4.7032590184632656e-01
      -2.0357378358239733e-01 1.2285463175062778e-03
      -1.6699139362414146e-02 8.6398337808923198e-02
      -3.3726706398009502e-02 3.4536678188106823e-01
      -5.7328445697508452e-02 6.7470628824405562e-02
      1.4416051639740815e-01 5.5026697789279766e-01
      3.9476922795311974e-02 -8.3229407556253299e-01
      7.0519889786934609e-01 1.3843858890880983e-01
      2.8791266029880955e-02 2.5120050783542447e-01
      -6.5241913315273536e-01 -5.0266882046295791e-01
      -1.1634178465055328e-01 -4.1678423946025972e-01
      -6.9109398240357556e-01 -1.3610016569061856e-01
      -2.7157835144478854e-02 -2.2880724073683478e-02
      6.3243403686555555e-01 -7.3229517341048544e-02
      -9.4795288012893081e-02 -3.6289394025642363e-01
      -8.5537627240361869e-01 1.8285203659992533e-01
      -1.7469240215447272e-02 2.0162036604047313e-02
      4.4228164694215699e-01 3.6516609925818827e-01
      -3.5352602651727677e-01 1.6955627586708634e-02
      -1.9947501021129241e-01 -4.7505622725238839e-01
      -2.9411510262994872e-01 5.6031203658412257e-02
      5.2389366777067334e-02 6.9832297425989662e-02
      1.9990240975723991e-01 -3.9413794477406994e-01
      2.3540399364826797e-01 -5.3318085925419301e-01
      6.7527719880402459e-01 6.2556631491584902e-01
      1.2163858669701658e-01 3.1323831956573983e-02
      2.5363987381064192e-02 -1.2158925959427500e-02
      2.2738501957943086e-01 8.8770385988306255e-01
      -6.6358673007271740e-01 5.2845415877822388e-01
      3.5951071880192104e-01 -7.2416276001836821e-01
      2.0719043725654137e-02 -2.0240633371779523e-01
      -5.0560661403482809e-01 1.0785248261009496e-01
      1.6340084738961308e-01 4.6183195790629850e-01
      9.2836402166944620e-01 -7.8605508706437743e-01
      -4.6370982978023101e-01 1.6185961849786276e-01
      -1.4630585935549889e-01 -5.3999151992884253e-01
      2.6516829453995222e-01 -1.5649288123373645e-01
      -7.0026209774717921e-02 1.4110286925255749e-01
      1.4232538958989325e+00 -2.1693237701062879e-02
      -1.4141506622307462e-01 -3.0543604019834620e-03
      4.8552190063171624e-01 -2.7865821197624091e-01
      2.2484114167031749e-01 -6.1368607254542212e-02
      -4.4471646286229982e-01 -5.7387998899642328e-02
      7.7875605716848595e-02 -4.4435455549357260e-02
      5.3518279744747732e-01 -1.0499789011455753e+00
      -1.1159918741848705e-01 -1.6265319480766083e-02
      -8.1247443252957532e-02 -6.1554867996960971e-01
      -2.7627733381633612e-01 -1.2712717156454992e-01
      -5.6503741726562133e-02 -5.8484973961111693e-02
      -1.8692459187923469e-01 -4.1275440366147642e-01
      -3.7123857853069980e-01 -1.1769178730523733e-01
      4.3579292190934565e-01 4.0932538255114737e-01
      1.8222761036074528e-01 7.6495273158076832e-02
      -3.8757476719831541e-02 -5.7648365109583022e-01
      4.7216051194312181e-01 -2.1838903313050914e-01
      -5.7871272523321859e-01 2.5353862654843856e-01
      8.0047449963735612e-03 -2.4252417156597272e-01
      1.9805964528439232e-02 -5.1187274079812176e-02
      5.0652556188844060e-02 -8.3154776507063113e-02
      -1.6632447062939787e-01 3.3465689557366524e-01
      -1.4313481580625675e-01 4.1902971029041014e-01
      -2.2383772258964707e-01 -4.1479758826734922e-02
      4.9428764985128321e-01 -1.4789154949444777e-01
      -3.7428507115001092e-01 -4.4630543264844768e-03
      -1.7470193623538199e-01 1.5336200184032439e-01
      -1.2287721958090310e-01 -3.2775995255207890e-01
      7.1268335592034160e-01 -5.3204708682595648e-03
      -8.8461291477207465e-02 -1.1400602632745689e-01
      3.2112003347446949e-01 -7.6591687455933943e-01
      4.1496739259584851e-02 6.3862338747888403e-01
      -1.1245223329831097e-01 6.7769540754561725e-03
      3.0004649916520504e-01 3.9851750510860384e-01
      6.8469892070436933e-01 1.1081836005506839e-01
      2.6241396453856719e-01 2.8160245891390012e-01
      2.9251360588558661e-01 1.7644483342264461e-01
      -9.7274773660473976e-02 -5.9171283830436461e-02
      4.7159667255578297e-02 5.6030891486023726e-01
      -8.2053785023173204e-02 -3.7894250580928646e-01
      -3.2827168574831106e-01 -1.2785678820305607e-01
      4.4262437575023977e-01 -1.5542809382035155e-01
      -7.9297905049850195e-02 7.1423215406688489e-01
      2.8958736003370411e-01 3.7284799580300038e-02
      -3.5630436064423326e-01 2.3651143798939597e-01
      3.3664673186536603e-01 -5.1960482409659658e-01
      6.2269568545772280e-01 3.1433183573078438e-01
      -2.4129632576219043e-01 7.8836989382907272e-02
      -1.4963097574227605e-01 3.4440765725760308e-01
      4.8849590762550787e-01 2.1093853628700229e-01
      2.6129218043654745e-01 -6.2376520849994468e-02
      4.0268620811000973e-02 -6.6066687345203856e-01
      4.2649900834559984e-01 -3.4280330854674895e-01
      2.3665420026254888e-01 1.4370099635763484e-01
      -7.6317481288417912e-03 4.9505258886355971e-02
      -2.2476921342163589e-01 -2.8117620326330521e-02
      1.0558239142775551e-01 9.7241352814920501e-01
      1.5135697407407539e-01 -3.4187114726434159e-01
      -4.5078488004410187e-02 1.9279113090673264e-01
      -1.8351067922048372e-01 1.1350581868226356e-01
      6.8837027448546756e-03 -6.1444333778739757e-01
      -3.1393024728583512e-02 8.2867571598143008e-02
      2.5718741676302143e-01 3.6446913783441637e-01
      4.5031435266441339e-01 9.0180377649977647e-02
      -2.4960226465024307e-01 8.9407607614557821e-02
      -6.3133897425560720e-02 1.1747282175093267e-01
      -4.5765777201839447e-01 1.0398150153466025e-01
      2.6556412883914093e-01 2.3168511772431813e-01
      -1.0104046330017348e-01 -1.2549502460633655e-01
      -6.6631390000389543e-03 7.8158619365058135e-01
      7.4473784844431878e-01 -4.6195730051368944e-01
      -6.3921481702282690e-01 8.1652259993675605e-02
      -5.9360701320647014e-01 3.4356674739979060e-01
      -6.1282678550407288e-01 -2.9077959250511254e-01
      1.8839996490592240e-01 -9.4975799074601842e-03
      4.6581499780612677e-02 -5.8483630348521987e-01
      -5.4319073935235579e-02 -3.5596329171253432e-01
      -1.0399752334701001e-02 -4.7047548321471552e-02
      -4.5881522199792452e-01 6.3647738067465792e-02
      3.8543865645087244e-02 -1.1361161903660627e-01
      1.3869851441962541e-01 -6.4879625040258804e-01
      -2.4611106764558688e-01 1.4797389642417549e-01
      5.1323701817159728e-01 9.6679894877448810e-03
      -9.3341509416800028e-02 -2.4860335540277884e-01
      2.7529707404413556e-01 -1.2375178360504491e+00
      -3.6741208960815525e-01 -1.6348780414099950e-01
      8.6880527821880993e-02 -6.8683735102595303e-02
      3.7478739043503440e-01 -1.3646204433640505e-01
      -1.0053042365883684e+00 -1.3384243749215964e-02
      -3.9738977173515440e-02 -6.2732574932656729e-02
      -6.0533162713370081e-01 -1.0588268335680054e-01
      1.8531312633947217e-01 -5.7019895610230430e-02
      -5.4933856696743118e-02 4.3287709567340077e-01
      8.2685322325291177e-01 1.5744524832004056e-01
      -4.6231410327954520e-01 3.9393029083473513e-01
      2.1415356097145621e-01 1.0932294033381079e-01
      -1.8877732558690602e-02 2.7400437859457738e-01
      -2.2410965354154766e-02 4.4574666154503084e-01
      4.2181431503701761e-01 -2.8470332898025136e-01
      -3.5201778926278549e-01 -2.9732162092174774e-01
      -4.1747925700120099e-02 9.7633683152508144e-02
      -9.6142742365004294e-02 1.6868543024365931e-01
      -1.4766491145382740e-01 -1.2793694455291371e-01
      2.4185922859267869e-01 3.8907795232535913e-01
      -2.2287318730467776e-01 1.0080033891287346e-01
      8.1480823155510210e-02 3.0334350675514526e-01
      7.7917916507678897e-01 -1.5332232959793529e-02
      -1.7883176652346067e-01 -1.9993349958728251e-01
      6.9387236447911338e-01 -3.0103225376148866e-02
      -4.3616531888082150e-02 -2.7140095039736776e-02
      4.9228938913411768e-01 1.2386027771016234e-01
      -3.9239913617488459e-01 2.4150907430228916e-01
      1.8566702878853428e-01 -1.0132659002253808e+00
      6.1553658743321006e-02 -1.1804436081437249e-01
      3.9686229342867591e-01 -3.1895127906845885e-02
      -3.8086530377433059e-01 -9.4953794773808275e-03
      -1.4224631097962642e-01 5.5364422131829372e-01
      -6.1597866528406187e-01 4.6030136836555206e-02
      -6.4316875102071847e-02 -9.2496421027199863e-02
      4.4946363430790663e-02 2.2538488157097816e-01
      -7.6805139633973840e-01 6.6159793841027936e-02
      8.8786850201768774e-01 5.2979520908023792e-01
      -1.7021133544714107e-01 2.5640799510077472e-02
      7.7476392481036997e-03 -4.3397498606608909e-01
      8.4195772626733401e-01 1.7350784421996743e-01
      1.2253893739239610e+00 1.1905227589877286e-01
      2.5529909750061835e-01 9.8012792980145674e-02
      -9.5239970270495661e-02 6.0002429513482822e-02
      -1.3773737805533781e-01 1.8935882811520907e-01
      -8.3071024615089424e-03 -5.7141587134791139e-01
      1.3632452383393433e-02 9.8230598945269032e-01
      3.9576505784799448e-01 2.9915938443012113e-01
      5.1064158437882527e-02 -2.5977550978827613e-01
      3.0534089523868896e-01 -2.7840341965538651e-01
      -2.1266752397994945e-01 -4.4309387784877791e-01
      2.5100972104240525e-02 3.6225505911512679e-01
      -1.7211014675801045e-01 -2.8400922824194173e-02
      -4.9049523913015319e-01 3.5363417322492940e-01
      2.6737685903336977e-01 -8.7966781822787110e-01
      -1.0915007731423022e-01 -7.1600699321104555e-01
      -1.1796982380288099e-01 -3.0860625555680817e-02
      -1.7148798154371470e-02 2.0796423431388177e-02
      -1.0683433905331874e+00 6.5492368425637354e-02
      6.2147595447474202e-01 1.8080391821856773e-01
      2.1210120992012740e-01 -1.3963431133640680e-02
      1.6055327413810724e-01 4.4211353234042509e-02
      5.9996301496843499e-02 2.6993941542296365e-02
      -4.3070676524590090e-01 -3.4344545956819472e-01
      7.9977083214698919e-01 -3.5971880618467449e-02
      2.0062498687271021e-01 -9.1691411940063333e-02
      -2.6882364203369195e-02 9.3642520317612610e-02
      -5.8575903836377319e-01 9.3927931064946268e-01
      8.6123073599162503e-01 -1.7023903825685130e-01
      4.6502536543624812e-01 -2.6902798527041454e-02
      4.6582334929361474e-01 -3.1612260489525901e-01
      1.2091937801012864e-01 -5.0130141317758288e-02
      5.4802161093425106e-01 -1.0828736228696723e-01
      6.2260136942989575e-01 -1.1632385326989680e-01
      3.5176658360835236e-02 -5.1826950347810923e-02
      7.7244470217734729e-02 5.6615638430791027e-01
      3.0101131082804167e-01 -1.0993593176410443e-01
      2.6783291174601365e-01 -5.5918134129531882e-01
      4.1128183138539653e-01 -2.3609406836449454e-01
      3.1608706813105630e-01 -1.5563696175834960e-03
      -3.2644416031882845e-01 1.1186614735267062e+00
      -7.2782488417096711e-02 -8.3110128572749253e-01
      -3.9072038158973837e-01 4.4043643466856169e-01
      4.6625463406121247e-02 1.1761615113857291e-02
      6.2052101068310239e-01 1.3934135548704438e-01
      1.1102651663184666e+00 -1.2783039931224561e-02
      -2.3095947242585846e-01 -6.4696867404218095e-01
      -4.0502267897274381e-02 6.3492236866206281e-02
      1.6339602247052268e-01 -5.7782322351896280e-02
      -2.4761992180633630e-01 5.0529716066558006e-01
      5.6497938923500235e-01 1.2550616304603476e-01
      -3.1443344889734415e-01 5.1742066687152866e-01
      1.6752037907351697e-01 9.4967967202015478e-03
      -2.6183233464405726e-02 4.4647092040266556e-01
      6.3683341933053000e-02 3.2881402747521349e-01
      2.7300123976749979e-01 3.7798310380636657e-01
      9.2793380021060146e-01 -2.7949474610138236e-01
      3.1704940207025695e-01 2.8106496190891056e-01
      -2.0894052841536381e-01 4.9438026246355210e-02
      8.2076654031024721e-01 8.0908967857959657e-01
      -2.7445277150155778e-01 4.7058898100719206e-02
      -3.0902725831069722e-01 1.0393918726309395e-01
      -1.1885573866417831e-01 -4.9327939869735071e-01
      5.9752954662521018e-01 1.6102434594788773e-01
      -2.1449065147862592e-01 1.5405185759988163e-01
      -9.0024889502245353e-01 -1.5844104230352446e-01
      3.3550973627582859e-01 -1.2027246068737608e-02
      2.5139204823416746e-02 -7.9236359433770343e-01
      -1.7762972077556191e-01 -1.4371015098570847e-02
      1.2565286995991512e-01 -6.2054857397231977e-01
      -1.9519432476349644e-02 -1.6227571320070560e-02
      8.5688470838192476e-02 2.5254289829527532e-01
      -1.0046261059097901e+00 7.4515808304157563e-02
      -1.2746735788476393e-01 -1.9723847748130799e-01
      1.4312675643464834e-01 1.1364824034221818e-01
      1.7662390549810825e-01 -3.3563929403488048e-02
      1.9275823387403876e-01 1.9482088408443626e-01
      6.7901701188996999e-01 -8.6427012398269387e-02
      6.9747099648877464e-01 9.6386098233206630e-01
      3.7707014986867493e-01 -4.0070339470381938e-02
      -4.8749167893018294e-02 -1.0390154095594757e-01
      -7.8590247054772178e-01 -5.6024519291843533e-01
      -5.6285549044314398e-01 -5.7303194299378701e-01
      -7.1883947060123665e-01 -3.8035158172934830e-01
      9.1675704772485200e-01 1.4931335808866447e-01
      2.6418596186591520e-01 -4.3910305042649832e-02
      -4.0154503730899377e-01 1.2959657533602247e-02
      -2.9677028078400047e-01 -3.6308622248873024e-01
      2.6436915390473470e-01 -5.0487399497738360e-03
      6.2341930669880696e-01 3.6240911138039938e-01
      1.4175592043276315e+00 -8.7655544699134100e-02
      1.4502243094339545e-01 2.0363837510477165e-01
      2.9732617579080151e-01 -2.9386648863512282e-01
      -2.6034326654608758e-01 -2.0317767793928368e-02
      4.3015149116740828e-02 -4.9643006703229089e-02
      1.9738828641327477e-01 -6.5826657605698791e-01
      -2.9498272250847785e-01 -4.8427903798894334e-01
      9.8108708035315809e-02 2.7018308529565136e-02
      3.4838151864329797e-01 -4.6345599905766133e-01
      2.4975979299514289e-01 -1.2916385847927733e-01
      7.2538967618473160e-01 -7.8668157428704777e-01
      -5.6733276816233823e-02 -8.4799660917380282e-02
      -1.2736008694479053e-01 3.9181234695369542e-02
      -1.1819143249936105e-01 1.3933563669394008e-01
      6.8828026853955906e-02 -4.3408984009481821e-01
      -2.3264020396651830e+00 7.6584877625303827e-01
      -3.7471043116854230e-01 1.3273319654330645e-01
      7.6022200420274591e-02 -9.2207867081440342e-01
      1.1461137506367985e-01 -5.1498333319915668e-01
      1.0703993531002509e+00 6.1451526607086449e-01
      -1.3616802995304936e-01 -5.6355782634914386e-01
      -1.7432669443918362e-02 -1.1467002834375119e-01
      7.2336516902556436e-01 1.3078417775797843e-01
      -6.4515487479685857e-02 1.7392713918282188e-01
      5.3372146663844799e-01 -6.9450454096786340e-01
      2.6493240747354124e-01 7.6531531826199650e-02
      7.4650835758027168e-02 6.6995321715847533e-01
      -4.0452832528831784e-01 -1.8820358789072336e-01
      2.3597333664051957e-02 -2.0117491338046667e-01
      4.9942423565826860e-01 1.3531795189186560e-01
      1.0492773416895497e-01 -5.9689286490148229e-03
      -8.3130847077194558e-01 9.8024040631615184e-02
      1.6962644685316006e-01 -1.0189089813430494e+00
      5.8618773207747132e-01 9.2739591822229250e-01
      6.6609591581908711e-02 -1.2892593529942846e-02
      3.4314863760864678e-01 -7.1319575448739880e-01
      9.7119133551995773e-01 4.4504245121992740e-02
      2.3467068109196332e-01 -2.7987501460596970e-01
      4.7684668819717857e-01 1.6918612028511467e-03
      1.4944888623816763e-01 4.5579967166548153e-03
      1.8007241769420295e-02 -3.4170472597097079e-01
      -1.2381301460491845e+00 -1.9890402103316709e-01
      -6.6403451485063170e-01 -1.0187560874388919e-01
      -1.3145641201354932e-01 -5.8544045636267396e-02
      -2.6890203874995036e-02 -2.6356086480435786e-01
      -8.0869108555791880e-01 -5.3281400667449397e-01
      4.9952988617989397e-01 -5.2130351348597326e-01
      5.4139977227951053e-01 -1.2792623015827839e-01
      -8.4967531787973039e-01 1.3893029660396419e-01
      -6.0529308692255790e-01 1.0946353885422014e-01
      3.6459023297621851e-01 -8.7395426136900434e-01
      2.7395515963478712e-01 4.5998241625192721e-01
      -4.1973967138491708e-01 3.4475246251013442e-01
      6.7507741640266838e-01 4.9436367984383567e-01
      5.7592229356561171e-02 8.9209697978981109e-02
      -6.2780739021847121e-01 1.1150950689892551e+00
      -1.8041157941650343e-01 -5.9240875607887312e-04
      2.7914004559330124e-01 2.0508401592240703e-02
      -3.5815111042681397e-02 -6.4327527334441315e-01
      3.0141492144495408e-01 -6.7833098393486968e-01
      3.0230213929478722e-01 -1.3381835416862706e-02
      1.1649593433085340e-01 -1.2038161580208946e-01
      1.2707907973642629e+00 5.3335621541556222e-01
      -2.2619202407421776e-01 5.2568640603217875e-03
      9.7568960852881748e-01 9.5584366142325239e-01
      -1.9941758776963048e-01 -1.4601365775245978e-02
      5.8165578359066550e-01 -9.0657260480344493e-03
      4.0261174747816142e-01 -2.1511424650199493e-01
      -1.2083885363442431e-01 -1.7522953640643990e-01
      -2.3084505596977761e-02 -2.4938443656594572e-01
      4.2682311962091768e-02 4.0019391906335758e-02
      -4.0590229452755729e-03 3.1362171991106491e-01
      -1.2854187231293184e+00 2.2165847435526248e-01
      8.9259414666001879e-01 8.7137944998221206e-01
      -1.2569566582888339e+00 -4.0028318643857208e-01
      -6.3218865523506174e-01 -2.2182976317200861e-01
      3.1940116483362112e-02 -2.6954391150043816e-01
      -2.4199676384656074e-01 9.0720072315402644e-01
      -5.7027879718051522e-01 -2.9770660718525366e-01
      3.7128092891146636e-01 -2.3869002316193180e-01
      4.5874268188045575e-01 -9.6548467043083258e-02
      -5.2377560166492954e-01 -1.8110794525514926e-01
      2.1842272549359412e-01 -3.7474922452835685e-01
      3.4755821715741853e-01 -1.4816365495908654e-01
      -3.4802904809501400e-01 -3.1726049439037091e-02
      -9.0691555626780399e-02 2.5317316371006987e-01
      -2.2795215936122701e-01 3.8113353249887606e-02
      -4.8424657120772402e-02 6.1150625335450948e-01
      -9.1702949797134684e-02 1.0697462396218156e-01
      -2.3564866427821712e-01 1.0519333985052690e-01
      2.3298222856170669e-01 2.3550771379983033e-02
      1.2731605182201072e-01 8.1957135504558343e-01
      3.5249214048124411e-01 1.0409115627582143e-01
      -2.9142888939116846e-01 2.4690905302341984e-02
      -2.9903703965649148e-01 -3.4205197112531538e-01
      -8.6322793635738915e-01 -1.0740884346658798e-01
      2.4779004354940348e-01 -3.4438281655798236e-02
      -1.8258592910776533e-01 3.2996418716455062e-02
      -4.0512742886118190e-03 -3.8467810138674352e-01
      2.8506816589943618e-01 -7.1569227663079188e-02
      -2.0064841833499492e-01 -1.0053428708252128e-01
      1.4187606394762106e-01 1.8001307035725232e-03
      -6.4361881074342334e-02 5.2363923911059845e-02
      9.6877720572859941e-02 1.6247500891301603e-01
      1.0434263438116269e+00 -9.3645373721075301e-02
      -1.3740291117231881e-01 1.9723826609027018e-01
      5.0670756435229747e-01 2.0407714202184332e-01
      3.2376383724681118e-01 7.6378851380155821e-01
      -9.1582544850151093e-01 -2.8584192159464953e-02
      5.2819437283617453e-02 8.3183182622688465e-02
