<?xml version="1.0"?>
<opencv_storage>
<opencv_ml_svm>
  <format>3</format>
  <svmType>C_SVC</svmType>
  <kernel>
    <type>RBF</type>
    <gamma>5.0000000000000000e-01</gamma></kernel>
  <C>1.</C>
  <term_criteria><iterations>20000</iterations></term_criteria>
  <var_count>108</var_count>
  <class_count>2</class_count>
  <class_labels type_id="opencv-matrix">
    <rows>2</rows>
    <cols>1</cols>
    <dt>i</dt>
    <data>
      -1 1</data></class_labels>
  <sv_total>542</sv_total>
  <support_vectors>
    <_>
      3.34578067e-01 3.34578067e-01 4.45101969e-02 3.34578067e-01
      3.34578067e-01 2.06939533e-01 2.60121375e-01 3.34578067e-01
      7.06501231e-02 3.34578067e-01 3.34578067e-01 3.09192330e-01
      3.46958816e-01 9.25629064e-02 3.46958816e-01 3.46958816e-01
      6.49849847e-02 3.46958816e-01 3.46958816e-01 1.35598093e-01
      3.46958816e-01 3.46958816e-01 4.80853543e-02 3.46958816e-01
      2.72263348e-01 2.21425742e-01 3.31538469e-01 1.10473424e-01
      3.31538469e-01 3.31538469e-01 3.18429321e-01 2.70307243e-01
      3.31538469e-01 1.65397912e-01 3.31538469e-01 3.31538469e-01
      9.10253227e-02 3.41190249e-01 1.67315945e-01 2.78308690e-01
      3.41190249e-01 3.41190249e-01 6.06127605e-02 3.41190249e-01
      3.37554872e-01 2.58405089e-01 3.41190249e-01 3.41190249e-01
      3.22537750e-01 1.65567502e-01 3.53624076e-01 3.53624076e-01
      6.58836588e-02 3.53624076e-01 3.16795945e-01 9.10149887e-02
      3.53624076e-01 3.53624076e-01 4.17111106e-02 3.53624076e-01
      3.21257442e-01 3.21257442e-01 3.21257442e-01 2.27849975e-01
      3.21257442e-01 2.29778588e-01 3.21257442e-01 2.26467788e-01
      3.11951756e-01 3.21257442e-01 3.21257442e-01 1.45018116e-01
      1.27591670e-01 3.19897503e-01 2.76274085e-01 2.35258192e-01
      3.19897503e-01 3.19897503e-01 3.19897503e-01 3.19897503e-01
      1.73708990e-01 3.19897503e-01 3.19897503e-01 3.19897503e-01
      3.15514892e-01 2.52060294e-01 3.15514892e-01 3.15514892e-01
      1.62950590e-01 3.15514892e-01 3.15514892e-01 3.15514892e-01
      2.60337502e-01 2.06367001e-01 3.15514892e-01 3.15514892e-01
      3.41421902e-01 3.25942069e-01 2.66908944e-01 3.41421902e-01
      3.41421902e-01 1.37063056e-01 7.79146254e-02 3.41421902e-01
      2.46054903e-01 1.85193434e-01 3.41421902e-01 3.41421902e-01</_>
    <_>
      3.29505175e-01 9.02765468e-02 3.29505175e-01 3.29505175e-01
      1.28468335e-01 3.29505175e-01 3.29505175e-01 2.51112998e-01
      3.08885574e-01 3.29505175e-01 3.29505175e-01 2.31452078e-01
      3.09050709e-01 1.83171496e-01 3.09050709e-01 3.09050709e-01
      2.32371405e-01 3.09050709e-01 3.09050709e-01 3.09050709e-01
      2.23052815e-01 3.09050709e-01 3.09050709e-01 3.09050709e-01
      3.26482505e-01 1.42382771e-01 3.26482505e-01 3.26482505e-01
      5.36357015e-02 3.26482505e-01 3.26482505e-01 2.84180313e-01
      3.26482505e-01 3.26482505e-01 2.00257763e-01 3.26482505e-01
      3.51048380e-01 3.41864645e-01 7.70064965e-02 3.51048380e-01
      3.51048380e-01 5.79666793e-02 3.51048380e-01 3.51048380e-01
      5.72832674e-02 3.51048380e-01 3.51048380e-01 6.63701147e-02
      3.32032800e-01 2.90083259e-01 2.43988693e-01 2.63848662e-01
      2.37406015e-01 3.32032800e-01 3.32032800e-01 2.79573321e-01
      3.06948841e-01 2.95089096e-01 1.63053378e-01 3.32032800e-01
      1.54940248e-01 1.99841127e-01 4.19795424e-01 1.50216848e-01
      2.19538376e-01 4.19795424e-01 1.09916992e-01 2.41709039e-01
      4.19795424e-01 1.33320615e-01 2.60593712e-01 4.19795424e-01
      3.15632999e-01 3.15632999e-01 9.69831198e-02 3.15632999e-01
      3.15632999e-01 1.23882592e-01 3.15632999e-01 3.15632999e-01
      3.15632999e-01 3.15632999e-01 2.74728864e-01 3.15632999e-01
      3.26738805e-01 2.81167120e-01 3.13847423e-01 3.26738805e-01
      1.75003976e-01 3.26738805e-01 3.26738805e-01 1.50910899e-01
      3.26738805e-01 3.26738805e-01 1.35911793e-01 3.26738805e-01
      2.07988650e-01 1.83917686e-01 3.67131323e-01 2.16245890e-01
      1.76051736e-01 3.67131323e-01 3.67131323e-01 1.06642574e-01
      3.67131323e-01 3.67131323e-01 1.46306574e-01 3.67131323e-01</_>
    <_>
      3.33454162e-01 1.29215553e-01 3.33454162e-01 3.33454162e-01
      2.50790656e-01 3.28869700e-01 3.33454162e-01 3.33454162e-01
      1.42160803e-01 3.33454162e-01 3.33454162e-01 1.01827532e-01
      3.00281823e-01 2.79876441e-01 2.25204036e-01 3.00281823e-01
      2.95952350e-01 3.00281823e-01 3.00281823e-01 3.00281823e-01
      2.42921248e-01 3.00281823e-01 3.00281823e-01 3.00281823e-01
      3.50115567e-01 2.09958449e-01 3.50115567e-01 3.50115567e-01
      1.09431185e-01 3.50115567e-01 2.13652804e-01 2.69163877e-01
      3.50115567e-01 1.82263479e-01 2.31607586e-01 3.50115567e-01
      3.51257771e-01 3.51257771e-01 2.31543910e-02 3.51257771e-01
      3.51257771e-01 4.32249904e-02 3.51257771e-01 3.51257771e-01
      5.31120636e-02 3.51257771e-01 3.51257771e-01 6.48765489e-02
      3.27187121e-01 2.81135112e-01 3.10657412e-01 2.44079888e-01
      1.77933767e-01 3.27187121e-01 3.27187121e-01 3.27187121e-01
      2.97081500e-01 2.39284649e-01 2.21763194e-01 3.27187121e-01
      8.41482729e-02 2.25453317e-01 4.24424946e-01 1.02026269e-01
      2.06448257e-01 4.24424946e-01 1.17848352e-01 2.33493209e-01
      4.24424946e-01 2.24893302e-01 2.12813124e-01 4.24424946e-01
      3.07455808e-01 3.07455808e-01 1.93961650e-01 3.07455808e-01
      3.07455808e-01 2.24036768e-01 3.07455808e-01 3.07455808e-01
      3.07455808e-01 3.07455808e-01 2.41562694e-01 3.07455808e-01
      3.30449671e-01 2.36179799e-01 3.30449671e-01 3.30449671e-01
      1.84867546e-01 3.30449671e-01 3.30449671e-01 1.35202438e-01
      3.30449671e-01 3.30449671e-01 1.22007027e-01 3.30449671e-01
      3.26882273e-01 1.14961445e-01 3.44828576e-01 3.44828576e-01
      1.40734404e-01 3.44828576e-01 3.44828576e-01 1.07006773e-01
      3.44828576e-01 3.44828576e-01 1.13501877e-01 3.44828576e-01</_>
    <_>
      3.44937384e-01 3.44937384e-01 1.20886549e-01 2.98565537e-01
      3.44937384e-01 2.25524902e-01 3.44937384e-01 3.44937384e-01
      5.73480278e-02 3.44937384e-01 3.44937384e-01 7.59983659e-02
      2.57169247e-01 3.49595338e-01 1.71991825e-01 3.49595338e-01
      3.49595338e-01 1.74899772e-01 3.49595338e-01 3.49595338e-01
      7.66817480e-02 3.49595338e-01 3.49595338e-01 9.38176513e-02
      3.40439558e-01 3.40439558e-01 7.49281868e-02 3.40439558e-01
      3.20354223e-01 1.83123559e-01 3.40439558e-01 3.40439558e-01
      6.92493990e-02 3.40439558e-01 3.40439558e-01 1.96809635e-01
      3.37383568e-01 3.37383568e-01 5.58442958e-02 3.37383568e-01
      3.37383568e-01 6.89547509e-02 3.37383568e-01 3.37383568e-01
      2.36402571e-01 3.37383568e-01 3.32626581e-01 1.59484893e-01
      3.52250785e-01 3.52250785e-01 3.07564493e-02 3.52250785e-01
      3.52250785e-01 3.45152356e-02 3.52250785e-01 3.52250785e-01
      3.02850083e-02 3.52250785e-01 3.52250785e-01 2.79526133e-02
      3.61881882e-01 3.61881882e-01 5.27728014e-02 3.18706125e-01
      3.61881882e-01 1.27484262e-01 3.61881882e-01 3.61881882e-01
      3.80562767e-02 2.88790703e-01 3.61881882e-01 7.19335526e-02
      2.55315483e-01 3.35782886e-01 3.35782886e-01 3.35782886e-01
      2.54181832e-01 2.58467317e-01 1.99381068e-01 3.23903948e-01
      3.35782886e-01 3.35782886e-01 1.86784163e-01 2.38200858e-01
      3.67300481e-01 2.97995776e-01 2.78076716e-02 3.67300481e-01
      3.67300481e-01 1.85544733e-02 3.67300481e-01 3.04154307e-01
      3.58288772e-02 3.67300481e-01 3.67300481e-01 5.62123880e-02
      4.10450280e-01 4.10450280e-01 2.68973857e-02 1.83565542e-01
      4.10450280e-01 3.84824723e-02 2.76686609e-01 4.10450280e-01
      4.90466841e-02 1.81012079e-01 4.10450280e-01 7.69764110e-02</_>
    <_>
      3.35157007e-01 1.51007295e-01 2.63657629e-01 3.35157007e-01
      1.70671046e-01 2.77723372e-01 3.35157007e-01 3.35157007e-01
      2.38663375e-01 3.35157007e-01 3.35157007e-01 2.59099036e-01
      3.10646236e-01 1.57649532e-01 3.10646236e-01 3.10646236e-01
      2.06232682e-01 3.10646236e-01 3.10646236e-01 3.10646236e-01
      3.10646236e-01 3.10646236e-01 2.46983618e-01 3.10646236e-01
      3.12401116e-01 1.54359609e-01 3.12401116e-01 3.12401116e-01
      9.39635932e-02 3.12401116e-01 3.12401116e-01 3.12401116e-01
      2.93039650e-01 3.12401116e-01 3.12401116e-01 3.12401116e-01
      3.06743473e-01 3.06743473e-01 1.94818318e-01 3.06743473e-01
      3.06743473e-01 2.18789533e-01 3.06743473e-01 2.74878770e-01
      3.06743473e-01 3.06743473e-01 3.06743473e-01 2.87786692e-01
      3.27071756e-01 3.27071756e-01 2.44033098e-01 3.27071756e-01
      2.91813850e-01 1.34180099e-01 3.27071756e-01 2.28702947e-01
      2.96488196e-01 3.27071756e-01 3.27071756e-01 2.27934808e-01
      3.23836774e-01 3.23836774e-01 1.18342958e-01 3.23836774e-01
      3.23836774e-01 2.59922683e-01 3.23836774e-01 2.46385694e-01
      3.23836774e-01 3.23836774e-01 1.24625005e-01 3.23836774e-01
      2.23519251e-01 3.47776383e-01 3.47776383e-01 2.40403086e-01
      3.47776383e-01 3.08140963e-01 1.49759606e-01 3.47776383e-01
      2.02213854e-01 2.27753371e-01 3.47776383e-01 2.71823168e-01
      1.79921955e-01 2.70931333e-01 3.46823782e-01 1.84612885e-01
      3.29894155e-01 3.46823782e-01 1.43956289e-01 3.46823782e-01
      3.46823782e-01 7.35052750e-02 3.46823782e-01 3.46823782e-01
      3.17994177e-01 2.23741680e-01 3.17994177e-01 3.17994177e-01
      1.08462982e-01 3.17994177e-01 1.64017677e-01 3.17994177e-01
      3.17994177e-01 3.14855546e-01 3.17994177e-01 3.17994177e-01</_>
    <_>
      3.02152365e-01 2.08318397e-01 3.02124858e-01 3.02152365e-01
      3.02152365e-01 2.44386926e-01 3.02152365e-01 3.02152365e-01
      2.68721819e-01 3.02152365e-01 3.02152365e-01 3.02152365e-01
      2.91852206e-01 2.91852206e-01 2.45747417e-01 2.91852206e-01
      2.91852206e-01 2.91852206e-01 2.91852206e-01 2.91852206e-01
      2.91852206e-01 2.91852206e-01 2.91401505e-01 2.91852206e-01
      3.53946090e-01 3.13805699e-01 2.75578797e-01 3.53946090e-01
      3.53946090e-01 6.04312867e-02 3.53946090e-01 1.87667668e-01
      2.56947160e-01 3.53946090e-01 2.95225620e-01 6.00473620e-02
      2.99671441e-01 2.99671441e-01 2.99671441e-01 2.99671441e-01
      2.99671441e-01 2.99671441e-01 2.99671441e-01 2.24037394e-01
      2.99671441e-01 2.99671441e-01 2.20869184e-01 2.99671441e-01
      3.48241061e-01 1.09411627e-01 3.48241061e-01 3.48241061e-01
      8.66298154e-02 3.48241061e-01 3.48241061e-01 7.58083761e-02
      3.48241061e-01 3.48241061e-01 3.35180648e-02 3.48241061e-01
      3.67525637e-01 8.70940015e-02 3.10532779e-01 3.67525637e-01
      1.40411735e-01 2.45925143e-01 3.67525637e-01 2.18258779e-02
      3.67525637e-01 3.67525637e-01 3.45042013e-02 3.67525637e-01
      2.45248497e-01 2.69186229e-01 3.36784691e-01 2.23211795e-01
      3.36784691e-01 3.36784691e-01 1.11540191e-01 3.36784691e-01
      3.36784691e-01 8.82876217e-02 3.36784691e-01 3.36784691e-01
      2.84896582e-01 1.83594331e-01 3.41042578e-01 3.41042578e-01
      6.70775324e-02 3.41042578e-01 1.20351784e-01 3.12007457e-01
      3.41042578e-01 3.02538276e-01 3.03821027e-01 3.41042578e-01
      3.38548958e-01 2.87549533e-02 3.38548958e-01 3.38548958e-01
      3.00155319e-02 3.38548958e-01 3.38548958e-01 2.52680480e-01
      3.38548958e-01 3.38548958e-01 1.18823268e-01 3.38548958e-01</_>
    <_>
      1.94339812e-01 3.36753935e-01 1.20176688e-01 2.39577040e-01
      3.36753935e-01 2.74530172e-01 2.64513880e-01 3.36753935e-01
      2.47536406e-01 3.36753935e-01 3.36753935e-01 3.36753935e-01
      1.95274726e-01 3.57640594e-01 2.07286179e-01 1.65503681e-01
      3.57640594e-01 2.15805531e-01 2.13421971e-01 3.57640594e-01
      2.52920419e-01 3.03828806e-01 3.57640594e-01 3.57640594e-01
      2.40746871e-01 3.48557115e-01 2.82593131e-01 2.63272941e-01
      9.71399546e-02 3.52277547e-01 3.52277547e-01 1.89972758e-01
      3.52277547e-01 3.52277547e-01 4.28327098e-02 3.52277547e-01
      2.65514106e-01 3.04480940e-01 2.33497903e-01 3.04480940e-01
      3.04480940e-01 2.50797778e-01 3.04480940e-01 3.04480940e-01
      2.59557068e-01 3.04480940e-01 3.04480940e-01 3.04480940e-01
      2.78660208e-01 3.16505879e-01 1.52297497e-01 3.16505879e-01
      2.80778021e-01 3.16505879e-01 2.90147990e-01 3.16505879e-01
      1.78150594e-01 3.16505879e-01 3.16505879e-01 3.16505879e-01
      3.23132157e-01 4.74441983e-02 3.23132157e-01 3.23132157e-01
      2.74669174e-02 3.23132157e-01 3.23132157e-01 3.07405442e-01
      3.23132157e-01 3.23132157e-01 2.52888620e-01 3.23132157e-01
      2.87088275e-01 3.31417769e-01 1.80241793e-01 3.31417769e-01
      3.31417769e-01 2.77098954e-01 2.37851769e-01 3.31417769e-01
      1.11431532e-01 3.31417769e-01 3.31417769e-01 2.77454734e-01
      1.95563734e-01 3.12813401e-01 2.49837592e-01 3.12813401e-01
      3.12813401e-01 3.12813401e-01 3.12813401e-01 3.12813401e-01
      3.12813401e-01 3.12813401e-01 1.24660850e-01 3.12813401e-01
      3.06022733e-01 3.06022733e-01 3.06022733e-01 3.06022733e-01
      3.06022733e-01 3.06022733e-01 3.06022733e-01 1.86089352e-01
      3.06022733e-01 3.06022733e-01 3.06022733e-01 1.60667300e-01</_>
    <_>
      3.47415805e-01 3.47415805e-01 4.32370603e-02 3.47415805e-01
      3.47415805e-01 1.49391174e-01 3.47415805e-01 3.47415805e-01
      2.25004535e-02 3.47415805e-01 3.47415805e-01 7.90794343e-02
      3.26161444e-01 3.26161444e-01 1.97245508e-01 2.44595706e-01
      3.26161444e-01 1.91591039e-01 3.26161444e-01 3.26161444e-01
      1.49795994e-01 3.26161444e-01 3.26161444e-01 3.06909382e-01
      2.43499517e-01 3.18938941e-01 2.85109699e-01 1.92075074e-01
      3.18938941e-01 3.18938941e-01 3.18938941e-01 2.16236174e-01
      3.18938941e-01 3.18938941e-01 2.46025220e-01 3.18938941e-01
      3.29884797e-01 3.29884797e-01 4.78628986e-02 3.29884797e-01
      3.29884797e-01 1.93858445e-01 3.29884797e-01 2.96728879e-01
      2.39023715e-01 2.23346844e-01 3.29884797e-01 3.29884797e-01
      3.09352815e-01 3.09352815e-01 3.09352815e-01 3.09352815e-01
      2.17897892e-01 3.09352815e-01 2.39724964e-01 3.09352815e-01
      3.09352815e-01 3.09352815e-01 1.75125301e-01 3.09352815e-01
      3.51220340e-01 2.88133100e-02 3.51220340e-01 3.51220340e-01
      7.30489120e-02 3.51220340e-01 3.51220340e-01 3.20550464e-02
      3.51220340e-01 3.51220340e-01 4.95093204e-02 3.51220340e-01
      2.40732059e-01 1.06137894e-01 3.75227183e-01 2.38413617e-01
      1.50941849e-01 3.75227183e-01 3.75227183e-01 2.70898938e-02
      3.75227183e-01 3.75227183e-01 4.36227508e-02 3.75227183e-01
      2.21054912e-01 2.33827889e-01 3.54565740e-01 2.85347402e-01
      1.88541383e-01 3.54565740e-01 3.54565740e-01 9.97007489e-02
      3.54565740e-01 3.54565740e-01 1.08187214e-01 3.54565740e-01
      3.41254979e-01 4.48315814e-02 3.41254979e-01 3.41254979e-01
      1.40494615e-01 3.41254979e-01 3.41254979e-01 7.11391717e-02
      3.41254979e-01 3.41254979e-01 1.95297927e-01 3.41254979e-01</_>
    <_>
      3.53330702e-01 3.53330702e-01 1.77507177e-01 1.80993676e-01
      3.53330702e-01 1.27184704e-01 3.53330702e-01 3.53330702e-01
      1.56366169e-01 3.53330702e-01 3.53330702e-01 1.32957876e-01
      1.32599562e-01 3.45050573e-01 1.68216050e-01 1.98548302e-01
      3.45050573e-01 1.27806157e-01 3.45050573e-01 3.45050573e-01
      3.08739483e-01 3.29521030e-01 3.45050573e-01 3.09376150e-01
      1.83271646e-01 3.65737051e-01 1.06293023e-01 1.69893965e-01
      3.65737051e-01 3.65737051e-01 1.47052184e-01 3.65737051e-01
      2.79623866e-01 1.42126396e-01 3.65737051e-01 3.65737051e-01
      2.50916839e-01 3.28534096e-01 1.21379986e-01 3.28534096e-01
      3.28534096e-01 1.00503795e-01 3.28534096e-01 3.28534096e-01
      3.06526631e-01 3.28534096e-01 3.28534096e-01 2.43768156e-01
      3.30913901e-01 3.30913901e-01 2.07829624e-01 1.42423138e-01
      3.30913901e-01 2.89858580e-01 3.30913901e-01 3.30913901e-01
      2.63112754e-01 1.15937836e-01 3.30913901e-01 3.30913901e-01
      9.08196196e-02 3.41845334e-01 3.12390596e-01 9.39035043e-02
      3.41845334e-01 3.41845334e-01 2.37748578e-01 3.41845334e-01
      3.41845334e-01 3.10584247e-01 3.41845334e-01 1.66716233e-01
      2.89780468e-01 2.70932198e-01 2.89780468e-01 2.89780468e-01
      2.89780468e-01 2.89780468e-01 2.89780468e-01 2.89780468e-01
      2.89780468e-01 2.89780468e-01 2.89780468e-01 2.89780468e-01
      3.09430212e-01 3.09430212e-01 2.22234607e-01 1.91970468e-01
      3.09430212e-01 3.09430212e-01 3.09430212e-01 3.09430212e-01
      3.09430212e-01 2.21232012e-01 3.09430212e-01 3.09430212e-01
      3.01090628e-01 3.01090628e-01 3.01090628e-01 3.01090628e-01
      3.01090628e-01 1.73163742e-01 3.01090628e-01 3.01090628e-01
      3.01090628e-01 3.01090628e-01 3.01090628e-01 2.45865986e-01</_>
    <_>
      3.49440247e-01 3.49440247e-01 1.08300619e-01 3.04355502e-01
      3.49440247e-01 1.48928359e-01 3.49440247e-01 3.49440247e-01
      5.89584149e-02 3.49440247e-01 3.49440247e-01 1.08315408e-01
      2.68108010e-01 3.19975108e-01 1.92017287e-01 2.42937028e-01
      3.19975108e-01 1.17602304e-01 3.19975108e-01 3.19975108e-01
      3.19975108e-01 3.13868016e-01 3.19975108e-01 3.19975108e-01
      2.13385969e-01 3.42429727e-01 7.46667087e-02 2.66239434e-01
      3.42429727e-01 3.42429727e-01 1.70012742e-01 3.42429727e-01
      2.37008482e-01 2.93190330e-01 3.42429727e-01 3.42429727e-01
      2.97608465e-01 3.23245674e-01 1.58286661e-01 3.23245674e-01
      3.23245674e-01 1.46051943e-01 2.43671760e-01 3.23245674e-01
      3.23245674e-01 3.23245674e-01 3.23245674e-01 2.66501993e-01
      3.28441739e-01 3.28441739e-01 2.16695368e-01 1.45891413e-01
      3.28441739e-01 3.28441739e-01 3.28441739e-01 3.28441739e-01
      1.82893530e-01 1.78984195e-01 3.28441739e-01 3.28441739e-01
      1.19684920e-01 3.23219478e-01 2.90883094e-01 2.07225069e-01
      3.23219478e-01 3.23219478e-01 2.84673333e-01 3.23219478e-01
      3.23219478e-01 3.23219478e-01 3.23219478e-01 2.06291080e-01
      1.88901693e-01 3.11095923e-01 3.11095923e-01 3.11095923e-01
      3.11095923e-01 2.67267108e-01 2.21949339e-01 2.57427603e-01
      3.11095923e-01 3.11095923e-01 3.11095923e-01 3.11095923e-01
      3.10314447e-01 3.10314447e-01 2.30531186e-01 1.86386794e-01
      3.10314447e-01 3.10314447e-01 3.10314447e-01 3.10314447e-01
      3.10314447e-01 2.05813244e-01 3.10314447e-01 3.10314447e-01
      3.05170447e-01 2.43273407e-01 3.05170447e-01 3.05170447e-01
      3.05170447e-01 2.58059144e-01 3.05170447e-01 1.81695253e-01
      3.05170447e-01 3.05170447e-01 3.05170447e-01 3.05170447e-01</_>
    <_>
      3.45179677e-01 3.45179677e-01 5.09946346e-02 3.45179677e-01
      3.45179677e-01 1.47057891e-01 3.45179677e-01 3.45179677e-01
      5.22683598e-02 3.45179677e-01 3.45179677e-01 1.28064811e-01
      3.39630127e-01 3.39630127e-01 1.40523732e-01 2.58879036e-01
      3.39630127e-01 1.03746004e-01 3.39630127e-01 3.39630127e-01
      1.53407842e-01 3.39630127e-01 3.39630127e-01 2.60966897e-01
      2.37753913e-01 2.97122836e-01 2.97122836e-01 2.54160136e-01
      2.97122836e-01 2.85252362e-01 2.97122836e-01 2.97122836e-01
      2.97122836e-01 2.97122836e-01 2.97122836e-01 2.97122836e-01
      3.40437919e-01 3.40437919e-01 4.87601906e-02 3.40437919e-01
      3.40437919e-01 1.70397997e-01 3.15667957e-01 3.40437919e-01
      1.34889275e-01 3.00149977e-01 3.40437919e-01 2.48729154e-01
      2.91195780e-01 3.07713509e-01 3.07713509e-01 3.07713509e-01
      2.91338384e-01 3.07713509e-01 2.91718572e-01 2.51055509e-01
      3.07713509e-01 3.07713509e-01 1.27712235e-01 3.07713509e-01
      3.47094983e-01 8.36415887e-02 3.47094983e-01 3.47094983e-01
      6.15753233e-02 3.47094983e-01 3.47094983e-01 1.28552690e-01
      3.47094983e-01 3.47094983e-01 7.36160725e-02 3.47094983e-01
      2.54395038e-01 3.13657194e-01 3.02654356e-01 2.62948841e-01
      3.13657194e-01 3.13657194e-01 3.13657194e-01 2.11076424e-01
      3.13657194e-01 3.13657194e-01 1.95417747e-01 3.13657194e-01
      3.33338946e-01 2.15155885e-01 3.33338946e-01 3.33338946e-01
      2.12929755e-01 3.33338946e-01 3.33338946e-01 9.97786596e-02
      3.33338946e-01 3.33338946e-01 7.85085708e-02 3.33338946e-01
      3.25886220e-01 2.46513963e-01 3.25886220e-01 3.25886220e-01
      2.10742772e-01 3.25886220e-01 3.25886220e-01 1.02815546e-01
      3.25886220e-01 3.25886220e-01 1.77133873e-01 3.25886220e-01</_>
    <_>
      3.48622769e-01 3.48622769e-01 4.32869010e-02 3.48622769e-01
      3.48622769e-01 1.14247009e-01 3.48622769e-01 3.48622769e-01
      4.82195988e-02 3.48622769e-01 3.48622769e-01 8.34434330e-02
      3.28799576e-01 3.28799576e-01 1.65291443e-01 1.81977078e-01
      3.28799576e-01 1.86288700e-01 3.28799576e-01 3.28799576e-01
      1.91574708e-01 3.28799576e-01 3.28799576e-01 3.28799576e-01
      1.67031348e-01 3.15279096e-01 3.14714372e-01 2.61103660e-01
      3.15279096e-01 3.15279096e-01 3.15279096e-01 1.22962132e-01
      3.15279096e-01 3.15279096e-01 3.01336944e-01 3.15279096e-01
      3.07401031e-01 3.07401031e-01 1.09606482e-01 3.07401031e-01
      3.07401031e-01 2.27381289e-01 3.07401031e-01 3.07401031e-01
      2.87669778e-01 3.07401031e-01 3.07401031e-01 3.07401031e-01
      3.21377635e-01 3.21377635e-01 3.21377635e-01 3.21377635e-01
      1.39424130e-01 3.21377635e-01 3.21377635e-01 2.04062879e-01
      3.21377635e-01 3.21377635e-01 7.84585923e-02 3.21377635e-01
      3.37644666e-01 9.91972908e-03 3.37644666e-01 3.37644666e-01
      1.22692183e-01 3.37644666e-01 3.37644666e-01 4.50443365e-02
      3.37644666e-01 3.37644666e-01 2.59642959e-01 3.37644666e-01
      3.45070064e-01 1.35735646e-01 3.45070064e-01 3.45070064e-01
      1.36097059e-01 3.45070064e-01 3.45070064e-01 6.70158267e-02
      3.45070064e-01 3.45070064e-01 5.02786078e-02 3.45070064e-01
      3.11787784e-01 1.27530277e-01 3.55763644e-01 3.32944155e-01
      9.71823111e-02 3.55763644e-01 3.55763644e-01 3.87014560e-02
      3.55763644e-01 3.55763644e-01 4.20622788e-02 3.55763644e-01
      2.39438653e-01 8.41508433e-02 3.23981494e-01 2.98888445e-01
      3.23981494e-01 3.23981494e-01 3.23981494e-01 5.74825741e-02
      3.23981494e-01 3.23981494e-01 3.23981494e-01 3.23981494e-01</_>
    <_>
      1.58790827e-01 4.26054567e-01 1.50655299e-01 1.56198740e-01
      4.26054567e-01 1.67051628e-01 1.21492438e-01 4.26054567e-01
      9.35058892e-02 3.32884789e-01 4.26054567e-01 1.87408507e-01
      2.27549091e-01 3.13734770e-01 1.96852610e-01 2.97250599e-01
      3.13734770e-01 3.13734770e-01 3.13734770e-01 3.13734770e-01
      2.54721731e-01 3.13734770e-01 2.53156155e-01 3.13734770e-01
      2.97139555e-01 3.05977494e-01 2.33084619e-01 3.37212533e-01
      1.89188838e-01 3.25512648e-01 3.37212533e-01 1.98779821e-01
      3.37212533e-01 3.37212533e-01 1.02773659e-01 3.37212533e-01
      1.50900885e-01 3.61757457e-01 1.32058799e-01 3.61757457e-01
      3.61757457e-01 2.07124814e-01 1.77299410e-01 3.61757457e-01
      1.87028155e-01 3.61757457e-01 3.61757457e-01 2.48292506e-01
      4.03389186e-01 2.91137516e-01 1.83166161e-01 4.03389186e-01
      1.28082439e-01 2.35949233e-01 4.03389186e-01 1.90019995e-01
      1.59480646e-01 4.03389186e-01 1.04503080e-01 2.86754638e-01
      3.45699281e-01 1.00619070e-01 3.27378452e-01 3.45699281e-01
      1.26371726e-01 3.45699281e-01 3.45699281e-01 9.45356116e-02
      3.45699281e-01 3.45699281e-01 1.33351073e-01 3.45699281e-01
      2.71208405e-01 2.48185754e-01 1.65549293e-01 4.03997988e-01
      2.42088497e-01 2.34664187e-01 4.03997988e-01 2.21795693e-01
      1.41606241e-01 4.03997988e-01 3.70123982e-01 1.54443428e-01
      4.11367953e-01 9.78390276e-02 1.53868437e-01 4.11367953e-01
      5.97797334e-02 3.28263164e-01 4.11367953e-01 1.57500058e-01
      1.98548317e-01 4.11367953e-01 1.70324102e-01 2.84921050e-01
      3.42710406e-01 3.62577774e-02 3.42710406e-01 3.42710406e-01
      3.50895114e-02 3.42710406e-01 3.42710406e-01 1.70881793e-01
      3.42710406e-01 3.42710406e-01 1.58827290e-01 3.42710406e-01</_>
    <_>
      3.44266266e-01 3.44266266e-01 8.15460160e-02 3.44266266e-01
      3.44266266e-01 1.02565862e-01 3.44266266e-01 3.44266266e-01
      1.10115498e-01 3.44266266e-01 3.44266266e-01 1.38244033e-01
      2.85503209e-01 3.20278734e-01 2.03980193e-01 2.01108366e-01
      3.20278734e-01 1.82396442e-01 3.20278734e-01 3.20278734e-01
      3.20278734e-01 2.86212236e-01 3.20278734e-01 3.20278734e-01
      2.08155498e-01 3.49447221e-01 1.22456923e-01 2.32571214e-01
      3.49447221e-01 3.49447221e-01 1.10758305e-01 3.49447221e-01
      3.49447221e-01 1.30513713e-01 3.49447221e-01 3.49447221e-01
      3.00770730e-01 3.00770730e-01 2.88652152e-01 3.00770730e-01
      3.00770730e-01 2.54830778e-01 1.85926005e-01 3.00770730e-01
      3.00770730e-01 3.00770730e-01 3.00770730e-01 3.00770730e-01
      3.19599777e-01 3.19599777e-01 2.78250903e-01 1.46320820e-01
      3.19599777e-01 3.19599777e-01 2.82982022e-01 3.19599777e-01
      2.83558488e-01 1.49935901e-01 3.19599777e-01 3.19599777e-01
      1.28324538e-01 3.15601557e-01 3.15601557e-01 1.56271338e-01
      3.15601557e-01 3.15601557e-01 3.15601557e-01 3.06165516e-01
      3.15601557e-01 3.15601557e-01 3.15601557e-01 2.55707800e-01
      1.92201525e-01 2.26290241e-01 3.25976104e-01 3.25976104e-01
      2.66442001e-01 3.11286211e-01 3.12568009e-01 1.39756709e-01
      3.25976104e-01 3.25976104e-01 3.03596854e-01 3.25976104e-01
      2.90909618e-01 3.11062902e-01 3.11062902e-01 1.37940913e-01
      3.11062902e-01 3.11062902e-01 3.11062902e-01 3.11062902e-01
      3.11062902e-01 1.49647906e-01 3.11062902e-01 3.11062902e-01
      3.42476636e-01 1.19479775e-01 3.42476636e-01 3.42476636e-01
      3.27605128e-01 2.29251638e-01 3.42476636e-01 7.53120407e-02
      3.42476636e-01 3.42476636e-01 2.12367326e-01 2.60591835e-01</_>
    <_>
      3.45935792e-01 3.47428411e-01 6.69755936e-02 3.47428411e-01
      3.47428411e-01 1.49322748e-01 3.47428411e-01 3.47428411e-01
      3.74884978e-02 3.47428411e-01 3.47428411e-01 6.10170290e-02
      2.45806992e-01 3.79032969e-01 1.52664036e-01 1.78889334e-01
      3.79032969e-01 8.20872337e-02 3.53249729e-01 3.79032969e-01
      1.31707340e-01 3.15206349e-01 3.79032969e-01 2.39989534e-01
      1.88820764e-01 3.36080432e-01 1.95346147e-01 2.37070024e-01
      3.36080432e-01 2.01428741e-01 3.36080432e-01 3.36080432e-01
      3.36080432e-01 3.36080432e-01 1.88155323e-01 3.36080432e-01
      3.32106799e-01 3.32106799e-01 4.93308343e-02 3.32106799e-01
      3.32106799e-01 2.36784145e-01 3.17494422e-01 3.32106799e-01
      1.90107659e-01 1.70802251e-01 3.32106799e-01 3.32106799e-01
      2.40562886e-01 3.17589074e-01 3.17589074e-01 3.17589074e-01
      3.17589074e-01 3.17589074e-01 2.17565686e-01 2.40450591e-01
      3.17589074e-01 3.17589074e-01 1.64018974e-01 3.17589074e-01
      3.46060961e-01 8.34528282e-02 3.46060961e-01 3.46060961e-01
      2.29503959e-02 3.46060961e-01 3.46060961e-01 1.31944969e-01
      3.46060961e-01 3.46060961e-01 1.16518177e-01 3.46060961e-01
      2.59222835e-01 3.33117217e-01 3.33117217e-01 2.58210868e-01
      2.08115891e-01 3.33117217e-01 3.33117217e-01 1.71324134e-01
      3.33117217e-01 3.33117217e-01 1.15622900e-01 3.33117217e-01
      3.14808130e-01 1.79057747e-01 3.32138687e-01 3.32138687e-01
      2.68846512e-01 3.32138687e-01 3.32138687e-01 9.33743343e-02
      3.32138687e-01 3.32138687e-01 1.10930778e-01 3.32138687e-01
      3.20700616e-01 2.18939275e-01 3.20700616e-01 3.20700616e-01
      2.45667353e-01 3.20700616e-01 3.20700616e-01 9.18260366e-02
      3.20700616e-01 3.20700616e-01 2.39344075e-01 3.20700616e-01</_>
    <_>
      3.57822925e-01 3.57822925e-01 1.23198971e-01 1.72401652e-01
      3.57822925e-01 1.59689978e-01 3.57822925e-01 3.57822925e-01
      1.18970096e-01 3.57822925e-01 3.57822925e-01 1.24936968e-01
      1.27472728e-01 3.27149570e-01 2.27017894e-01 2.06024349e-01
      3.27149570e-01 1.74023435e-01 3.27149570e-01 3.27149570e-01
      3.27149570e-01 3.27149570e-01 3.27149570e-01 3.27149570e-01
      2.22558469e-01 3.55110735e-01 8.87152478e-02 2.23109588e-01
      3.55110735e-01 3.55110735e-01 1.82173714e-01 3.55110735e-01
      2.69805610e-01 1.63301885e-01 3.55110735e-01 3.55110735e-01
      3.06272686e-01 3.06272686e-01 2.10819483e-01 3.06272686e-01
      3.06272686e-01 1.67940587e-01 2.82956064e-01 3.06272686e-01
      3.06272686e-01 3.06272686e-01 3.06272686e-01 3.06272686e-01
      3.18738371e-01 3.18738371e-01 2.51547188e-01 2.05265731e-01
      3.18738371e-01 3.18738371e-01 3.18738371e-01 3.18738371e-01
      2.28122860e-01 1.63131550e-01 3.18738371e-01 3.18738371e-01
      1.56622767e-01 3.08089763e-01 3.08089763e-01 1.52308479e-01
      3.08089763e-01 3.08089763e-01 3.08089763e-01 3.08089763e-01
      3.08089763e-01 3.08089763e-01 3.08089763e-01 3.08089763e-01
      2.40113333e-01 2.24285617e-01 3.36719811e-01 3.36719811e-01
      2.29807734e-01 3.17502916e-01 3.36719811e-01 1.36253327e-01
      3.36719811e-01 3.36719811e-01 1.90292358e-01 3.36719811e-01
      2.99001426e-01 3.08389455e-01 3.08389455e-01 1.48982376e-01
      3.08389455e-01 3.08389455e-01 3.08389455e-01 3.08389455e-01
      3.08389455e-01 1.71418756e-01 3.08389455e-01 3.08389455e-01
      3.08961958e-01 2.14434654e-01 3.08961958e-01 3.08961958e-01
      3.08961958e-01 2.97929645e-01 3.08961958e-01 1.97251320e-01
      3.08961958e-01 3.08961958e-01 3.08961958e-01 2.44132012e-01</_>
    <_>
      3.47367287e-01 2.60894477e-01 1.10827878e-01 3.47367287e-01
      1.62909642e-01 3.47367287e-01 3.47367287e-01 3.47367287e-01
      1.58337042e-01 3.47367287e-01 1.41146138e-01 3.47367287e-01
      3.48450989e-01 9.83697921e-02 3.48450989e-01 3.48450989e-01
      1.17559150e-01 3.48450989e-01 3.48450989e-01 3.42537388e-02
      3.48450989e-01 3.48450989e-01 2.24456247e-02 3.48450989e-01
      2.56239355e-01 1.55189201e-01 3.59278023e-01 8.35608840e-02
      3.59278023e-01 3.59278023e-01 2.64126450e-01 1.95421368e-01
      3.59278023e-01 1.31336600e-01 3.59278023e-01 3.59278023e-01
      3.31502706e-01 3.31502706e-01 1.96811169e-01 3.31502706e-01
      1.80844828e-01 3.31502706e-01 1.63478583e-01 3.31502706e-01
      3.31502706e-01 2.99903661e-01 1.98299110e-01 3.31502706e-01
      3.52714032e-01 1.01639004e-02 3.52714032e-01 3.52714032e-01
      1.72159355e-02 3.52714032e-01 3.52714032e-01 1.05044711e-02
      3.52714032e-01 3.52714032e-01 2.66171433e-02 3.52714032e-01
      1.70447081e-01 2.96753109e-01 3.38844180e-01 1.10642739e-01
      3.38844180e-01 3.38844180e-01 3.38844180e-01 3.38844180e-01
      2.56116986e-01 3.05070162e-01 3.38844180e-01 1.40364021e-01
      1.81031540e-01 3.28435004e-01 3.28435004e-01 3.25252622e-01
      1.70028567e-01 3.28435004e-01 1.18051119e-01 3.08193862e-01
      3.28435004e-01 3.28435004e-01 2.70389199e-01 3.28435004e-01
      3.43572617e-01 4.66621406e-02 3.43572617e-01 3.43572617e-01
      1.94967426e-02 3.43572617e-01 3.43572617e-01 2.01763138e-01
      3.43572617e-01 3.43572617e-01 9.46796983e-02 3.43572617e-01
      3.36430341e-01 2.05932811e-01 2.95517206e-01 3.36430341e-01
      3.36430341e-01 1.25939146e-01 3.36430341e-01 1.44721702e-01
      3.36430341e-01 3.36430341e-01 3.36430341e-01 1.94414750e-01</_>
    <_>
      3.19380373e-01 2.23815724e-01 2.82250375e-01 3.19380373e-01
      1.55502096e-01 3.19380373e-01 3.19380373e-01 3.19380373e-01
      1.70317709e-01 3.19380373e-01 3.15965712e-01 3.19380373e-01
      3.11131358e-01 3.06530356e-01 2.74651140e-01 3.16971213e-01
      3.16971213e-01 6.62325546e-02 3.16971213e-01 3.16971213e-01
      3.16971213e-01 3.16971213e-01 3.16971213e-01 1.51505336e-01
      3.30977052e-01 2.41436616e-01 1.38377726e-01 2.41963744e-01
      3.30977052e-01 3.30977052e-01 3.30977052e-01 1.92730218e-01
      2.38203809e-01 3.30977052e-01 3.30977052e-01 3.30977052e-01
      3.19487184e-01 3.19487184e-01 7.84196928e-02 3.19487184e-01
      2.38422245e-01 3.19487184e-01 3.19487184e-01 3.19487184e-01
      1.23143427e-01 3.19487184e-01 3.19487184e-01 3.19487184e-01
      2.98535168e-01 3.13167095e-01 3.13167095e-01 3.13167095e-01
      3.13167095e-01 1.22182444e-01 2.70253450e-01 3.13167095e-01
      3.13167095e-01 3.13167095e-01 3.13167095e-01 1.87597841e-01
      3.22696924e-01 2.48278633e-01 1.85014039e-01 3.22696924e-01
      3.22696924e-01 3.22696924e-01 3.22696924e-01 3.22696924e-01
      1.96939811e-01 3.22696924e-01 3.22696924e-01 1.70444757e-01
      3.06746900e-01 3.06746900e-01 1.07244417e-01 3.06746900e-01
      3.06746900e-01 2.76934117e-01 3.06746900e-01 3.06746900e-01
      3.06746900e-01 3.06746900e-01 3.06746900e-01 2.48793080e-01
      2.41903201e-01 2.95144171e-01 2.76031315e-01 2.95144171e-01
      2.95144171e-01 2.95144171e-01 2.95144171e-01 2.95144171e-01
      2.79909611e-01 2.95144171e-01 2.95144171e-01 2.95144171e-01
      3.53252262e-01 2.33668655e-01 2.24050537e-01 3.53252262e-01
      3.53252262e-01 1.12346053e-01 3.53252262e-01 2.13354066e-01
      2.71508247e-01 3.53252262e-01 3.53252262e-01 1.05307348e-01</_>
    <_>
      3.19683075e-01 2.59656996e-01 2.25026414e-01 3.19683075e-01
      2.20075443e-01 3.19683075e-01 3.19683075e-01 3.19683075e-01
      1.12852201e-01 3.19683075e-01 3.19683075e-01 3.19683075e-01
      2.76724190e-01 3.14807445e-01 3.14807445e-01 3.14807445e-01
      3.14807445e-01 8.81436393e-02 3.14807445e-01 3.14807445e-01
      3.14807445e-01 3.14807445e-01 3.14807445e-01 1.43440977e-01
      3.20680559e-01 2.19369546e-01 1.68926060e-01 3.20680559e-01
      3.20680559e-01 3.20680559e-01 3.20680559e-01 2.20661059e-01
      2.20810503e-01 3.20680559e-01 3.20680559e-01 3.20680559e-01
      3.20339739e-01 3.20339739e-01 9.81568396e-02 3.20339739e-01
      2.24144816e-01 3.20339739e-01 3.20339739e-01 3.20339739e-01
      1.15610041e-01 3.20339739e-01 3.20339739e-01 3.20339739e-01
      2.99742311e-01 3.09631616e-01 2.98419684e-01 3.09631616e-01
      3.09631616e-01 1.09605528e-01 2.37528056e-01 3.09631616e-01
      3.09631616e-01 3.09631616e-01 3.09631616e-01 2.80126870e-01
      3.34441006e-01 2.87931174e-01 1.55737668e-01 3.34441006e-01
      3.34441006e-01 2.21035197e-01 3.34441006e-01 3.23300719e-01
      2.13642284e-01 3.34441006e-01 3.34441006e-01 1.39183447e-01
      3.10311168e-01 3.10311168e-01 1.62975460e-01 3.10311168e-01
      3.10311168e-01 2.10961953e-01 3.10311168e-01 3.10311168e-01
      3.10311168e-01 3.10311168e-01 3.10311168e-01 2.43302435e-01
      2.93374300e-01 2.93374300e-01 2.39491403e-01 2.93374300e-01
      2.93374300e-01 2.93374300e-01 2.93374300e-01 2.93374300e-01
      2.81118274e-01 2.93374300e-01 2.93374300e-01 2.93374300e-01
      3.50847751e-01 1.79875687e-01 2.45062649e-01 3.50847751e-01
      3.50847751e-01 1.03147142e-01 3.50847751e-01 1.97894990e-01
      3.23908687e-01 3.50847751e-01 3.50847751e-01 1.03923798e-01</_>
    <_>
      3.19931060e-01 2.91268557e-01 1.59851536e-01 3.19931060e-01
      2.73986191e-01 3.19931060e-01 3.19931060e-01 3.19931060e-01
      9.71949175e-02 3.19931060e-01 2.92244732e-01 3.19931060e-01
      2.58724511e-01 3.15962344e-01 3.15962344e-01 3.15962344e-01
      3.15962344e-01 1.21349894e-01 3.15962344e-01 3.15962344e-01
      3.15962344e-01 3.15962344e-01 3.15962344e-01 1.29185185e-01
      3.18716824e-01 1.80109367e-01 2.02608541e-01 3.18716824e-01
      3.18716824e-01 3.18716824e-01 3.18716824e-01 2.76893735e-01
      1.84424534e-01 3.18716824e-01 3.18716824e-01 3.18716824e-01
      3.16236824e-01 3.16236824e-01 1.11943774e-01 3.16236824e-01
      2.77113676e-01 3.16236824e-01 3.16236824e-01 3.16236824e-01
      1.34793267e-01 3.16236824e-01 3.16236824e-01 2.98834056e-01
      2.59795219e-01 3.05441946e-01 3.04084569e-01 3.05441946e-01
      3.05441946e-01 1.40521497e-01 2.77629346e-01 3.05441946e-01
      2.95125753e-01 3.05441946e-01 3.05441946e-01 3.05441946e-01
      3.53367954e-01 2.87459791e-01 1.41004309e-01 3.53367954e-01
      3.53367954e-01 1.32488772e-01 3.53367954e-01 2.33281642e-01
      2.43536934e-01 3.53367954e-01 3.53367954e-01 1.16003208e-01
      3.04803580e-01 3.04803580e-01 2.66999990e-01 3.04803580e-01
      3.04803580e-01 2.02476531e-01 3.04803580e-01 3.04803580e-01
      3.04803580e-01 3.04803580e-01 3.04803580e-01 2.20275626e-01
      2.96310246e-01 2.96310246e-01 2.32509404e-01 2.96310246e-01
      2.96310246e-01 2.96310246e-01 2.96310246e-01 2.96310246e-01
      2.54913539e-01 2.96310246e-01 2.96310246e-01 2.96310246e-01
      3.46091330e-01 1.66251823e-01 2.58230925e-01 3.46091330e-01
      3.46091330e-01 9.81957912e-02 3.46091330e-01 1.91957414e-01
      3.46091330e-01 3.46091330e-01 3.46091330e-01 1.31433576e-01</_>
    <_>
      3.58107954e-01 3.58107954e-01 1.04707211e-01 3.58107954e-01
      3.20727289e-01 8.50697085e-02 3.58107954e-01 3.58107954e-01
      7.37334415e-02 3.58107954e-01 2.87865400e-01 1.32682294e-01
      4.09641027e-01 1.90981790e-01 1.22626796e-01 4.09641027e-01
      1.48678005e-01 2.25333899e-01 4.09641027e-01 1.82990938e-01
      2.00664043e-01 4.09641027e-01 1.82965666e-01 3.05065155e-01
      3.17883432e-01 8.21954682e-02 3.10755640e-01 2.84273863e-01
      3.17883432e-01 3.17883432e-01 3.17883432e-01 1.27491251e-01
      2.98469156e-01 3.17883432e-01 3.17883432e-01 3.17883432e-01
      3.62354189e-01 3.62354189e-01 9.93131548e-02 3.62354189e-01
      1.70119777e-01 1.56541392e-01 3.62354189e-01 3.62354189e-01
      1.65913254e-01 3.62354189e-01 2.53466129e-01 2.31289953e-01
      3.64528626e-01 1.59060538e-01 1.89465523e-01 3.64528626e-01
      1.86481550e-01 2.16622189e-01 3.64528626e-01 2.94194818e-01
      2.85142779e-01 3.64528626e-01 2.70213753e-01 2.84716070e-01
      3.72894317e-01 1.70002267e-01 1.61628455e-01 3.72894317e-01
      3.72894317e-01 2.31258571e-01 3.72894317e-01 1.70994654e-01
      1.26928672e-01 3.72894317e-01 3.72894317e-01 9.01021957e-02
      3.14762741e-01 3.14762741e-01 2.34225452e-01 3.14762741e-01
      2.25535423e-01 3.14762741e-01 3.14762741e-01 2.88098812e-01
      3.14762741e-01 3.14762741e-01 1.24584891e-01 3.14762741e-01
      3.62811655e-01 2.36026153e-01 3.36910337e-01 3.62811655e-01
      2.21043542e-01 2.61961788e-01 3.62811655e-01 1.26689807e-01
      3.01016867e-01 3.62811655e-01 2.11101949e-01 1.78659588e-01
      3.78876209e-01 1.56498194e-01 1.07179850e-01 3.78876209e-01
      3.78876209e-01 5.35817184e-02 3.78876209e-01 2.96905845e-01
      6.83268383e-02 3.78876209e-01 3.78876209e-01 5.70949279e-02</_>
    <_>
      3.43888193e-01 2.32586339e-01 9.17466730e-02 3.43888193e-01
      3.43888193e-01 1.57104507e-01 3.43888193e-01 3.43888193e-01
      1.18613265e-01 3.43888193e-01 3.43888193e-01 2.59780020e-01
      2.83650547e-01 3.16533297e-01 1.56807899e-01 3.16533297e-01
      3.16533297e-01 2.18472406e-01 2.37874582e-01 3.16533297e-01
      3.16533297e-01 3.16533297e-01 2.93467104e-01 3.16533297e-01
      3.47392976e-01 2.96122938e-01 1.58960149e-01 3.47392976e-01
      3.47392976e-01 7.26362243e-02 3.47392976e-01 1.68865636e-01
      3.33673179e-01 3.47392976e-01 3.47392976e-01 1.19797535e-01
      3.23092341e-01 3.23092341e-01 1.37624413e-01 2.95248896e-01
      3.23092341e-01 1.26423955e-01 3.23092341e-01 3.23092341e-01
      3.23092341e-01 2.56138980e-01 3.23092341e-01 2.79908091e-01
      3.17166328e-01 3.17301154e-01 2.44865865e-01 3.17301154e-01
      1.14616051e-01 3.17301154e-01 2.96159685e-01 3.17301154e-01
      3.17301154e-01 3.17301154e-01 1.75123453e-01 3.17301154e-01
      3.40944648e-01 7.44313821e-02 3.40944648e-01 3.40944648e-01
      2.37555951e-01 2.35614240e-01 3.40944648e-01 9.62204859e-02
      3.40944648e-01 3.40944648e-01 2.36949995e-01 3.40944648e-01
      2.71149457e-01 3.10410827e-01 3.10410827e-01 3.10410827e-01
      3.10410827e-01 3.05677384e-01 8.81462768e-02 3.10410827e-01
      3.10410827e-01 2.48581141e-01 3.10410827e-01 2.93071777e-01
      2.93713361e-01 3.12597811e-01 3.12597811e-01 3.12597811e-01
      7.45052025e-02 3.12597811e-01 3.11978430e-01 3.12597811e-01
      3.12597811e-01 3.12597811e-01 1.61209226e-01 3.12597811e-01
      3.10361832e-01 5.31442948e-02 3.45986903e-01 2.12486193e-01
      3.45986903e-01 3.45986903e-01 2.11811587e-01 2.85961002e-01
      3.45986903e-01 8.58162269e-02 3.45986903e-01 3.45986903e-01</_>
    <_>
      3.41796488e-01 2.39640504e-01 1.02961324e-01 3.41796488e-01
      3.41796488e-01 2.32295737e-01 3.41796488e-01 3.41796488e-01
      1.43870309e-01 3.41796488e-01 3.41796488e-01 1.90059364e-01
      2.10858658e-01 3.10400486e-01 2.60417104e-01 3.10400486e-01
      3.10400486e-01 3.10400486e-01 3.10400486e-01 3.10400486e-01
      3.09263438e-01 3.10400486e-01 1.34864569e-01 3.10400486e-01
      3.51311028e-01 2.34323651e-01 2.38311395e-01 3.51311028e-01
      3.51311028e-01 7.45669976e-02 3.51311028e-01 9.02573690e-02
      3.43516171e-01 3.51311028e-01 3.39623243e-01 1.43662483e-01
      3.06441456e-01 3.06441456e-01 2.42604792e-01 2.48177946e-01
      3.06441456e-01 1.77006572e-01 3.06441456e-01 3.06441456e-01
      3.06441456e-01 3.06441456e-01 3.06441456e-01 3.06441456e-01
      3.05404246e-01 3.10290128e-01 3.10290128e-01 3.10290128e-01
      1.51742607e-01 3.10290128e-01 3.10290128e-01 3.10290128e-01
      3.10290128e-01 3.10290128e-01 1.18668899e-01 3.10290128e-01
      3.25474739e-01 9.43628401e-02 3.25474739e-01 3.25474739e-01
      2.26047441e-01 2.88090408e-01 3.25474739e-01 7.92428628e-02
      3.25474739e-01 3.25474739e-01 3.25474739e-01 3.25474739e-01
      1.63823366e-01 3.29163313e-01 3.29163313e-01 3.29163313e-01
      3.29163313e-01 2.73853093e-01 4.75027077e-02 3.29163313e-01
      3.29163313e-01 1.60726428e-01 3.29163313e-01 3.29163313e-01
      3.03802967e-01 3.03802967e-01 3.03802967e-01 3.03802967e-01
      6.26065433e-02 3.03802967e-01 2.93340981e-01 3.03802967e-01
      3.03802967e-01 3.03802967e-01 2.76278198e-01 3.03802967e-01
      2.34819293e-01 1.22522451e-01 3.69997621e-01 1.22682750e-01
      3.69997621e-01 3.69997621e-01 1.83014959e-01 3.69997621e-01
      3.69997621e-01 1.13484800e-01 3.69997621e-01 2.08177611e-01</_>
    <_>
      3.33848506e-01 3.16173822e-01 8.66327360e-02 3.12750101e-01
      3.33848506e-01 2.05810905e-01 3.33848506e-01 3.33848506e-01
      2.31161460e-01 3.29744697e-01 3.33848506e-01 1.71991587e-01
      2.29108796e-01 3.11825722e-01 3.11825722e-01 3.11825722e-01
      2.53970504e-01 3.11825722e-01 3.11825722e-01 3.11825722e-01
      2.85583824e-01 3.11825722e-01 1.43010452e-01 3.11825722e-01
      3.49963546e-01 1.41167477e-01 2.77210295e-01 3.49963546e-01
      3.49963546e-01 1.07514679e-01 3.49963546e-01 1.26091421e-01
      3.49963546e-01 3.49963546e-01 2.38372341e-01 2.83906490e-01
      3.00484151e-01 3.00484151e-01 3.00484151e-01 2.29365423e-01
      3.00484151e-01 2.73705661e-01 2.38448292e-01 3.00484151e-01
      3.00484151e-01 3.00484151e-01 3.00484151e-01 3.00484151e-01
      2.42612138e-01 3.17296982e-01 3.17296982e-01 3.17296982e-01
      1.60983309e-01 3.17296982e-01 3.17296982e-01 3.17296982e-01
      3.17296982e-01 3.17296982e-01 7.71812350e-02 3.17296982e-01
      3.28385144e-01 1.30862594e-01 3.28385144e-01 3.28385144e-01
      2.71837264e-01 3.28385144e-01 3.19196969e-01 1.05773106e-01
      3.28385144e-01 1.94335222e-01 3.28385144e-01 3.28385144e-01
      6.77746311e-02 3.37873310e-01 3.37873310e-01 2.11803153e-01
      3.37873310e-01 2.88818002e-01 3.74971814e-02 3.37873310e-01
      3.37873310e-01 2.51475126e-01 3.37873310e-01 3.37873310e-01
      3.00844222e-01 3.00844222e-01 3.00844222e-01 3.00844222e-01
      1.41154692e-01 3.00844222e-01 3.00844222e-01 3.00844222e-01
      2.68321991e-01 3.00844222e-01 3.00844222e-01 3.00844222e-01
      1.72871411e-01 2.69975543e-01 3.76395851e-01 8.82397294e-02
      3.76395851e-01 2.99226791e-01 3.02347690e-01 3.76395851e-01
      2.58181483e-01 2.44476914e-01 3.76395851e-01 1.07746527e-01</_>
    <_>
      1.76793262e-01 3.94885391e-01 1.63509279e-01 2.19468519e-01
      3.94885391e-01 1.52285799e-01 2.78079867e-01 3.94885391e-01
      1.70840606e-01 3.08039933e-01 3.94885391e-01 2.03875765e-01
      1.96285993e-01 3.31309587e-01 2.13536710e-01 3.31309587e-01
      3.31309587e-01 2.19422579e-01 3.31309587e-01 3.31309587e-01
      2.57766724e-01 3.31309587e-01 3.31309587e-01 1.72078863e-01
      3.14043522e-01 3.14043522e-01 1.46330401e-01 3.06612313e-01
      3.14043522e-01 2.64131397e-01 3.14043522e-01 3.14043522e-01
      1.50619924e-01 3.14043522e-01 3.14043522e-01 3.14043522e-01
      3.09518099e-01 3.09518099e-01 2.00314730e-01 3.09518099e-01
      3.09518099e-01 2.66138077e-01 3.09518099e-01 3.09518099e-01
      2.75763690e-01 3.09518099e-01 3.09518099e-01 2.08553582e-01
      3.15729827e-01 3.15729827e-01 2.62165666e-01 3.15729827e-01
      2.34511793e-01 1.55105591e-01 3.15729827e-01 3.15729827e-01
      2.45215133e-01 3.15729827e-01 3.15729827e-01 3.01882416e-01
      2.90197194e-01 2.65973300e-01 2.90197194e-01 2.90197194e-01
      2.90197194e-01 2.90197194e-01 2.90197194e-01 2.90197194e-01
      2.90197194e-01 2.90197194e-01 2.90197194e-01 2.90197194e-01
      2.78654724e-01 3.85904282e-01 2.55117893e-01 3.06169450e-01
      3.85904282e-01 1.05254665e-01 2.26507857e-01 3.85904282e-01
      1.77736342e-01 2.60446787e-01 3.85904282e-01 4.66450900e-02
      2.48554990e-01 4.05646771e-01 7.43294954e-02 3.03432912e-01
      4.05646771e-01 1.91366509e-01 1.99389040e-01 4.05646771e-01
      4.55291830e-02 1.71674401e-01 4.05646771e-01 2.65428752e-01
      2.39191741e-01 3.90156597e-01 2.59404033e-01 2.53010720e-01
      3.90156597e-01 1.36295468e-01 2.03249604e-01 3.90156597e-01
      2.52411693e-01 2.56230652e-01 3.90156597e-01 9.71761569e-02</_>
    <_>
      1.71662509e-01 3.65536422e-01 1.09633125e-01 2.08432987e-01
      3.65536422e-01 9.03755352e-02 3.65536422e-01 3.65536422e-01
      1.92423195e-01 3.65536422e-01 3.65536422e-01 2.54008740e-01
      2.97883123e-01 3.36457908e-01 1.60981357e-01 3.36457908e-01
      3.36457908e-01 1.69397995e-01 3.36457908e-01 3.36457908e-01
      2.48027861e-01 3.36457908e-01 3.04484725e-01 1.40857592e-01
      3.10203999e-01 3.10203999e-01 9.85249132e-02 3.10203999e-01
      3.10203999e-01 2.00682253e-01 3.10203999e-01 3.10203999e-01
      2.84396172e-01 3.10203999e-01 3.10203999e-01 3.10203999e-01
      3.08995962e-01 3.08995962e-01 2.23616391e-01 3.08995962e-01
      3.08995962e-01 2.46287465e-01 3.08995962e-01 3.08995962e-01
      3.08995962e-01 3.08995962e-01 3.08995962e-01 1.64146036e-01
      3.27214688e-01 3.27214688e-01 2.36974746e-01 3.27214688e-01
      2.72203296e-01 2.07646117e-01 3.23737472e-01 3.27214688e-01
      1.41500190e-01 3.27214688e-01 3.27214688e-01 2.36890078e-01
      3.02233487e-01 2.26132065e-01 3.02233487e-01 2.91786134e-01
      3.02233487e-01 3.02233487e-01 3.02233487e-01 3.02233487e-01
      3.02233487e-01 3.02233487e-01 3.02233487e-01 1.96467400e-01
      2.48160601e-01 4.11668390e-01 2.46054262e-01 2.50600338e-01
      4.11668390e-01 7.78149441e-02 2.07326666e-01 4.11668390e-01
      1.65899068e-01 2.31509030e-01 4.11668390e-01 5.40256612e-02
      2.01981142e-01 4.03863728e-01 4.36465554e-02 1.92413062e-01
      4.03863728e-01 1.79487437e-01 1.47348762e-01 4.03863728e-01
      8.92429054e-02 1.97027907e-01 4.03863728e-01 4.03863728e-01
      1.80116385e-01 3.67167473e-01 1.96135417e-01 2.02276811e-01
      3.67167473e-01 9.96884555e-02 3.34146142e-01 3.67167473e-01
      3.12690705e-01 3.17931890e-01 3.67167473e-01 1.57510012e-01</_>
    <_>
      2.18915671e-01 3.39199036e-01 1.37627289e-01 2.68234015e-01
      3.39199036e-01 1.62826017e-01 3.39199036e-01 3.39199036e-01
      2.35659078e-01 3.39199036e-01 3.39199036e-01 2.92254210e-01
      3.25757772e-01 3.25757772e-01 1.81380376e-01 3.25757772e-01
      3.25757772e-01 1.18974604e-01 3.25757772e-01 3.25757772e-01
      2.87884027e-01 3.25757772e-01 2.83745229e-01 2.08508685e-01
      2.98290998e-01 2.98290998e-01 1.42210588e-01 2.98290998e-01
      2.98290998e-01 2.98290998e-01 2.98290998e-01 2.94991940e-01
      2.98290998e-01 2.98290998e-01 2.98290998e-01 2.98290998e-01
      3.19387227e-01 3.05517226e-01 2.44084433e-01 3.19387227e-01
      3.19387227e-01 1.84202850e-01 3.04601610e-01 3.19387227e-01
      3.02956104e-01 3.19387227e-01 3.19387227e-01 1.15526490e-01
      3.19460869e-01 3.50085884e-01 1.85725555e-01 3.50085884e-01
      3.50085884e-01 2.30979413e-01 2.64054924e-01 3.50085884e-01
      7.01785609e-02 2.73678750e-01 3.50085884e-01 2.10358843e-01
      3.04445446e-01 3.37396085e-01 3.37396085e-01 2.84064204e-01
      3.37396085e-01 2.93760151e-01 1.94080591e-01 3.37396085e-01
      2.48946905e-01 2.28006959e-01 3.37396085e-01 1.27061546e-01
      2.17274934e-01 4.30282205e-01 1.68134943e-01 2.39175946e-01
      4.30282205e-01 4.84305471e-02 2.14954689e-01 4.30282205e-01
      1.14982992e-01 2.22768486e-01 4.30282205e-01 1.05118893e-01
      1.85626268e-01 3.80322069e-01 5.28238639e-02 2.08989501e-01
      3.80322069e-01 2.58308411e-01 1.59621730e-01 3.80322069e-01
      1.78798288e-01 2.60539412e-01 3.80322069e-01 3.80322069e-01
      2.07663834e-01 3.41150016e-01 2.06898928e-01 2.16031671e-01
      3.41150016e-01 8.93514678e-02 3.41150016e-01 3.41150016e-01
      3.41150016e-01 2.86690235e-01 3.41150016e-01 2.74800479e-01</_>
    <_>
      3.03099245e-01 3.18539709e-01 8.27221423e-02 3.18539709e-01
      3.18539709e-01 2.59669214e-01 3.10002714e-01 3.18539709e-01
      1.55892909e-01 3.18539709e-01 3.18539709e-01 3.18539709e-01
      2.96443045e-01 2.96443045e-01 2.96443045e-01 2.96443045e-01
      2.96443045e-01 2.96443045e-01 2.96443045e-01 1.74283072e-01
      2.96443045e-01 2.96443045e-01 2.96443045e-01 2.96443045e-01
      3.00945997e-01 2.45286569e-01 3.00945997e-01 3.00945997e-01
      2.91621268e-01 3.00624847e-01 2.72523791e-01 3.00945997e-01
      2.30565324e-01 3.00945997e-01 3.00945997e-01 3.00945997e-01
      1.50003746e-01 3.18994850e-01 2.03083396e-01 3.18994850e-01
      3.18994850e-01 3.18994850e-01 3.07086140e-01 3.18994850e-01
      1.57177493e-01 3.18994850e-01 3.18994850e-01 3.18994850e-01
      3.01354527e-01 1.85160249e-01 3.01354527e-01 3.01354527e-01
      3.01354527e-01 2.91021168e-01 3.01354527e-01 3.01354527e-01
      3.01354527e-01 3.01354527e-01 3.01354527e-01 2.46333122e-01
      2.08304852e-01 3.24576646e-01 1.18830048e-01 3.21180731e-01
      3.24576646e-01 3.24576646e-01 2.58750796e-01 3.24576646e-01
      1.78006649e-01 3.24576646e-01 3.24576646e-01 3.24576646e-01
      3.09067070e-01 3.09067070e-01 1.55653566e-01 3.09067070e-01
      2.95402169e-01 3.09067070e-01 2.17696637e-01 3.09067070e-01
      2.71753043e-01 3.09067070e-01 3.09067070e-01 3.09067070e-01
      2.99790949e-01 2.40532726e-01 2.99790949e-01 2.61535794e-01
      2.99790949e-01 2.48748615e-01 2.99790949e-01 2.99790949e-01
      2.99790949e-01 2.99790949e-01 2.99790949e-01 2.99790949e-01
      2.37169191e-01 3.43497992e-01 1.13471575e-01 3.43497992e-01
      3.43497992e-01 2.06188485e-01 2.91520387e-01 3.43497992e-01
      2.21133426e-01 3.43497992e-01 3.43497992e-01 2.07604930e-01</_>
    <_>
      3.23917121e-01 3.23917121e-01 7.76540413e-02 3.23917121e-01
      3.23917121e-01 2.38992691e-01 2.18773499e-01 3.23917121e-01
      2.15349957e-01 3.23917121e-01 3.23917121e-01 3.23917121e-01
      2.97799677e-01 2.97799677e-01 2.97799677e-01 2.97799677e-01
      2.97799677e-01 2.97799677e-01 2.97799677e-01 1.46605194e-01
      2.97799677e-01 2.97799677e-01 2.97799677e-01 2.97799677e-01
      3.03910404e-01 3.03910404e-01 3.03910404e-01 3.03910404e-01
      3.03910404e-01 3.03910404e-01 2.29444802e-01 3.03910404e-01
      1.43885091e-01 3.03910404e-01 3.03910404e-01 3.03910404e-01
      1.73152387e-01 3.18700105e-01 1.73480272e-01 3.18700105e-01
      3.18700105e-01 3.18700105e-01 3.18700105e-01 3.18700105e-01
      1.50368467e-01 3.18700105e-01 3.18700105e-01 3.18700105e-01
      3.01927716e-01 2.32763931e-01 3.01927716e-01 2.90274471e-01
      3.01927716e-01 2.54840851e-01 3.01927716e-01 3.01927716e-01
      3.01927716e-01 2.97481358e-01 3.01927716e-01 2.58811325e-01
      2.03025088e-01 3.28017563e-01 1.26223162e-01 2.60528952e-01
      3.28017563e-01 3.28017563e-01 2.99383551e-01 3.28017563e-01
      1.69989899e-01 3.28017563e-01 3.28017563e-01 3.28017563e-01
      3.12842369e-01 3.12842369e-01 2.02715516e-01 3.12842369e-01
      2.75585413e-01 3.12842369e-01 1.61853835e-01 3.12842369e-01
      2.74014652e-01 3.05712253e-01 3.12842369e-01 3.12842369e-01
      2.99392015e-01 1.93675265e-01 2.99392015e-01 2.54893929e-01
      2.99392015e-01 2.96322465e-01 2.99392015e-01 2.99392015e-01
      2.99392015e-01 2.99392015e-01 2.99392015e-01 2.99392015e-01
      2.53594548e-01 3.20929796e-01 1.28284469e-01 3.20929796e-01
      3.20929796e-01 1.66147649e-01 3.13190669e-01 3.20929796e-01
      3.20929796e-01 3.20929796e-01 3.20929796e-01 2.63365388e-01</_>
    <_>
      2.89909422e-01 3.17482680e-01 1.26624286e-01 3.17482680e-01
      3.17482680e-01 3.17482680e-01 1.85693935e-01 3.17482680e-01
      2.36436829e-01 3.17482680e-01 3.17482680e-01 3.17482680e-01
      3.01887572e-01 1.94960654e-01 3.01887572e-01 3.01887572e-01
      3.01887572e-01 3.01887572e-01 3.01887572e-01 2.18203381e-01
      3.01887572e-01 3.01887572e-01 3.01887572e-01 3.01887572e-01
      2.74028122e-01 3.14901561e-01 2.28853151e-01 3.14901561e-01
      3.14901561e-01 3.14901561e-01 2.38406435e-01 3.14901561e-01
      1.38732508e-01 3.14901561e-01 3.14901561e-01 3.14901561e-01
      2.69320607e-01 3.09877157e-01 1.45812333e-01 3.09877157e-01
      3.09877157e-01 3.09877157e-01 3.09877157e-01 3.09877157e-01
      1.97215915e-01 3.09877157e-01 3.09877157e-01 3.09877157e-01
      3.02721351e-01 2.79431164e-01 3.02721351e-01 2.58395553e-01
      3.02721351e-01 2.21086174e-01 3.02721351e-01 2.68267125e-01
      3.02721351e-01 3.02721351e-01 3.02721351e-01 2.99661756e-01
      1.89676642e-01 3.32153082e-01 1.29902884e-01 2.82232821e-01
      3.32153082e-01 3.32153082e-01 3.27892482e-01 3.32153082e-01
      1.50052875e-01 3.32153082e-01 3.32153082e-01 2.68683076e-01
      2.10072413e-01 3.15403014e-01 2.38444388e-01 3.15403014e-01
      3.15403014e-01 3.15403014e-01 2.07320899e-01 3.15403014e-01
      2.38847211e-01 3.15403014e-01 3.15403014e-01 3.15403014e-01
      2.52006322e-01 2.27834284e-01 3.00633281e-01 2.61069179e-01
      3.00633281e-01 3.00633281e-01 3.00633281e-01 3.00633281e-01
      3.00633281e-01 3.00633281e-01 3.00633281e-01 3.00633281e-01
      2.52590030e-01 3.12378138e-01 1.70938641e-01 3.12378138e-01
      3.12378138e-01 1.60113007e-01 3.12378138e-01 3.12378138e-01
      3.12378138e-01 3.12378138e-01 3.12378138e-01 3.12378138e-01</_>
    <_>
      2.07966268e-01 3.23200792e-01 1.93805635e-01 3.23200792e-01
      3.23200792e-01 3.23200792e-01 2.10535929e-01 3.23200792e-01
      1.89643860e-01 3.23200792e-01 3.23200792e-01 3.23200792e-01
      2.99612224e-01 1.45971715e-01 2.99612224e-01 2.99612224e-01
      2.99612224e-01 2.99612224e-01 2.99612224e-01 2.99612224e-01
      2.99612224e-01 2.99612224e-01 2.99612224e-01 2.79327005e-01
      2.09469557e-01 3.25244755e-01 1.30358920e-01 3.25244755e-01
      3.25244755e-01 3.25244755e-01 2.54211545e-01 3.25244755e-01
      1.58058673e-01 3.25244755e-01 3.25244755e-01 3.25244755e-01
      3.03006262e-01 3.03006262e-01 1.27333954e-01 3.03006262e-01
      3.03006262e-01 3.03006262e-01 3.03006262e-01 3.03006262e-01
      2.50260472e-01 3.03006262e-01 3.03006262e-01 3.03006262e-01
      3.03389281e-01 2.90553123e-01 3.03389281e-01 2.50814706e-01
      3.03389281e-01 2.01425508e-01 3.03389281e-01 2.69641608e-01
      3.03389281e-01 3.03389281e-01 3.03389281e-01 3.03389281e-01
      2.01168224e-01 3.41845483e-01 1.15049027e-01 3.29092622e-01
      3.41845483e-01 2.68879920e-01 3.30174923e-01 3.41845483e-01
      1.65261641e-01 3.41845483e-01 3.41845483e-01 2.04114124e-01
      1.53013676e-01 3.17104191e-01 2.54148930e-01 2.85851598e-01
      3.17104191e-01 3.07756007e-01 2.76099294e-01 3.17104191e-01
      2.29870319e-01 3.17104191e-01 3.17104191e-01 3.17104191e-01
      2.30105489e-01 2.96801537e-01 2.96801537e-01 2.96801537e-01
      2.89715141e-01 2.96801537e-01 2.96801537e-01 2.96801537e-01
      2.96801537e-01 2.96801537e-01 2.59480864e-01 2.96801537e-01
      2.71595031e-01 3.04805905e-01 2.93817997e-01 3.04805905e-01
      3.04805905e-01 2.14803934e-01 3.04805905e-01 2.70153552e-01
      3.04805905e-01 2.59598404e-01 3.04805905e-01 3.04805905e-01</_>
    <_>
      1.61335006e-01 3.17232549e-01 1.99886471e-01 3.17232549e-01
      3.17232549e-01 3.17232549e-01 3.17232549e-01 3.17232549e-01
      1.58487096e-01 3.17232549e-01 3.17232549e-01 3.17232549e-01
      3.00836533e-01 1.85285538e-01 3.00836533e-01 3.00836533e-01
      3.00836533e-01 2.89328575e-01 3.00836533e-01 3.00836533e-01
      3.00836533e-01 3.00836533e-01 3.00836533e-01 2.53827989e-01
      2.01196313e-01 3.27253133e-01 1.15721561e-01 3.06893110e-01
      3.27253133e-01 3.27253133e-01 2.63510376e-01 3.27253133e-01
      1.71974391e-01 3.27253133e-01 3.27253133e-01 3.27253133e-01
      3.03307384e-01 3.03307384e-01 1.65847331e-01 3.03307384e-01
      3.00462425e-01 3.03307384e-01 2.40153670e-01 3.03307384e-01
      2.92488873e-01 3.03307384e-01 3.03307384e-01 3.03307384e-01
      3.00851822e-01 2.36661807e-01 3.00851822e-01 2.57438421e-01
      3.00851822e-01 2.45160997e-01 3.00851822e-01 3.00851822e-01
      3.00851822e-01 3.00851822e-01 3.00851822e-01 3.00851822e-01
      2.29761302e-01 3.35484177e-01 1.04052112e-01 3.35484177e-01
      3.35484177e-01 1.98675036e-01 3.19545358e-01 3.35484177e-01
      2.53441721e-01 3.35484177e-01 3.35484177e-01 2.27858394e-01
      1.90319821e-01 3.07315856e-01 2.34336972e-01 3.07315856e-01
      3.07315856e-01 3.04836601e-01 3.07315856e-01 3.07315856e-01
      2.39424810e-01 3.07315856e-01 3.07315856e-01 3.07315856e-01
      2.76027411e-01 3.01451534e-01 3.01451534e-01 3.01451534e-01
      2.42595941e-01 3.01451534e-01 3.01451534e-01 3.01451534e-01
      3.01451534e-01 3.01451534e-01 2.09968165e-01 3.01451534e-01
      3.00899953e-01 2.79009551e-01 3.00945014e-01 3.00945014e-01
      3.00945014e-01 3.00945014e-01 2.59795725e-01 2.79835045e-01
      3.00945014e-01 2.20972538e-01 3.00945014e-01 3.00945014e-01</_>
    <_>
      3.18640471e-01 3.18640471e-01 2.19284356e-01 3.18640471e-01
      1.14850566e-01 3.18640471e-01 3.18640471e-01 3.18640471e-01
      1.47492707e-01 3.18640471e-01 3.18640471e-01 3.18640471e-01
      3.14859509e-01 6.03024922e-02 3.14859509e-01 3.14859509e-01
      4.30394337e-02 3.14859509e-01 3.14859509e-01 3.14859509e-01
      3.14859509e-01 3.14859509e-01 3.14859509e-01 3.14859509e-01
      3.05828422e-01 7.40448311e-02 3.05828422e-01 3.05828422e-01
      3.05828422e-01 3.05828422e-01 3.05828422e-01 3.05828422e-01
      3.05828422e-01 3.05828422e-01 3.05828422e-01 2.36962348e-01
      2.22070619e-01 4.09676075e-01 8.06850865e-02 2.88912117e-01
      4.09676075e-01 2.53383577e-01 2.08404869e-01 4.09676075e-01
      5.63372932e-02 2.61177391e-01 4.09676075e-01 7.90604949e-02
      3.00911158e-01 3.00911158e-01 2.75912583e-01 3.00911158e-01
      3.00911158e-01 2.75028795e-01 2.94768274e-01 3.00911158e-01
      1.84272215e-01 3.00911158e-01 3.00911158e-01 3.00911158e-01
      3.76621693e-01 3.76621693e-01 1.18919909e-01 2.40627632e-01
      3.76621693e-01 5.91346920e-02 3.76621693e-01 3.76621693e-01
      1.79709226e-01 1.83019310e-01 3.76621693e-01 6.19833022e-02
      1.99109897e-01 3.75160754e-01 6.25776947e-02 2.49593332e-01
      3.75160754e-01 7.59631246e-02 2.65726864e-01 3.75160754e-01
      2.27255553e-01 3.75160754e-01 3.75160754e-01 2.42157608e-01
      2.72418052e-01 3.00395012e-01 2.21282586e-01 3.00395012e-01
      3.00395012e-01 3.00395012e-01 3.00395012e-01 3.00395012e-01
      2.48367339e-01 3.00395012e-01 3.00395012e-01 3.00395012e-01
      2.74564266e-01 4.07948017e-01 2.88938880e-01 2.16496259e-01
      4.07948017e-01 6.43882304e-02 2.20940724e-01 4.07948017e-01
      1.36475027e-01 2.19513789e-01 4.07948017e-01 6.87311888e-02</_>
    <_>
      3.26201707e-01 3.26201707e-01 9.45308581e-02 3.26201707e-01
      1.57416955e-01 3.26201707e-01 3.26201707e-01 3.26201707e-01
      7.31881484e-02 3.26201707e-01 3.26201707e-01 3.26201707e-01
      3.15851152e-01 4.48305644e-02 3.15851152e-01 3.15851152e-01
      3.01838480e-02 3.15851152e-01 3.15851152e-01 3.15851152e-01
      3.15851152e-01 3.15851152e-01 3.09944779e-01 3.15851152e-01
      3.15325260e-01 3.42680588e-02 3.15325260e-01 3.15325260e-01
      2.15662733e-01 3.15325260e-01 3.15325260e-01 2.83443630e-01
      3.15325260e-01 2.70894945e-01 3.15325260e-01 3.15325260e-01
      1.70301199e-01 3.92424107e-01 7.98496827e-02 1.74902618e-01
      3.92424107e-01 3.44633967e-01 1.55790672e-01 3.92424107e-01
      7.97650367e-02 1.35420024e-01 3.92424107e-01 3.82595122e-01
      1.30447596e-01 3.09899807e-01 3.09899807e-01 3.09899807e-01
      3.09899807e-01 3.09899807e-01 1.39671057e-01 3.09899807e-01
      3.09899807e-01 3.09899807e-01 3.09899807e-01 3.09899807e-01
      3.55012625e-01 3.55012625e-01 1.41097754e-01 2.59655058e-01
      3.55012625e-01 1.40079126e-01 3.55012625e-01 3.55012625e-01
      5.74416071e-02 3.55012625e-01 3.55012625e-01 6.29627332e-02
      1.91224992e-01 3.61745834e-01 8.83947536e-02 3.61745834e-01
      3.61745834e-01 2.12310672e-01 3.15918952e-01 3.61745834e-01
      8.41969103e-02 3.61745834e-01 3.61745834e-01 1.21963814e-01
      2.60043770e-01 3.04907769e-01 2.81620353e-01 3.04907769e-01
      3.04907769e-01 2.86147594e-01 3.04907769e-01 3.04907769e-01
      2.66990453e-01 2.14650944e-01 3.04907769e-01 3.04907769e-01
      3.71166766e-01 3.71166766e-01 1.02681749e-01 3.16635817e-01
      3.71166766e-01 3.34243141e-02 1.29390672e-01 3.71166766e-01
      3.56212556e-01 2.05426171e-01 3.71166766e-01 9.85895470e-02</_>
    <_>
      3.13883752e-01 3.42849463e-01 6.09760359e-02 3.42849463e-01
      3.07384789e-01 3.01943213e-01 2.19700560e-01 3.42849463e-01
      9.09131095e-02 2.53802985e-01 3.42849463e-01 3.42849463e-01
      3.17802370e-01 1.70024529e-01 3.17802370e-01 3.17802370e-01
      1.27009988e-01 3.17802370e-01 2.06880167e-01 3.17802370e-01
      3.17802370e-01 3.17802370e-01 3.17802370e-01 3.17802370e-01
      3.12357843e-01 1.18891343e-01 3.12357843e-01 2.51154870e-01
      3.12357843e-01 3.12357843e-01 3.12357843e-01 3.12357843e-01
      2.70991951e-01 3.06112826e-01 3.12357843e-01 2.63725758e-01
      1.48719564e-01 3.90017599e-01 8.26506689e-02 1.01405591e-01
      3.90017599e-01 3.81156743e-01 1.82802409e-01 3.90017599e-01
      7.44256526e-02 3.07117522e-01 3.90017599e-01 2.64309347e-01
      1.17569812e-01 3.06841105e-01 3.06841105e-01 3.06841105e-01
      3.06841105e-01 2.86579490e-01 2.31560349e-01 3.06841105e-01
      3.06841105e-01 3.06841105e-01 3.06841105e-01 3.06841105e-01
      3.53096068e-01 3.53096068e-01 6.43813759e-02 3.23734611e-01
      3.53096068e-01 7.39368498e-02 3.53096068e-01 3.53096068e-01
      8.75079259e-02 3.53096068e-01 3.53096068e-01 4.07563969e-02
      2.75166482e-01 3.50973517e-01 7.22372010e-02 3.50973517e-01
      3.50973517e-01 1.14867821e-01 3.12000901e-01 3.50973517e-01
      1.60240129e-01 3.50973517e-01 3.50973517e-01 2.00619340e-01
      3.16630453e-01 3.16630453e-01 2.26464197e-01 2.34154776e-01
      3.16630453e-01 3.16630453e-01 3.16630453e-01 2.81056434e-01
      2.92678893e-01 1.55833885e-01 3.16630453e-01 3.16630453e-01
      2.22797111e-01 3.90069097e-01 2.39331871e-01 2.22745433e-01
      3.90069097e-01 7.26446882e-02 7.75474012e-02 3.90069097e-01
      3.90069097e-01 2.13041812e-01 3.90069097e-01 1.48735255e-01</_>
    <_>
      2.59682834e-01 3.65124881e-01 7.24843368e-02 3.22723657e-01
      3.65124881e-01 3.02016824e-01 1.76749527e-01 3.65124881e-01
      1.14685714e-01 1.31621316e-01 3.65124881e-01 3.65124881e-01
      2.20475882e-01 3.09245884e-01 3.09245884e-01 3.09245884e-01
      2.57669032e-01 3.09245884e-01 1.45636484e-01 3.09245884e-01
      3.09245884e-01 3.09245884e-01 3.09245884e-01 3.09245884e-01
      3.27605963e-01 2.63298810e-01 3.27605963e-01 2.24334553e-01
      3.27605963e-01 3.03688467e-01 3.27605963e-01 3.27605963e-01
      1.22495562e-01 3.27605963e-01 3.27605963e-01 1.36245921e-01
      1.48250446e-01 3.87754291e-01 7.89594129e-02 1.45652384e-01
      3.87754291e-01 3.15054208e-01 2.52921313e-01 3.87754291e-01
      9.10585448e-02 3.87754291e-01 3.87754291e-01 1.53009981e-01
      1.37494132e-01 3.02133918e-01 3.02133918e-01 3.02133918e-01
      3.02133918e-01 3.01423639e-01 3.02133918e-01 3.02133918e-01
      2.56234080e-01 3.02133918e-01 3.02133918e-01 3.02133918e-01
      3.50228757e-01 3.50228757e-01 4.64639440e-02 3.50228757e-01
      3.50228757e-01 4.81458418e-02 3.50228757e-01 3.50228757e-01
      1.90993324e-01 3.06591064e-01 3.50228757e-01 5.40938303e-02
      3.07627946e-01 3.34661752e-01 9.70341861e-02 3.34661752e-01
      3.34661752e-01 1.23413354e-01 2.83533454e-01 3.34661752e-01
      2.34466031e-01 3.34661752e-01 3.34661752e-01 2.64609754e-01
      3.21541876e-01 2.58110285e-01 2.44439051e-01 1.78478345e-01
      3.21541876e-01 3.21541876e-01 3.21541876e-01 3.21541876e-01
      3.05166245e-01 1.47345781e-01 3.21541876e-01 3.21541876e-01
      9.64150950e-02 3.84204775e-01 3.48948419e-01 1.88364521e-01
      3.84204775e-01 1.10451564e-01 1.33479714e-01 3.84204775e-01
      3.78767610e-01 2.19560221e-01 3.84204775e-01 1.32205933e-01</_>
    <_>
      3.15110534e-01 2.76779264e-01 2.81343788e-01 3.15110534e-01
      3.15110534e-01 2.75460035e-01 3.15110534e-01 1.74510881e-01
      2.45183706e-01 3.15110534e-01 3.15110534e-01 2.80847162e-01
      2.24364504e-01 3.13152343e-01 3.02840531e-01 3.13152343e-01
      2.99187303e-01 3.13152343e-01 2.47056931e-01 3.13152343e-01
      2.49305815e-01 3.02856773e-01 3.13152343e-01 2.45094866e-01
      2.94887722e-01 2.94887722e-01 2.52964348e-01 2.94887722e-01
      2.94887722e-01 2.94887722e-01 2.94887722e-01 2.94887722e-01
      2.51941770e-01 2.94887722e-01 2.94887722e-01 2.94887722e-01
      3.07354450e-01 2.17443973e-01 2.30576113e-01 3.07354450e-01
      3.07354450e-01 3.00489664e-01 2.31432781e-01 3.02256823e-01
      3.07354450e-01 3.07354450e-01 3.07354450e-01 3.07354450e-01
      2.54451066e-01 3.17848831e-01 2.52918750e-01 2.48254582e-01
      3.17848831e-01 2.46428758e-01 2.88730621e-01 3.17848831e-01
      2.66429156e-01 3.07637602e-01 3.17848831e-01 3.04386526e-01
      3.02568048e-01 3.02568048e-01 3.02568048e-01 3.02568048e-01
      2.21600294e-01 3.02568048e-01 3.02568048e-01 3.02568048e-01
      3.02568048e-01 3.02568048e-01 1.79987505e-01 3.02568048e-01
      8.55348185e-02 2.65651703e-01 3.29856008e-01 3.05986971e-01
      3.29856008e-01 3.29856008e-01 1.65254638e-01 1.90381989e-01
      3.29856008e-01 3.29856008e-01 3.29856008e-01 3.29856008e-01
      2.39020944e-01 2.99867868e-01 2.52330989e-01 2.67052680e-01
      2.99867868e-01 2.99867868e-01 2.99867868e-01 2.92435676e-01
      2.99867868e-01 2.99867868e-01 2.99867868e-01 2.99867868e-01
      2.50046968e-01 3.15726221e-01 3.15726221e-01 3.15726221e-01
      2.23705783e-01 3.15726221e-01 2.06852034e-01 2.48705551e-01
      3.15726221e-01 3.15726221e-01 2.86101162e-01 3.15726221e-01</_>
    <_>
      3.20315838e-01 2.29024410e-01 2.85928518e-01 3.20315838e-01
      3.20315838e-01 2.54868686e-01 3.20315838e-01 1.91260830e-01
      2.27579072e-01 3.20315838e-01 3.20315838e-01 3.06019127e-01
      2.02751175e-01 3.27683777e-01 2.70255536e-01 3.10797960e-01
      3.27683777e-01 3.15133303e-01 2.43354246e-01 3.27683777e-01
      2.41881549e-01 2.80433774e-01 3.27683777e-01 2.46571794e-01
      2.93914884e-01 2.93914884e-01 2.16373324e-01 2.93914884e-01
      2.93914884e-01 2.93914884e-01 2.93914884e-01 2.93914884e-01
      2.93914884e-01 2.93914884e-01 2.93914884e-01 2.93914884e-01
      3.07850569e-01 2.52860636e-01 3.07850569e-01 3.07850569e-01
      3.07850569e-01 3.07850569e-01 1.40428320e-01 2.76610613e-01
      3.07850569e-01 2.80314058e-01 3.07850569e-01 3.07850569e-01
      2.75378972e-01 3.12719733e-01 2.67740667e-01 2.70622462e-01
      3.12719733e-01 2.87742883e-01 2.47849137e-01 3.12719733e-01
      2.42264271e-01 2.96997160e-01 3.12719733e-01 3.06302398e-01
      3.06252629e-01 3.06252629e-01 3.06252629e-01 3.06252629e-01
      1.76103622e-01 3.06252629e-01 3.06252629e-01 3.06252629e-01
      3.06252629e-01 3.06252629e-01 1.67393386e-01 3.06252629e-01
      9.42456126e-02 2.42317662e-01 3.28865856e-01 3.28865856e-01
      3.28865856e-01 3.28865856e-01 3.28865856e-01 1.27483487e-01
      3.15100431e-01 3.28865856e-01 2.37706736e-01 3.28865856e-01
      2.95876235e-01 2.95876235e-01 2.85884559e-01 2.94032186e-01
      2.95876235e-01 2.95876235e-01 2.95876235e-01 2.10181966e-01
      2.90413409e-01 2.95876235e-01 2.95876235e-01 2.95876235e-01
      2.11586416e-01 3.07384968e-01 3.07384968e-01 2.94503003e-01
      2.17402518e-01 3.07384968e-01 3.07384968e-01 2.49559179e-01
      3.07384968e-01 3.07384968e-01 3.07384968e-01 3.07384968e-01</_>
    <_>
      3.22351426e-01 1.73410878e-01 2.50258267e-01 3.22351426e-01
      3.22351426e-01 2.50513196e-01 3.22351426e-01 2.30718657e-01
      2.46409297e-01 3.22351426e-01 3.22351426e-01 3.22351426e-01
      2.04553694e-01 3.30220431e-01 2.49187991e-01 2.86556184e-01
      3.30220431e-01 2.55309165e-01 2.80695498e-01 3.30220431e-01
      2.80056477e-01 2.81175613e-01 3.30220431e-01 2.70190805e-01
      2.96726793e-01 2.96726793e-01 2.10459933e-01 2.96726793e-01
      2.96726793e-01 2.96726793e-01 2.96726793e-01 2.96726793e-01
      2.96726793e-01 2.96726793e-01 2.68837541e-01 2.96726793e-01
      3.08958828e-01 2.77659684e-01 3.12176079e-01 3.12176079e-01
      3.12176079e-01 3.12176079e-01 8.76357853e-02 2.48943642e-01
      3.12176079e-01 2.69258052e-01 3.12176079e-01 3.12176079e-01
      2.63117760e-01 3.15929145e-01 2.49871895e-01 2.59719521e-01
      3.15929145e-01 2.68718094e-01 2.51164585e-01 3.15929145e-01
      2.74797946e-01 2.96410173e-01 3.15929145e-01 3.15929145e-01
      3.07018936e-01 3.02452147e-01 3.07018936e-01 3.07018936e-01
      1.59952864e-01 3.07018936e-01 2.77222961e-01 3.07018936e-01
      3.07018936e-01 3.07018936e-01 2.21206710e-01 3.07018936e-01
      1.09749593e-01 2.01618195e-01 3.39981407e-01 3.39981407e-01
      3.39981407e-01 3.39981407e-01 3.39981407e-01 9.47168544e-02
      3.03726196e-01 3.39981407e-01 1.83237389e-01 3.39981407e-01
      2.94737071e-01 2.94737071e-01 2.94737071e-01 2.94737071e-01
      2.94737071e-01 2.94737071e-01 2.94737071e-01 2.34485805e-01
      2.70872116e-01 2.94737071e-01 2.94737071e-01 2.94737071e-01
      2.06072122e-01 2.54610956e-01 3.09022754e-01 3.09022754e-01
      2.46743038e-01 3.09022754e-01 3.09022754e-01 3.09022754e-01
      2.54513413e-01 3.09022754e-01 3.09022754e-01 3.09022754e-01</_>
    <_>
      1.66289538e-01 2.02443942e-01 3.35212409e-01 3.35212409e-01
      3.35212409e-01 3.35212409e-01 3.35212409e-01 7.46889487e-02
      3.27650309e-01 3.35212409e-01 1.68850005e-01 3.35212409e-01
      2.92141289e-01 2.92141289e-01 2.92141289e-01 2.92141289e-01
      2.92141289e-01 2.92141289e-01 2.92141289e-01 2.41389915e-01
      2.92141289e-01 2.92141289e-01 2.92141289e-01 2.92141289e-01
      2.17019856e-01 2.42051557e-01 3.08442622e-01 3.08442622e-01
      2.59982228e-01 3.08442622e-01 3.08442622e-01 3.08442622e-01
      2.50091672e-01 3.08442622e-01 3.08442622e-01 3.08442622e-01
      2.98680484e-01 1.77378431e-01 2.98680484e-01 2.98680484e-01
      2.98680484e-01 2.71020621e-01 2.98680484e-01 2.98680484e-01
      2.98680484e-01 2.98680484e-01 2.98680484e-01 2.98680484e-01
      2.96143830e-01 2.96143830e-01 2.91730732e-01 2.96143830e-01
      2.96143830e-01 2.96143830e-01 2.96143830e-01 2.96143830e-01
      2.96143830e-01 2.96143830e-01 1.86875179e-01 2.96143830e-01
      3.87294769e-01 2.39438266e-01 1.83951795e-01 3.87294769e-01
      3.15588653e-01 1.19894527e-01 3.87294769e-01 1.33276001e-01
      2.48310268e-01 3.87294769e-01 3.10682207e-01 1.22711688e-01
      2.97784477e-01 2.97784477e-01 2.97784477e-01 2.97784477e-01
      2.97784477e-01 2.97784477e-01 2.97784477e-01 1.46945253e-01
      2.97784477e-01 2.97784477e-01 2.97784477e-01 2.97784477e-01
      3.36759657e-01 1.02005221e-01 3.36759657e-01 3.36759657e-01
      5.63343428e-02 3.36759657e-01 3.36759657e-01 2.58608848e-01
      3.36759657e-01 3.36759657e-01 9.44541320e-02 3.36759657e-01
      3.35076690e-01 6.27999157e-02 3.35076690e-01 3.35076690e-01
      2.25632057e-01 3.35076690e-01 3.35076690e-01 3.20852548e-02
      3.35076690e-01 3.35076690e-01 2.06295609e-01 3.35076690e-01</_>
    <_>
      2.99026966e-01 1.40149832e-01 2.93561012e-01 3.32125545e-01
      2.52006263e-01 3.32125545e-01 3.32125545e-01 8.77306759e-02
      3.32125545e-01 3.32125545e-01 2.61526555e-01 3.32125545e-01
      2.95023710e-01 2.13558108e-01 2.95023710e-01 2.95023710e-01
      2.84701645e-01 2.95023710e-01 2.95023710e-01 2.95023710e-01
      2.95023710e-01 2.95023710e-01 2.95023710e-01 2.95023710e-01
      2.88019598e-01 2.17518508e-01 3.10926676e-01 3.10926676e-01
      2.56725490e-01 3.10926676e-01 3.10926676e-01 3.10926676e-01
      2.16072753e-01 3.10926676e-01 3.10926676e-01 2.78029501e-01
      2.88259089e-01 2.88259089e-01 2.88259089e-01 2.88259089e-01
      2.88259089e-01 2.88259089e-01 2.88259089e-01 2.88259089e-01
      2.88259089e-01 2.88259089e-01 2.88259089e-01 2.88259089e-01
      3.06158751e-01 3.06158751e-01 2.95726955e-01 3.06158751e-01
      3.06158751e-01 3.06158751e-01 3.06158751e-01 2.26569533e-01
      3.06158751e-01 3.06158751e-01 1.20639496e-01 3.06158751e-01
      3.78902733e-01 1.90518543e-01 2.02272877e-01 3.78902733e-01
      2.86406517e-01 8.71114135e-02 3.78902733e-01 1.05010957e-01
      3.28080684e-01 3.78902733e-01 2.76849002e-01 2.44555190e-01
      3.11496884e-01 2.22834140e-01 3.11496884e-01 3.11496884e-01
      2.14510500e-01 3.11496884e-01 3.11496884e-01 1.67166993e-01
      3.11496884e-01 3.11496884e-01 3.11496884e-01 3.11496884e-01
      3.34831834e-01 7.65371770e-02 3.34831834e-01 3.34831834e-01
      4.42699119e-02 3.34831834e-01 3.02073091e-01 3.12961161e-01
      3.34831834e-01 3.34831834e-01 1.21891052e-01 3.34831834e-01
      3.34589362e-01 3.82139795e-02 3.34589362e-01 3.34589362e-01
      1.96461946e-01 3.34589362e-01 3.34589362e-01 3.57494690e-02
      3.34589362e-01 3.34589362e-01 2.44378537e-01 3.34589362e-01</_>
    <_>
      4.41083878e-01 9.60505083e-02 1.32474154e-01 4.41083878e-01
      1.95983499e-01 8.59737694e-02 4.41083878e-01 1.84807494e-01
      2.20119283e-01 4.41083878e-01 1.92960665e-01 1.57980591e-01
      4.35374826e-01 2.27294847e-01 5.65212481e-02 4.35374826e-01
      2.75983840e-01 1.88399643e-01 4.35374826e-01 1.59770519e-01
      9.75456014e-02 4.35374826e-01 1.43269733e-01 1.23931356e-01
      3.53404254e-01 2.81135529e-01 1.54327914e-01 3.53404254e-01
      3.53404254e-01 2.00800031e-01 3.53404254e-01 2.25019991e-01
      1.59248799e-01 3.53404254e-01 3.53404254e-01 1.67130247e-01
      3.22422594e-01 1.84863552e-01 2.77047187e-01 3.22422594e-01
      2.83530563e-01 2.39095569e-01 3.22422594e-01 1.43520325e-01
      3.22422594e-01 3.22422594e-01 3.22422594e-01 3.22422594e-01
      3.56076032e-01 2.03433260e-01 1.75800726e-01 3.56076032e-01
      1.02020718e-01 1.03313401e-01 3.56076032e-01 3.02738547e-01
      3.56076032e-01 3.56076032e-01 3.13266128e-01 2.81660318e-01
      3.36723447e-01 2.47879997e-01 1.24651879e-01 3.22531313e-01
      3.36723447e-01 1.18092142e-01 3.36723447e-01 3.36723447e-01
      3.27137321e-01 3.10273319e-01 3.36723447e-01 1.77423105e-01
      2.29822889e-01 7.79497623e-02 4.25760269e-01 1.66269884e-01
      1.73150763e-01 4.25760269e-01 1.92814887e-01 1.53263941e-01
      4.25760269e-01 1.11980267e-01 2.84483731e-01 4.25760269e-01
      2.13530600e-01 2.03226700e-01 3.41966391e-01 3.29066008e-01
      3.24171335e-01 3.41966391e-01 6.42404482e-02 2.93785393e-01
      3.41966391e-01 1.81286916e-01 3.24422181e-01 3.41966391e-01
      2.79736221e-01 2.61500984e-01 3.60879719e-01 2.15449825e-01
      3.60879719e-01 3.60879719e-01 1.71082780e-01 1.97620705e-01
      3.60879719e-01 1.65523708e-01 2.37589240e-01 3.60879719e-01</_>
    <_>
      1.83650345e-01 3.45666498e-01 1.24936782e-01 3.45666498e-01
      3.45666498e-01 1.54781953e-01 2.44264707e-01 3.45666498e-01
      1.66121095e-01 3.45666498e-01 3.45666498e-01 3.45077842e-01
      3.16248029e-01 3.16248029e-01 2.13925749e-01 2.60545701e-01
      3.16248029e-01 3.16248029e-01 3.16248029e-01 2.39852235e-01
      3.16248029e-01 2.07498252e-01 2.87258595e-01 3.16248029e-01
      2.76926786e-01 3.18798363e-01 2.77810901e-01 3.19097608e-01
      3.19097608e-01 1.26707643e-01 3.19097608e-01 3.19097608e-01
      3.19097608e-01 3.19097608e-01 3.19097608e-01 1.11776993e-01
      1.80895627e-01 3.28148603e-01 2.07621172e-01 3.11559170e-01
      3.28148603e-01 3.02752554e-01 1.28582805e-01 3.28148603e-01
      2.63705701e-01 3.28148603e-01 3.28148603e-01 3.28148603e-01
      3.08223337e-01 2.13807628e-01 3.08223337e-01 3.08223337e-01
      2.83902913e-01 3.08223337e-01 3.08223337e-01 2.79149503e-01
      3.08223337e-01 3.08223337e-01 2.91798145e-01 2.06212521e-01
      3.02587628e-01 2.94369668e-01 3.02587628e-01 3.02587628e-01
      3.02587628e-01 2.67107755e-01 3.02587628e-01 3.02587628e-01
      3.02587628e-01 1.22241080e-01 3.02587628e-01 3.02587628e-01
      1.07662536e-01 3.34519297e-01 1.82792202e-01 1.73204273e-01
      3.34519297e-01 3.34519297e-01 3.15522015e-01 3.34519297e-01
      2.95438826e-01 2.51786828e-01 3.34519297e-01 3.34519297e-01
      3.00111473e-01 3.00111473e-01 3.00111473e-01 3.00111473e-01
      3.00111473e-01 2.26060987e-01 3.00111473e-01 3.00111473e-01
      3.00111473e-01 3.00111473e-01 3.00111473e-01 2.12670520e-01
      3.05438697e-01 3.05438697e-01 3.05438697e-01 1.20301060e-01
      3.05438697e-01 3.05438697e-01 2.84909159e-01 3.05438697e-01
      2.48328760e-01 3.05438697e-01 3.05438697e-01 3.05438697e-01</_>
    <_>
      1.82279438e-01 3.44062626e-01 9.89621729e-02 3.44062626e-01
      3.44062626e-01 1.83046415e-01 2.49269351e-01 3.44062626e-01
      1.80137172e-01 3.44062626e-01 3.44062626e-01 3.39378774e-01
      3.06726158e-01 3.06726158e-01 2.76036531e-01 2.29234487e-01
      3.06726158e-01 3.06726158e-01 3.06726158e-01 2.38971964e-01
      3.06726158e-01 2.64666557e-01 2.87172377e-01 3.06726158e-01
      3.01491916e-01 3.02959085e-01 3.12658936e-01 3.12658936e-01
      3.12658936e-01 8.47279653e-02 3.12658936e-01 3.12658936e-01
      3.12658936e-01 3.12658936e-01 3.12658936e-01 1.58020452e-01
      1.61075160e-01 3.43053639e-01 2.23509640e-01 3.00947100e-01
      3.43053639e-01 2.88865685e-01 1.26516074e-01 3.43053639e-01
      2.40439802e-01 2.90536523e-01 3.43053639e-01 3.43053639e-01
      3.06251258e-01 2.25074217e-01 3.06251258e-01 3.06251258e-01
      2.80486196e-01 3.06251258e-01 3.06251258e-01 3.06251258e-01
      3.06251258e-01 3.06251258e-01 2.85365760e-01 1.89358771e-01
      3.06338340e-01 2.93067962e-01 3.06338340e-01 2.39501059e-01
      3.06338340e-01 3.06338340e-01 3.06338340e-01 3.06338340e-01
      3.06338340e-01 9.53984782e-02 3.06338340e-01 3.06338340e-01
      1.47868380e-01 3.18534493e-01 2.07887977e-01 1.66472733e-01
      3.18534493e-01 3.18534493e-01 3.18534493e-01 3.18534493e-01
      3.11178923e-01 3.11351478e-01 3.18534493e-01 3.18534493e-01
      2.96547443e-01 2.96547443e-01 2.96547443e-01 2.96547443e-01
      2.96547443e-01 2.46418014e-01 2.96547443e-01 2.96547443e-01
      2.96547443e-01 2.96547443e-01 2.96547443e-01 2.38560364e-01
      2.88625062e-01 3.00339907e-01 2.95259297e-01 1.91548690e-01
      3.00339907e-01 3.00339907e-01 3.00339907e-01 3.00339907e-01
      2.61137992e-01 3.00339907e-01 3.00339907e-01 3.00339907e-01</_>
    <_>
      2.12372541e-01 3.32033545e-01 1.27635151e-01 3.32033545e-01
      3.32033545e-01 2.60456979e-01 2.22133234e-01 3.32033545e-01
      2.15371177e-01 3.32033545e-01 3.32033545e-01 3.32033545e-01
      3.07375520e-01 2.59985566e-01 3.07375520e-01 1.93819284e-01
      2.73050576e-01 3.07375520e-01 3.07375520e-01 2.47741848e-01
      3.07375520e-01 3.07375520e-01 3.07375520e-01 3.07375520e-01
      3.06764454e-01 2.94724643e-01 3.06764454e-01 3.06764454e-01
      3.06764454e-01 6.86455071e-02 3.06764454e-01 3.06764454e-01
      3.06764454e-01 3.06764454e-01 3.06764454e-01 2.41702333e-01
      1.28351659e-01 3.50613207e-01 2.36714110e-01 3.06330323e-01
      3.50613207e-01 3.17062527e-01 1.23212039e-01 3.50613207e-01
      2.15861022e-01 2.30644494e-01 3.50613207e-01 3.50613207e-01
      3.09276551e-01 2.38509774e-01 3.00644159e-01 3.09276551e-01
      2.64619708e-01 2.54604995e-01 3.09276551e-01 3.09276551e-01
      3.09276551e-01 3.09276551e-01 3.09276551e-01 2.12660983e-01
      3.14635605e-01 2.88387150e-01 2.94124216e-01 1.53966337e-01
      3.14635605e-01 3.14635605e-01 3.14635605e-01 3.14635605e-01
      3.14635605e-01 1.07284144e-01 3.14635605e-01 3.14635605e-01
      2.29421824e-01 3.06276768e-01 2.49715090e-01 1.94160730e-01
      3.06276768e-01 3.06276768e-01 3.06276768e-01 3.06276768e-01
      3.06276768e-01 3.06276768e-01 3.06276768e-01 3.06276768e-01
      2.94523716e-01 2.94523716e-01 2.94523716e-01 2.94523716e-01
      2.94523716e-01 2.42829219e-01 2.94523716e-01 2.86416471e-01
      2.94523716e-01 2.94523716e-01 2.94523716e-01 2.74515301e-01
      2.73815364e-01 2.92933315e-01 2.65110999e-01 2.92933315e-01
      2.92933315e-01 2.92933315e-01 2.92933315e-01 2.92933315e-01
      2.82001257e-01 2.92933315e-01 2.92933315e-01 2.92933315e-01</_>
    <_>
      2.20056683e-01 3.23181778e-01 1.42489731e-01 3.23181778e-01
      3.23181778e-01 2.90341496e-01 2.07881704e-01 3.23181778e-01
      2.63447046e-01 3.23181778e-01 3.23181778e-01 3.23181778e-01
      3.13339710e-01 2.27650642e-01 3.13339710e-01 1.76404476e-01
      2.47018546e-01 3.13339710e-01 3.13339710e-01 2.59717882e-01
      3.13339710e-01 3.13339710e-01 3.13339710e-01 3.13339710e-01
      3.00675362e-01 2.90502071e-01 3.00675362e-01 3.00675362e-01
      3.00675362e-01 9.24517885e-02 3.00675362e-01 3.00675362e-01
      3.00675362e-01 3.00675362e-01 3.00675362e-01 3.00675362e-01
      1.22861341e-01 3.50896835e-01 2.28083402e-01 2.93241322e-01
      3.50896835e-01 3.50896835e-01 1.46319643e-01 3.50896835e-01
      2.16338038e-01 1.90796822e-01 3.50896835e-01 3.50896835e-01
      3.11600029e-01 2.58524537e-01 3.11600029e-01 3.11600029e-01
      2.55707532e-01 1.92088604e-01 3.11600029e-01 3.11600029e-01
      3.11600029e-01 3.11600029e-01 3.11600029e-01 2.25855142e-01
      3.13955307e-01 2.82294750e-01 3.13955307e-01 1.02505140e-01
      3.13955307e-01 3.13955307e-01 3.13955307e-01 3.13955307e-01
      3.13955307e-01 1.39835089e-01 3.13955307e-01 3.13955307e-01
      2.93485612e-01 2.93485612e-01 2.87314743e-01 2.70683110e-01
      2.93485612e-01 2.93485612e-01 2.93485612e-01 2.93485612e-01
      2.93485612e-01 2.93485612e-01 2.93485612e-01 2.56990343e-01
      2.96098500e-01 2.96098500e-01 2.96098500e-01 2.96098500e-01
      2.96098500e-01 2.25016311e-01 2.96098500e-01 2.63942629e-01
      2.96098500e-01 2.96098500e-01 2.96098500e-01 2.96098500e-01
      2.91766942e-01 2.91766942e-01 2.54021943e-01 2.91766942e-01
      2.91766942e-01 2.91766942e-01 2.91766942e-01 2.91766942e-01
      2.85092533e-01 2.91766942e-01 2.91766942e-01 2.91766942e-01</_>
    <_>
      2.15150967e-01 3.21278930e-01 1.65191218e-01 3.21278930e-01
      3.21278930e-01 3.10156435e-01 1.70074552e-01 3.21278930e-01
      2.74860561e-01 3.21278930e-01 3.21278930e-01 3.21278930e-01
      3.14609617e-01 2.01693267e-01 3.14609617e-01 2.25263670e-01
      2.50356048e-01 3.14609617e-01 3.14609617e-01 2.52249807e-01
      3.14609617e-01 3.14609617e-01 2.93717295e-01 3.14609617e-01
      3.04820061e-01 2.93808967e-01 3.04820061e-01 3.04820061e-01
      3.04820061e-01 1.45594686e-01 3.04820061e-01 3.04820061e-01
      3.04820061e-01 2.30640769e-01 3.04820061e-01 3.04820061e-01
      1.05009176e-01 3.54191005e-01 2.01406538e-01 2.45910197e-01
      3.54191005e-01 3.54191005e-01 1.93492919e-01 3.54191005e-01
      2.50372320e-01 1.77663833e-01 3.54191005e-01 3.54191005e-01
      3.06399435e-01 3.06399435e-01 3.06399435e-01 3.06399435e-01
      2.91267902e-01 1.88499734e-01 2.85739124e-01 3.06399435e-01
      3.06399435e-01 3.06399435e-01 3.06399435e-01 2.09469184e-01
      3.14514458e-01 3.14514458e-01 3.14514458e-01 8.67955089e-02
      3.14514458e-01 3.14514458e-01 2.65505612e-01 3.14514458e-01
      2.63271987e-01 2.41171867e-01 3.14514458e-01 3.14514458e-01
      2.95297265e-01 2.95297265e-01 2.95297265e-01 2.95297265e-01
      2.95297265e-01 2.95297265e-01 2.95297265e-01 2.95297265e-01
      2.70279676e-01 2.95297265e-01 2.95297265e-01 2.28020743e-01
      2.96233028e-01 2.77548879e-01 2.96233028e-01 2.96233028e-01
      2.96233028e-01 2.06073776e-01 2.96233028e-01 2.96233028e-01
      2.96233028e-01 2.96233028e-01 2.96233028e-01 2.96233028e-01
      3.02689135e-01 3.02689135e-01 2.39843041e-01 3.02689135e-01
      3.02689135e-01 3.02689135e-01 3.02689135e-01 3.02689135e-01
      2.34658584e-01 2.91821927e-01 3.02689135e-01 2.57410914e-01</_>
    <_>
      1.94599792e-01 3.34782034e-01 1.25053376e-01 3.34782034e-01
      3.34782034e-01 2.09752321e-01 2.69558698e-01 3.34782034e-01
      2.04784527e-01 3.34782034e-01 3.34782034e-01 3.34782034e-01
      3.10424805e-01 3.10424805e-01 3.10424805e-01 1.38562113e-01
      3.10424805e-01 3.10424805e-01 3.10424805e-01 3.04982692e-01
      3.10424805e-01 1.31955534e-01 3.10424805e-01 3.10424805e-01
      2.15544388e-01 3.17101091e-01 3.17101091e-01 3.17101091e-01
      3.17101091e-01 1.66730270e-01 2.77712375e-01 3.17101091e-01
      3.17101091e-01 3.17101091e-01 3.17101091e-01 2.02544093e-01
      1.21164426e-01 3.31925571e-01 2.50697345e-01 3.31925571e-01
      3.31925571e-01 3.31925571e-01 1.15214609e-01 3.31925571e-01
      2.25899056e-01 2.89182723e-01 3.31925571e-01 3.31925571e-01
      3.04666013e-01 2.44001776e-01 3.04666013e-01 2.97373354e-01
      3.04666013e-01 3.04666013e-01 3.04666013e-01 2.24878743e-01
      3.04666013e-01 3.04666013e-01 3.04666013e-01 2.36318231e-01
      2.30344370e-01 2.84413517e-01 3.12827289e-01 3.12827289e-01
      3.12827289e-01 2.51064301e-01 3.12827289e-01 2.73048609e-01
      3.12827289e-01 2.00772256e-01 3.12827289e-01 3.12827289e-01
      1.72428980e-01 3.43228340e-01 1.97848558e-01 1.94469362e-01
      3.43228340e-01 3.43228340e-01 2.50807524e-01 3.43228340e-01
      2.81062931e-01 2.02833936e-01 3.43228340e-01 3.43228340e-01
      3.06060851e-01 3.06060851e-01 3.06060851e-01 3.06060851e-01
      3.06060851e-01 1.64233655e-01 3.06060851e-01 3.06060851e-01
      3.06060851e-01 3.06060851e-01 3.06060851e-01 1.82309374e-01
      3.18408012e-01 3.18408012e-01 2.96487749e-01 1.18473142e-01
      3.18408012e-01 3.18408012e-01 3.17254275e-01 3.18408012e-01
      1.87782198e-01 2.21989945e-01 3.18408012e-01 3.18408012e-01</_>
    <_>
      3.10028166e-01 1.26136661e-01 2.98989683e-01 3.10028166e-01
      2.21519947e-01 2.71267653e-01 3.10028166e-01 3.10028166e-01
      3.10028166e-01 3.10028166e-01 3.10028166e-01 3.10028166e-01
      2.95357436e-01 2.54676700e-01 2.44598106e-01 2.95357436e-01
      2.95357436e-01 2.95357436e-01 2.95357436e-01 2.95357436e-01
      2.95357436e-01 2.95357436e-01 2.95357436e-01 2.95357436e-01
      3.50703239e-01 2.65219986e-01 3.53442043e-01 3.53442043e-01
      2.15428486e-01 2.01246992e-01 3.53442043e-01 1.46798730e-01
      3.53442043e-01 3.53442043e-01 1.11091584e-01 2.40263999e-01
      3.05381149e-01 3.05381149e-01 3.05381149e-01 3.05381149e-01
      3.05381149e-01 3.05381149e-01 3.05381149e-01 1.56636864e-01
      3.05381149e-01 3.05381149e-01 1.99592307e-01 3.05381149e-01
      3.33555788e-01 2.12109923e-01 3.33555788e-01 3.33555788e-01
      1.61918923e-01 3.33555788e-01 3.33555788e-01 1.42863050e-01
      3.33555788e-01 3.33555788e-01 1.22366264e-01 3.33555788e-01
      3.57449472e-01 5.58788106e-02 3.05933565e-01 3.57449472e-01
      5.17622083e-02 3.57449472e-01 3.57449472e-01 4.22320142e-02
      3.57449472e-01 3.57449472e-01 2.92766169e-02 3.57449472e-01
      3.11932057e-01 6.53841868e-02 3.11932057e-01 3.11932057e-01
      2.94755936e-01 3.11932057e-01 3.11932057e-01 1.79720879e-01
      3.11932057e-01 3.08244377e-01 3.11932057e-01 3.11932057e-01
      2.26579204e-01 2.70153970e-01 3.64951193e-01 3.64951193e-01
      1.71357289e-01 3.64951193e-01 1.70865119e-01 2.33916044e-01
      3.64951193e-01 2.59307832e-01 1.59907460e-01 3.64951193e-01
      3.32592100e-01 8.90020803e-02 3.32592100e-01 3.32592100e-01
      8.47521797e-02 3.32592100e-01 3.12336683e-01 1.88502133e-01
      3.32592100e-01 3.32592100e-01 2.72328377e-01 3.32592100e-01</_>
    <_>
      1.79708555e-01 3.38083297e-01 2.04315722e-01 3.38083297e-01
      3.38083297e-01 2.15592325e-01 3.38083297e-01 3.38083297e-01
      1.47934854e-01 3.38083297e-01 3.38083297e-01 2.32626483e-01
      3.49886239e-01 3.03803056e-01 1.65534437e-01 1.93271637e-01
      3.49886239e-01 2.87676394e-01 3.49886239e-01 3.49886239e-01
      2.13623837e-01 1.79091573e-01 3.49886239e-01 2.58619010e-01
      3.64521816e-02 4.58504647e-01 1.64018497e-01 3.75389606e-02
      4.58504647e-01 1.17991075e-01 1.33161128e-01 4.58504647e-01
      1.80414513e-01 1.18461303e-01 4.58504647e-01 2.15958327e-01
      3.29052180e-01 3.29052180e-01 1.26001403e-01 3.29052180e-01
      3.29052180e-01 1.48619875e-01 2.03366652e-01 3.29052180e-01
      2.26246238e-01 3.29052180e-01 3.29052180e-01 3.29052180e-01
      3.02928180e-01 3.02928180e-01 1.75940901e-01 2.45996311e-01
      3.02928180e-01 2.90075362e-01 3.02928180e-01 3.02928180e-01
      3.02928180e-01 2.95357227e-01 3.02928180e-01 3.02928180e-01
      2.66992271e-01 3.01663727e-01 2.42715269e-01 2.22195327e-01
      3.01663727e-01 2.99017280e-01 3.01663727e-01 3.01663727e-01
      3.01663727e-01 3.01663727e-01 3.01663727e-01 3.01663727e-01
      7.01398030e-02 4.25563067e-01 1.45742208e-01 2.27974609e-01
      4.25563067e-01 3.05340588e-01 1.01877578e-01 4.25563067e-01
      1.41874865e-01 1.79040790e-01 4.25563067e-01 1.93402424e-01
      2.20323741e-01 3.51082385e-01 3.51082385e-01 1.79726794e-01
      3.51082385e-01 2.58178443e-01 1.71774745e-01 3.51082385e-01
      2.38193095e-01 3.02469045e-01 3.51082385e-01 2.34451503e-01
      1.65853485e-01 4.26830113e-01 2.33346581e-01 1.73976228e-01
      4.26830113e-01 2.22809747e-01 1.93136856e-01 4.26830113e-01
      1.44084677e-01 9.71703008e-02 4.26830113e-01 1.93975270e-01</_>
    <_>
      1.13738760e-01 3.62416655e-01 1.25718400e-01 3.62416655e-01
      3.62416655e-01 1.34519160e-01 1.84215620e-01 3.62416655e-01
      1.72486290e-01 3.62416655e-01 3.62416655e-01 3.12698424e-01
      3.16025168e-01 3.16025168e-01 1.87485516e-01 1.80561319e-01
      3.16025168e-01 3.16025168e-01 3.16025168e-01 3.16025168e-01
      3.16025168e-01 1.74147040e-01 3.15890193e-01 3.16025168e-01
      2.14291111e-01 3.21460962e-01 3.21460962e-01 3.21460962e-01
      3.21460962e-01 1.43270582e-01 2.60014594e-01 3.00644994e-01
      3.21460962e-01 3.21460962e-01 3.21460962e-01 2.21327394e-01
      1.84654206e-01 3.36748689e-01 2.14127332e-01 2.38104910e-01
      3.36748689e-01 3.16458493e-01 1.18187487e-01 3.36748689e-01
      3.22543532e-01 2.73581445e-01 3.36748689e-01 3.36748689e-01
      2.78404176e-01 2.95477897e-01 2.95477897e-01 2.95477897e-01
      2.95477897e-01 2.95477897e-01 2.95477897e-01 2.95477897e-01
      2.95477897e-01 2.95477897e-01 2.95477897e-01 2.15561137e-01
      2.80608207e-01 3.04913789e-01 3.04913789e-01 3.04913789e-01
      3.04913789e-01 2.11435914e-01 3.04913789e-01 3.04913789e-01
      2.09387168e-01 2.93061137e-01 3.04913789e-01 3.04913789e-01
      6.99543953e-02 3.77015054e-01 2.06584454e-01 2.26146907e-01
      3.77015054e-01 3.77015054e-01 6.08065650e-02 3.77015054e-01
      1.71542689e-01 1.07488632e-01 3.77015054e-01 3.77015054e-01
      3.06011468e-01 3.06011468e-01 3.06011468e-01 3.06011468e-01
      3.06011468e-01 1.62041187e-01 1.94259673e-01 3.06011468e-01
      3.06011468e-01 3.06011468e-01 3.06011468e-01 3.00267994e-01
      3.22038144e-01 2.77991831e-01 2.30966076e-01 2.51431942e-01
      3.22038144e-01 3.22038144e-01 3.22038144e-01 2.61242330e-01
      2.79061854e-01 1.85916752e-01 3.22038144e-01 3.22038144e-01</_>
    <_>
      3.94172102e-01 2.56259024e-01 1.60785735e-01 3.94172102e-01
      2.36246690e-01 7.23969042e-02 3.94172102e-01 2.71298826e-01
      2.00805753e-01 3.94172102e-01 2.96643555e-01 1.41695797e-01
      3.49646538e-01 2.50966519e-01 1.07974321e-01 3.49646538e-01
      3.49646538e-01 3.00469697e-01 3.49646538e-01 2.40013003e-01
      1.69146478e-01 3.49646538e-01 2.54487842e-01 2.63320386e-01
      3.22527528e-01 2.76726454e-01 2.02395439e-01 3.22527528e-01
      3.22527528e-01 2.56691545e-01 3.22527528e-01 3.22527528e-01
      2.31577531e-01 3.22527528e-01 3.22527528e-01 1.77620858e-01
      3.19979548e-01 2.13461220e-01 3.05966169e-01 3.19979548e-01
      3.19979548e-01 2.80443460e-01 3.19979548e-01 1.16422735e-01
      3.19979548e-01 2.62875825e-01 2.86345780e-01 3.19979548e-01
      3.18226099e-01 2.79914051e-01 2.07034737e-01 3.18226099e-01
      2.17064798e-01 1.96652159e-01 3.18226099e-01 2.84500927e-01
      3.18226099e-01 3.18226099e-01 3.18226099e-01 3.18226099e-01
      3.33453745e-01 3.33453745e-01 2.18017951e-01 2.02215046e-01
      3.33453745e-01 1.41087890e-01 3.33453745e-01 3.33453745e-01
      3.33453745e-01 2.06249058e-01 3.33453745e-01 2.59733230e-01
      2.65494585e-01 1.42032132e-01 3.46369863e-01 2.03116611e-01
      1.64253131e-01 3.46369863e-01 2.87204623e-01 3.25696141e-01
      3.46369863e-01 2.21852511e-01 3.46369863e-01 3.46369863e-01
      1.68469146e-01 1.87189385e-01 3.33699912e-01 2.65322208e-01
      3.33699912e-01 3.33699912e-01 1.08432345e-01 3.25815469e-01
      3.33699912e-01 2.77130455e-01 3.33699912e-01 3.33699912e-01
      2.51322627e-01 2.76282698e-01 3.11673403e-01 1.95806965e-01
      3.11673403e-01 3.11673403e-01 2.99864233e-01 3.11673403e-01
      3.11673403e-01 2.92164147e-01 2.46839717e-01 3.11673403e-01</_>
    <_>
      3.14442575e-01 3.14442575e-01 1.14660606e-01 3.14442575e-01
      3.14442575e-01 3.14442575e-01 2.46327907e-01 3.14442575e-01
      1.82116613e-01 3.14442575e-01 3.14442575e-01 3.14442575e-01
      7.25528970e-02 3.67651314e-01 3.67651314e-01 8.34993273e-02
      3.67651314e-01 3.67651314e-01 1.47266060e-01 3.67651314e-01
      1.94681853e-01 2.79091865e-01 3.67651314e-01 1.88693628e-01
      2.67260075e-01 3.51403207e-01 1.71402335e-01 3.51403207e-01
      3.51403207e-01 1.35505289e-01 3.51403207e-01 3.51403207e-01
      1.01362720e-01 3.51403207e-01 3.51403207e-01 5.15451543e-02
      1.28523245e-01 3.21317405e-01 3.21317405e-01 3.21317405e-01
      3.21317405e-01 3.00035775e-01 1.90309420e-01 2.56010175e-01
      3.21317405e-01 3.21317405e-01 2.56469578e-01 3.21317405e-01
      2.76884109e-01 3.32710117e-01 1.08864777e-01 3.32710117e-01
      3.32710117e-01 1.98964328e-01 3.32710117e-01 2.47910693e-01
      3.30258697e-01 3.32710117e-01 2.23867372e-01 3.07319582e-01
      3.56800288e-01 3.56800288e-01 1.02209911e-01 3.56800288e-01
      3.56800288e-01 4.75866273e-02 3.56800288e-01 1.80007517e-01
      1.73766866e-01 3.56800288e-01 3.56800288e-01 1.73150405e-01
      2.61727840e-01 1.62433922e-01 3.26590747e-01 3.26590747e-01
      1.53938964e-01 3.26590747e-01 2.15595841e-01 2.91618377e-01
      3.26590747e-01 3.26590747e-01 3.26590747e-01 3.26590747e-01
      3.10075074e-01 1.17304482e-01 3.10075074e-01 3.10075074e-01
      1.47226900e-01 3.10075074e-01 3.10075074e-01 3.10075074e-01
      3.10075074e-01 3.10075074e-01 3.10075074e-01 3.10075074e-01
      3.06807488e-01 1.74641088e-01 2.19576672e-01 3.06807488e-01
      3.06807488e-01 3.06807488e-01 3.06807488e-01 3.06807488e-01
      2.66539693e-01 3.06807488e-01 3.06807488e-01 3.06807488e-01</_>
    <_>
      3.49068940e-01 2.32111827e-01 1.55082688e-01 3.49068940e-01
      3.31778467e-01 3.49068940e-01 3.49068940e-01 1.93053380e-01
      1.71189085e-01 3.49068940e-01 1.04110129e-01 3.49068940e-01
      3.19926709e-01 2.68998384e-01 3.19926709e-01 3.19926709e-01
      3.17941129e-01 3.19926709e-01 3.19926709e-01 4.33383286e-02
      3.19926709e-01 3.19926709e-01 5.15137576e-02 3.19926709e-01
      3.35485667e-01 2.08148763e-01 3.35485667e-01 3.30272883e-01
      2.00777605e-01 3.35485667e-01 3.35485667e-01 6.18444830e-02
      3.35485667e-01 2.85205483e-01 2.08469838e-01 3.35485667e-01
      3.61130446e-01 2.81150341e-01 9.07021612e-02 3.61130446e-01
      1.76431701e-01 2.03983188e-01 3.61130446e-01 3.61130446e-01
      6.04432970e-02 3.61130446e-01 3.61130446e-01 2.24137664e-01
      3.23001355e-01 7.03361183e-02 3.23001355e-01 3.23001355e-01
      5.86712845e-02 3.23001355e-01 3.23001355e-01 2.68445075e-01
      3.23001355e-01 3.23001355e-01 2.85799384e-01 3.23001355e-01
      2.95028687e-01 1.06198527e-01 3.31000566e-01 1.42457366e-01
      3.11813295e-01 3.31000566e-01 2.95637727e-01 3.31000566e-01
      3.31000566e-01 1.89950004e-01 3.31000566e-01 3.31000566e-01
      1.47942349e-01 3.35165709e-01 2.32073203e-01 3.01000446e-01
      3.35165709e-01 3.35165709e-01 4.94412705e-02 3.35165709e-01
      3.35165709e-01 2.72178024e-01 2.82424241e-01 3.35165709e-01
      3.37124288e-01 1.95725217e-01 3.37124288e-01 3.37124288e-01
      2.02584788e-01 3.37124288e-01 3.37124288e-01 6.36125207e-02
      3.37124288e-01 3.37124288e-01 6.33553490e-02 3.37124288e-01
      3.52370113e-01 3.30699652e-01 2.06964135e-01 3.52370113e-01
      3.52370113e-01 1.25932261e-01 3.52370113e-01 1.54573679e-01
      2.26796582e-01 3.52370113e-01 3.52370113e-01 9.00349841e-02</_>
    <_>
      3.12530547e-01 3.12530547e-01 2.30261207e-01 3.12530547e-01
      3.04154366e-01 3.12530547e-01 3.12530547e-01 3.12530547e-01
      1.88730776e-01 3.12530547e-01 1.85270220e-01 3.12530547e-01
      3.22661042e-01 2.64166057e-01 3.22661042e-01 3.22661042e-01
      2.93219835e-01 3.22661042e-01 3.22661042e-01 6.00599498e-02
      3.22661042e-01 3.22661042e-01 6.72760457e-02 3.22661042e-01
      2.63443917e-01 2.96677023e-01 3.06030393e-01 2.76412904e-01
      3.06030393e-01 3.06030393e-01 3.06030393e-01 2.32370719e-01
      3.06030393e-01 2.31386557e-01 3.06030393e-01 3.06030393e-01
      3.42921466e-01 3.42921466e-01 2.11589843e-01 3.42921466e-01
      2.21642986e-01 2.67396301e-01 1.56692117e-01 3.42921466e-01
      3.42921466e-01 2.35088870e-01 2.13979498e-01 3.42921466e-01
      3.49364966e-01 6.35522455e-02 3.47716182e-01 3.49364966e-01
      7.69886374e-02 3.49364966e-01 3.49364966e-01 5.49088158e-02
      3.49364966e-01 3.49364966e-01 9.07228887e-02 3.49364966e-01
      2.42855534e-01 2.68260151e-01 3.21217030e-01 2.28334069e-01
